<?xml version="1.0"?>
<MethodSetup Method="BDT::BDT">
  <GeneralInfo>
    <Info name="TMVA Release" value="4.1.3 [262403]"/>
    <Info name="ROOT Release" value="5.34/03 [336387]"/>
    <Info name="Creator" value="dmorton"/>
    <Info name="Date" value="Thu Jan 12 19:25:44 2017"/>
    <Info name="Host" value="Linux e906-gat2.fnal.gov 2.6.18-238.12.1.el5 #1 SMP Tue May 31 13:12:32 EDT 2011 x86_64 x86_64 x86_64 GNU/Linux"/>
    <Info name="Dir" value="/seaquest/users/dmorton/TMVA-v4.2.0/test"/>
    <Info name="Training events" value="109525"/>
    <Info name="TrainingTime" value="1.44429969e+02"/>
    <Info name="AnalysisType" value="Classification"/>
  </GeneralInfo>
  <Options>
    <Option name="V" modified="No">False</Option>
    <Option name="VerbosityLevel" modified="No">Default</Option>
    <Option name="VarTransform" modified="No">None</Option>
    <Option name="H" modified="No">False</Option>
    <Option name="CreateMVAPdfs" modified="No">False</Option>
    <Option name="IgnoreNegWeightsInTraining" modified="No">False</Option>
    <Option name="NTrees" modified="Yes">128</Option>
    <Option name="RenormByClass" modified="No">False</Option>
    <Option name="BoostType" modified="No">AdaBoost</Option>
    <Option name="AdaBoostR2Loss" modified="No">quadratic</Option>
    <Option name="UseBaggedGrad" modified="No">False</Option>
    <Option name="GradBaggingFraction" modified="No">6.000000e-01</Option>
    <Option name="Shrinkage" modified="No">1.000000e+00</Option>
    <Option name="AdaBoostBeta" modified="No">1.000000e+00</Option>
    <Option name="UseRandomisedTrees" modified="No">False</Option>
    <Option name="UseNvars" modified="No">8</Option>
    <Option name="UsePoissonNvars" modified="No">True</Option>
    <Option name="UseNTrainEvents" modified="No">109525</Option>
    <Option name="UseWeightedTrees" modified="No">True</Option>
    <Option name="UseYesNoLeaf" modified="No">True</Option>
    <Option name="NodePurityLimit" modified="No">5.000000e-01</Option>
    <Option name="SeparationType" modified="Yes">crossentropy</Option>
    <Option name="nEventsMin" modified="No">40</Option>
    <Option name="nCuts" modified="No">20</Option>
    <Option name="UseFisherCuts" modified="No">False</Option>
    <Option name="MinLinCorrForFisher" modified="No">8.000000e-01</Option>
    <Option name="UseExclusiveVars" modified="No">False</Option>
    <Option name="PruneStrength" modified="No">0.000000e+00</Option>
    <Option name="PruneMethod" modified="No">nopruning</Option>
    <Option name="PruneBeforeBoost" modified="No">False</Option>
    <Option name="PruningValFraction" modified="No">5.000000e-01</Option>
    <Option name="NNodesMax" modified="No">100000</Option>
    <Option name="MaxDepth" modified="Yes">7</Option>
    <Option name="DoBoostMonitor" modified="No">False</Option>
    <Option name="NegWeightTreatment" modified="No">inverseboostnegweights</Option>
  </Options>
  <Variables NVar="70">
    <Variable VarIndex="0" Expression="h1r1" Label="h1r1" Title="h1r1" Unit="" Internal="h1r1" Type="/" Min="0.00000000e+00" Max="1.00000000e+00"/>
    <Variable VarIndex="1" Expression="h1l1" Label="h1l1" Title="h1l1" Unit="" Internal="h1l1" Type="/" Min="0.00000000e+00" Max="1.00000000e+00"/>
    <Variable VarIndex="2" Expression="h1r2" Label="h1r2" Title="h1r2" Unit="" Internal="h1r2" Type="/" Min="0.00000000e+00" Max="1.00000000e+00"/>
    <Variable VarIndex="3" Expression="h1l2" Label="h1l2" Title="h1l2" Unit="" Internal="h1l2" Type="/" Min="0.00000000e+00" Max="1.00000000e+00"/>
    <Variable VarIndex="4" Expression="h1r3" Label="h1r3" Title="h1r3" Unit="" Internal="h1r3" Type="/" Min="0.00000000e+00" Max="1.00000000e+00"/>
    <Variable VarIndex="5" Expression="h1l3" Label="h1l3" Title="h1l3" Unit="" Internal="h1l3" Type="/" Min="0.00000000e+00" Max="1.00000000e+00"/>
    <Variable VarIndex="6" Expression="h1r4" Label="h1r4" Title="h1r4" Unit="" Internal="h1r4" Type="/" Min="0.00000000e+00" Max="1.00000000e+00"/>
    <Variable VarIndex="7" Expression="h1l4" Label="h1l4" Title="h1l4" Unit="" Internal="h1l4" Type="/" Min="0.00000000e+00" Max="1.00000000e+00"/>
    <Variable VarIndex="8" Expression="h1r5" Label="h1r5" Title="h1r5" Unit="" Internal="h1r5" Type="/" Min="0.00000000e+00" Max="1.00000000e+00"/>
    <Variable VarIndex="9" Expression="h1l5" Label="h1l5" Title="h1l5" Unit="" Internal="h1l5" Type="/" Min="0.00000000e+00" Max="1.00000000e+00"/>
    <Variable VarIndex="10" Expression="h1r6" Label="h1r6" Title="h1r6" Unit="" Internal="h1r6" Type="/" Min="0.00000000e+00" Max="1.00000000e+00"/>
    <Variable VarIndex="11" Expression="h1l6" Label="h1l6" Title="h1l6" Unit="" Internal="h1l6" Type="/" Min="0.00000000e+00" Max="1.00000000e+00"/>
    <Variable VarIndex="12" Expression="h1r7" Label="h1r7" Title="h1r7" Unit="" Internal="h1r7" Type="/" Min="0.00000000e+00" Max="1.00000000e+00"/>
    <Variable VarIndex="13" Expression="h1l7" Label="h1l7" Title="h1l7" Unit="" Internal="h1l7" Type="/" Min="0.00000000e+00" Max="1.00000000e+00"/>
    <Variable VarIndex="14" Expression="h1r8" Label="h1r8" Title="h1r8" Unit="" Internal="h1r8" Type="/" Min="0.00000000e+00" Max="1.00000000e+00"/>
    <Variable VarIndex="15" Expression="h1l8" Label="h1l8" Title="h1l8" Unit="" Internal="h1l8" Type="/" Min="0.00000000e+00" Max="1.00000000e+00"/>
    <Variable VarIndex="16" Expression="h1r9" Label="h1r9" Title="h1r9" Unit="" Internal="h1r9" Type="/" Min="0.00000000e+00" Max="1.00000000e+00"/>
    <Variable VarIndex="17" Expression="h1l9" Label="h1l9" Title="h1l9" Unit="" Internal="h1l9" Type="/" Min="0.00000000e+00" Max="1.00000000e+00"/>
    <Variable VarIndex="18" Expression="h1r10" Label="h1r10" Title="h1r10" Unit="" Internal="h1r10" Type="/" Min="0.00000000e+00" Max="1.00000000e+00"/>
    <Variable VarIndex="19" Expression="h1l10" Label="h1l10" Title="h1l10" Unit="" Internal="h1l10" Type="/" Min="0.00000000e+00" Max="1.00000000e+00"/>
    <Variable VarIndex="20" Expression="h2r1" Label="h2r1" Title="h2r1" Unit="" Internal="h2r1" Type="/" Min="0.00000000e+00" Max="1.00000000e+00"/>
    <Variable VarIndex="21" Expression="h2l1" Label="h2l1" Title="h2l1" Unit="" Internal="h2l1" Type="/" Min="0.00000000e+00" Max="1.00000000e+00"/>
    <Variable VarIndex="22" Expression="h2r2" Label="h2r2" Title="h2r2" Unit="" Internal="h2r2" Type="/" Min="0.00000000e+00" Max="1.00000000e+00"/>
    <Variable VarIndex="23" Expression="h2l2" Label="h2l2" Title="h2l2" Unit="" Internal="h2l2" Type="/" Min="0.00000000e+00" Max="1.00000000e+00"/>
    <Variable VarIndex="24" Expression="h2r3" Label="h2r3" Title="h2r3" Unit="" Internal="h2r3" Type="/" Min="0.00000000e+00" Max="1.00000000e+00"/>
    <Variable VarIndex="25" Expression="h2l3" Label="h2l3" Title="h2l3" Unit="" Internal="h2l3" Type="/" Min="0.00000000e+00" Max="1.00000000e+00"/>
    <Variable VarIndex="26" Expression="h2r4" Label="h2r4" Title="h2r4" Unit="" Internal="h2r4" Type="/" Min="0.00000000e+00" Max="1.00000000e+00"/>
    <Variable VarIndex="27" Expression="h2l4" Label="h2l4" Title="h2l4" Unit="" Internal="h2l4" Type="/" Min="0.00000000e+00" Max="1.00000000e+00"/>
    <Variable VarIndex="28" Expression="h2r5" Label="h2r5" Title="h2r5" Unit="" Internal="h2r5" Type="/" Min="0.00000000e+00" Max="1.00000000e+00"/>
    <Variable VarIndex="29" Expression="h2l5" Label="h2l5" Title="h2l5" Unit="" Internal="h2l5" Type="/" Min="0.00000000e+00" Max="1.00000000e+00"/>
    <Variable VarIndex="30" Expression="h2r6" Label="h2r6" Title="h2r6" Unit="" Internal="h2r6" Type="/" Min="0.00000000e+00" Max="1.00000000e+00"/>
    <Variable VarIndex="31" Expression="h2l6" Label="h2l6" Title="h2l6" Unit="" Internal="h2l6" Type="/" Min="0.00000000e+00" Max="1.00000000e+00"/>
    <Variable VarIndex="32" Expression="h2r7" Label="h2r7" Title="h2r7" Unit="" Internal="h2r7" Type="/" Min="0.00000000e+00" Max="1.00000000e+00"/>
    <Variable VarIndex="33" Expression="h2l7" Label="h2l7" Title="h2l7" Unit="" Internal="h2l7" Type="/" Min="0.00000000e+00" Max="1.00000000e+00"/>
    <Variable VarIndex="34" Expression="h2r8" Label="h2r8" Title="h2r8" Unit="" Internal="h2r8" Type="/" Min="0.00000000e+00" Max="1.00000000e+00"/>
    <Variable VarIndex="35" Expression="h2l8" Label="h2l8" Title="h2l8" Unit="" Internal="h2l8" Type="/" Min="0.00000000e+00" Max="1.00000000e+00"/>
    <Variable VarIndex="36" Expression="h2r9" Label="h2r9" Title="h2r9" Unit="" Internal="h2r9" Type="/" Min="0.00000000e+00" Max="1.00000000e+00"/>
    <Variable VarIndex="37" Expression="h2l9" Label="h2l9" Title="h2l9" Unit="" Internal="h2l9" Type="/" Min="0.00000000e+00" Max="1.00000000e+00"/>
    <Variable VarIndex="38" Expression="h4Y1L1" Label="h4Y1L1" Title="h4Y1L1" Unit="" Internal="h4Y1L1" Type="/" Min="0.00000000e+00" Max="1.00000000e+00"/>
    <Variable VarIndex="39" Expression="h4Y1R1" Label="h4Y1R1" Title="h4Y1R1" Unit="" Internal="h4Y1R1" Type="/" Min="0.00000000e+00" Max="1.00000000e+00"/>
    <Variable VarIndex="40" Expression="h4Y2L1" Label="h4Y2L1" Title="h4Y2L1" Unit="" Internal="h4Y2L1" Type="/" Min="0.00000000e+00" Max="1.00000000e+00"/>
    <Variable VarIndex="41" Expression="h4Y2R1" Label="h4Y2R1" Title="h4Y2R1" Unit="" Internal="h4Y2R1" Type="/" Min="0.00000000e+00" Max="1.00000000e+00"/>
    <Variable VarIndex="42" Expression="h4Y1L2" Label="h4Y1L2" Title="h4Y1L2" Unit="" Internal="h4Y1L2" Type="/" Min="0.00000000e+00" Max="1.00000000e+00"/>
    <Variable VarIndex="43" Expression="h4Y1R2" Label="h4Y1R2" Title="h4Y1R2" Unit="" Internal="h4Y1R2" Type="/" Min="0.00000000e+00" Max="1.00000000e+00"/>
    <Variable VarIndex="44" Expression="h4Y2L2" Label="h4Y2L2" Title="h4Y2L2" Unit="" Internal="h4Y2L2" Type="/" Min="0.00000000e+00" Max="1.00000000e+00"/>
    <Variable VarIndex="45" Expression="h4Y2R2" Label="h4Y2R2" Title="h4Y2R2" Unit="" Internal="h4Y2R2" Type="/" Min="0.00000000e+00" Max="1.00000000e+00"/>
    <Variable VarIndex="46" Expression="h4Y1L3" Label="h4Y1L3" Title="h4Y1L3" Unit="" Internal="h4Y1L3" Type="/" Min="0.00000000e+00" Max="1.00000000e+00"/>
    <Variable VarIndex="47" Expression="h4Y1R3" Label="h4Y1R3" Title="h4Y1R3" Unit="" Internal="h4Y1R3" Type="/" Min="0.00000000e+00" Max="1.00000000e+00"/>
    <Variable VarIndex="48" Expression="h4Y2L3" Label="h4Y2L3" Title="h4Y2L3" Unit="" Internal="h4Y2L3" Type="/" Min="0.00000000e+00" Max="1.00000000e+00"/>
    <Variable VarIndex="49" Expression="h4Y2R3" Label="h4Y2R3" Title="h4Y2R3" Unit="" Internal="h4Y2R3" Type="/" Min="0.00000000e+00" Max="1.00000000e+00"/>
    <Variable VarIndex="50" Expression="h4Y1L4" Label="h4Y1L4" Title="h4Y1L4" Unit="" Internal="h4Y1L4" Type="/" Min="0.00000000e+00" Max="1.00000000e+00"/>
    <Variable VarIndex="51" Expression="h4Y1R4" Label="h4Y1R4" Title="h4Y1R4" Unit="" Internal="h4Y1R4" Type="/" Min="0.00000000e+00" Max="1.00000000e+00"/>
    <Variable VarIndex="52" Expression="h4Y2L4" Label="h4Y2L4" Title="h4Y2L4" Unit="" Internal="h4Y2L4" Type="/" Min="0.00000000e+00" Max="1.00000000e+00"/>
    <Variable VarIndex="53" Expression="h4Y2R4" Label="h4Y2R4" Title="h4Y2R4" Unit="" Internal="h4Y2R4" Type="/" Min="0.00000000e+00" Max="1.00000000e+00"/>
    <Variable VarIndex="54" Expression="h4Y1L5" Label="h4Y1L5" Title="h4Y1L5" Unit="" Internal="h4Y1L5" Type="/" Min="0.00000000e+00" Max="1.00000000e+00"/>
    <Variable VarIndex="55" Expression="h4Y1R5" Label="h4Y1R5" Title="h4Y1R5" Unit="" Internal="h4Y1R5" Type="/" Min="0.00000000e+00" Max="1.00000000e+00"/>
    <Variable VarIndex="56" Expression="h4Y2L5" Label="h4Y2L5" Title="h4Y2L5" Unit="" Internal="h4Y2L5" Type="/" Min="0.00000000e+00" Max="1.00000000e+00"/>
    <Variable VarIndex="57" Expression="h4Y2R5" Label="h4Y2R5" Title="h4Y2R5" Unit="" Internal="h4Y2R5" Type="/" Min="0.00000000e+00" Max="1.00000000e+00"/>
    <Variable VarIndex="58" Expression="h4Y1L6" Label="h4Y1L6" Title="h4Y1L6" Unit="" Internal="h4Y1L6" Type="/" Min="0.00000000e+00" Max="1.00000000e+00"/>
    <Variable VarIndex="59" Expression="h4Y1R6" Label="h4Y1R6" Title="h4Y1R6" Unit="" Internal="h4Y1R6" Type="/" Min="0.00000000e+00" Max="1.00000000e+00"/>
    <Variable VarIndex="60" Expression="h4Y2L6" Label="h4Y2L6" Title="h4Y2L6" Unit="" Internal="h4Y2L6" Type="/" Min="0.00000000e+00" Max="1.00000000e+00"/>
    <Variable VarIndex="61" Expression="h4Y2R6" Label="h4Y2R6" Title="h4Y2R6" Unit="" Internal="h4Y2R6" Type="/" Min="0.00000000e+00" Max="1.00000000e+00"/>
    <Variable VarIndex="62" Expression="h4Y1L7" Label="h4Y1L7" Title="h4Y1L7" Unit="" Internal="h4Y1L7" Type="/" Min="0.00000000e+00" Max="1.00000000e+00"/>
    <Variable VarIndex="63" Expression="h4Y1R7" Label="h4Y1R7" Title="h4Y1R7" Unit="" Internal="h4Y1R7" Type="/" Min="0.00000000e+00" Max="1.00000000e+00"/>
    <Variable VarIndex="64" Expression="h4Y2L7" Label="h4Y2L7" Title="h4Y2L7" Unit="" Internal="h4Y2L7" Type="/" Min="0.00000000e+00" Max="1.00000000e+00"/>
    <Variable VarIndex="65" Expression="h4Y2R7" Label="h4Y2R7" Title="h4Y2R7" Unit="" Internal="h4Y2R7" Type="/" Min="0.00000000e+00" Max="1.00000000e+00"/>
    <Variable VarIndex="66" Expression="h4Y1L8" Label="h4Y1L8" Title="h4Y1L8" Unit="" Internal="h4Y1L8" Type="/" Min="0.00000000e+00" Max="1.00000000e+00"/>
    <Variable VarIndex="67" Expression="h4Y1R8" Label="h4Y1R8" Title="h4Y1R8" Unit="" Internal="h4Y1R8" Type="/" Min="0.00000000e+00" Max="1.00000000e+00"/>
    <Variable VarIndex="68" Expression="h4Y2L8" Label="h4Y2L8" Title="h4Y2L8" Unit="" Internal="h4Y2L8" Type="/" Min="0.00000000e+00" Max="1.00000000e+00"/>
    <Variable VarIndex="69" Expression="h4Y2R8" Label="h4Y2R8" Title="h4Y2R8" Unit="" Internal="h4Y2R8" Type="/" Min="0.00000000e+00" Max="1.00000000e+00"/>
  </Variables>
  <Spectators NSpec="0"/>
  <Classes NClass="2">
    <Class Name="Signal" Index="0"/>
    <Class Name="Background" Index="1"/>
  </Classes>
  <Transformations NTransformations="0"/>
  <MVAPdfs/>
  <Weights NTrees="128" AnalysisType="0">
    <BinaryTree type="DecisionTree" boostWeight="2.5107766697293683e+00" itree="0">
      <Node pos="s" depth="0" NCoef="0" IVar="68" Cut="4.7619048506021500e-02" cType="0" res="-9.9000000000000000e+01" rms="0.0000000000000000e+00" purity="8.6966447532176971e-02" nType="0">
        <Node pos="l" depth="1" NCoef="0" IVar="69" Cut="4.7619048506021500e-02" cType="0" res="-9.9000000000000000e+01" rms="0.0000000000000000e+00" purity="3.0163317918777466e-01" nType="0">
          <Node pos="l" depth="2" NCoef="0" IVar="12" Cut="4.7619048506021500e-02" cType="1" res="-9.9000000000000000e+01" rms="0.0000000000000000e+00" purity="5.0779789686203003e-01" nType="0">
            <Node pos="l" depth="3" NCoef="0" IVar="8" Cut="4.7619048506021500e-02" cType="1" res="-9.9000000000000000e+01" rms="0.0000000000000000e+00" purity="6.0626590251922607e-01" nType="0">
              <Node pos="l" depth="4" NCoef="0" IVar="14" Cut="4.7619048506021500e-02" cType="1" res="-9.9000000000000000e+01" rms="0.0000000000000000e+00" purity="6.7258381843566895e-01" nType="0">
                <Node pos="l" depth="5" NCoef="0" IVar="67" Cut="4.7619048506021500e-02" cType="0" res="-9.9000000000000000e+01" rms="0.0000000000000000e+00" purity="7.3522168397903442e-01" nType="0">
                  <Node pos="l" depth="6" NCoef="0" IVar="-1" Cut="4.7619048506021500e-02" cType="1" res="-9.9000000000000000e+01" rms="0.0000000000000000e+00" purity="7.8500705957412720e-01" nType="1"/>
                  <Node pos="r" depth="6" NCoef="0" IVar="-1" Cut="4.7619048506021500e-02" cType="0" res="-9.9000000000000000e+01" rms="0.0000000000000000e+00" purity="4.0000000596046448e-01" nType="-1"/>
                </Node>
                <Node pos="r" depth="5" NCoef="0" IVar="13" Cut="4.7619048506021500e-02" cType="1" res="-9.9000000000000000e+01" rms="0.0000000000000000e+00" purity="4.2079207301139832e-01" nType="0">
                  <Node pos="l" depth="6" NCoef="0" IVar="15" Cut="4.7619048506021500e-02" cType="1" res="-9.9000000000000000e+01" rms="0.0000000000000000e+00" purity="5.0000000000000000e-01" nType="0">
                    <Node pos="l" depth="7" NCoef="0" IVar="-1" Cut="0.0000000000000000e+00" cType="1" res="-9.9000000000000000e+01" rms="0.0000000000000000e+00" purity="6.2244898080825806e-01" nType="1"/>
                    <Node pos="r" depth="7" NCoef="0" IVar="-1" Cut="0.0000000000000000e+00" cType="1" res="-9.9000000000000000e+01" rms="0.0000000000000000e+00" purity="2.9310345649719238e-01" nType="-1"/>
                  </Node>
                  <Node pos="r" depth="6" NCoef="0" IVar="-1" Cut="0.0000000000000000e+00" cType="1" res="-9.9000000000000000e+01" rms="0.0000000000000000e+00" purity="1.5217390656471252e-01" nType="-1"/>
                </Node>
              </Node>
              <Node pos="r" depth="4" NCoef="0" IVar="-1" Cut="4.7619048506021500e-02" cType="1" res="-9.9000000000000000e+01" rms="0.0000000000000000e+00" purity="2.0359280705451965e-01" nType="-1"/>
            </Node>
            <Node pos="r" depth="3" NCoef="0" IVar="-1" Cut="4.7619048506021500e-02" cType="1" res="-9.9000000000000000e+01" rms="0.0000000000000000e+00" purity="2.3222748935222626e-01" nType="-1"/>
          </Node>
          <Node pos="r" depth="2" NCoef="0" IVar="65" Cut="4.7619048506021500e-02" cType="0" res="-9.9000000000000000e+01" rms="0.0000000000000000e+00" purity="2.4964605271816254e-01" nType="0">
            <Node pos="l" depth="3" NCoef="0" IVar="12" Cut="4.7619048506021500e-02" cType="1" res="-9.9000000000000000e+01" rms="0.0000000000000000e+00" purity="4.6444779634475708e-01" nType="0">
              <Node pos="l" depth="4" NCoef="0" IVar="63" Cut="4.7619048506021500e-02" cType="0" res="-9.9000000000000000e+01" rms="0.0000000000000000e+00" purity="5.5668014287948608e-01" nType="0">
                <Node pos="l" depth="5" NCoef="0" IVar="8" Cut="4.7619048506021500e-02" cType="1" res="-9.9000000000000000e+01" rms="0.0000000000000000e+00" purity="6.5951740741729736e-01" nType="0">
                  <Node pos="l" depth="6" NCoef="0" IVar="-1" Cut="4.7619048506021500e-02" cType="0" res="-9.9000000000000000e+01" rms="0.0000000000000000e+00" purity="7.0909088850021362e-01" nType="1"/>
                  <Node pos="r" depth="6" NCoef="0" IVar="-1" Cut="0.0000000000000000e+00" cType="1" res="-9.9000000000000000e+01" rms="0.0000000000000000e+00" purity="2.7906978130340576e-01" nType="-1"/>
                </Node>
                <Node pos="r" depth="5" NCoef="0" IVar="-1" Cut="4.7619048506021500e-02" cType="1" res="-9.9000000000000000e+01" rms="0.0000000000000000e+00" purity="2.3966942727565765e-01" nType="-1"/>
              </Node>
              <Node pos="r" depth="4" NCoef="0" IVar="-1" Cut="4.7619048506021500e-02" cType="1" res="-9.9000000000000000e+01" rms="0.0000000000000000e+00" purity="1.9161677360534668e-01" nType="-1"/>
            </Node>
            <Node pos="r" depth="3" NCoef="0" IVar="55" Cut="4.7619048506021500e-02" cType="0" res="-9.9000000000000000e+01" rms="0.0000000000000000e+00" purity="2.2471910715103149e-01" nType="0">
              <Node pos="l" depth="4" NCoef="0" IVar="30" Cut="4.7619048506021500e-02" cType="0" res="-9.9000000000000000e+01" rms="0.0000000000000000e+00" purity="5.9591835737228394e-01" nType="0">
                <Node pos="l" depth="5" NCoef="0" IVar="-1" Cut="4.7619048506021500e-02" cType="0" res="-9.9000000000000000e+01" rms="0.0000000000000000e+00" purity="8.6363637447357178e-01" nType="1"/>
                <Node pos="r" depth="5" NCoef="0" IVar="57" Cut="4.7619048506021500e-02" cType="0" res="-9.9000000000000000e+01" rms="0.0000000000000000e+00" purity="3.7777778506278992e-01" nType="0">
                  <Node pos="l" depth="6" NCoef="0" IVar="18" Cut="4.7619048506021500e-02" cType="0" res="-9.9000000000000000e+01" rms="0.0000000000000000e+00" purity="4.7191011905670166e-01" nType="0">
                    <Node pos="l" depth="7" NCoef="0" IVar="-1" Cut="0.0000000000000000e+00" cType="1" res="-9.9000000000000000e+01" rms="0.0000000000000000e+00" purity="5.3658539056777954e-01" nType="1"/>
                    <Node pos="r" depth="7" NCoef="0" IVar="-1" Cut="0.0000000000000000e+00" cType="1" res="-9.9000000000000000e+01" rms="0.0000000000000000e+00" purity="4.1666665673255920e-01" nType="-1"/>
                  </Node>
                  <Node pos="r" depth="6" NCoef="0" IVar="-1" Cut="0.0000000000000000e+00" cType="1" res="-9.9000000000000000e+01" rms="0.0000000000000000e+00" purity="1.9565217196941376e-01" nType="-1"/>
                </Node>
              </Node>
              <Node pos="r" depth="4" NCoef="0" IVar="61" Cut="4.7619048506021500e-02" cType="0" res="-9.9000000000000000e+01" rms="0.0000000000000000e+00" purity="2.0803521573543549e-01" nType="0">
                <Node pos="l" depth="5" NCoef="0" IVar="32" Cut="4.7619048506021500e-02" cType="0" res="-9.9000000000000000e+01" rms="0.0000000000000000e+00" purity="4.9652779102325439e-01" nType="0">
                  <Node pos="l" depth="6" NCoef="0" IVar="-1" Cut="4.7619048506021500e-02" cType="0" res="-9.9000000000000000e+01" rms="0.0000000000000000e+00" purity="8.2258063554763794e-01" nType="1"/>
                  <Node pos="r" depth="6" NCoef="0" IVar="-1" Cut="4.7619048506021500e-02" cType="0" res="-9.9000000000000000e+01" rms="0.0000000000000000e+00" purity="2.5000000000000000e-01" nType="-1"/>
                </Node>
                <Node pos="r" depth="5" NCoef="0" IVar="-1" Cut="4.7619048506021500e-02" cType="0" res="-9.9000000000000000e+01" rms="0.0000000000000000e+00" purity="1.9194266200065613e-01" nType="-1"/>
              </Node>
            </Node>
          </Node>
        </Node>
        <Node pos="r" depth="1" NCoef="0" IVar="64" Cut="4.7619048506021500e-02" cType="0" res="-9.9000000000000000e+01" rms="0.0000000000000000e+00" purity="7.0142276585102081e-02" nType="0">
          <Node pos="l" depth="2" NCoef="0" IVar="63" Cut="4.7619048506021500e-02" cType="0" res="-9.9000000000000000e+01" rms="0.0000000000000000e+00" purity="3.0022701621055603e-01" nType="0">
            <Node pos="l" depth="3" NCoef="0" IVar="65" Cut="4.7619048506021500e-02" cType="0" res="-9.9000000000000000e+01" rms="0.0000000000000000e+00" purity="5.9259259700775146e-01" nType="0">
              <Node pos="l" depth="4" NCoef="0" IVar="12" Cut="4.7619048506021500e-02" cType="1" res="-9.9000000000000000e+01" rms="0.0000000000000000e+00" purity="6.9978404045104980e-01" nType="0">
                <Node pos="l" depth="5" NCoef="0" IVar="-1" Cut="4.7619048506021500e-02" cType="0" res="-9.9000000000000000e+01" rms="0.0000000000000000e+00" purity="7.8551530838012695e-01" nType="1"/>
                <Node pos="r" depth="5" NCoef="0" IVar="-1" Cut="4.7619048506021500e-02" cType="1" res="-9.9000000000000000e+01" rms="0.0000000000000000e+00" purity="4.0384614467620850e-01" nType="-1"/>
              </Node>
              <Node pos="r" depth="4" NCoef="0" IVar="-1" Cut="4.7619048506021500e-02" cType="1" res="-9.9000000000000000e+01" rms="0.0000000000000000e+00" purity="2.7848100662231445e-01" nType="-1"/>
            </Node>
            <Node pos="r" depth="3" NCoef="0" IVar="35" Cut="4.7619048506021500e-02" cType="0" res="-9.9000000000000000e+01" rms="0.0000000000000000e+00" purity="2.3768515884876251e-01" nType="0">
              <Node pos="l" depth="4" NCoef="0" IVar="67" Cut="4.7619048506021500e-02" cType="0" res="-9.9000000000000000e+01" rms="0.0000000000000000e+00" purity="3.7513062357902527e-01" nType="0">
                <Node pos="l" depth="5" NCoef="0" IVar="14" Cut="4.7619048506021500e-02" cType="1" res="-9.9000000000000000e+01" rms="0.0000000000000000e+00" purity="6.1452513933181763e-01" nType="0">
                  <Node pos="l" depth="6" NCoef="0" IVar="17" Cut="4.7619048506021500e-02" cType="0" res="-9.9000000000000000e+01" rms="0.0000000000000000e+00" purity="7.1093750000000000e-01" nType="0">
                    <Node pos="l" depth="7" NCoef="0" IVar="-1" Cut="0.0000000000000000e+00" cType="1" res="-9.9000000000000000e+01" rms="0.0000000000000000e+00" purity="8.5882353782653809e-01" nType="1"/>
                    <Node pos="r" depth="7" NCoef="0" IVar="-1" Cut="0.0000000000000000e+00" cType="1" res="-9.9000000000000000e+01" rms="0.0000000000000000e+00" purity="4.1860464215278625e-01" nType="-1"/>
                  </Node>
                  <Node pos="r" depth="6" NCoef="0" IVar="-1" Cut="0.0000000000000000e+00" cType="1" res="-9.9000000000000000e+01" rms="0.0000000000000000e+00" purity="3.7254902720451355e-01" nType="-1"/>
                </Node>
                <Node pos="r" depth="5" NCoef="0" IVar="61" Cut="4.7619048506021500e-02" cType="0" res="-9.9000000000000000e+01" rms="0.0000000000000000e+00" purity="3.2005140185356140e-01" nType="0">
                  <Node pos="l" depth="6" NCoef="0" IVar="-1" Cut="0.0000000000000000e+00" cType="1" res="-9.9000000000000000e+01" rms="0.0000000000000000e+00" purity="6.8571430444717407e-01" nType="1"/>
                  <Node pos="r" depth="6" NCoef="0" IVar="51" Cut="4.7619048506021500e-02" cType="0" res="-9.9000000000000000e+01" rms="0.0000000000000000e+00" purity="2.8389829397201538e-01" nType="0">
                    <Node pos="l" depth="7" NCoef="0" IVar="-1" Cut="0.0000000000000000e+00" cType="1" res="-9.9000000000000000e+01" rms="0.0000000000000000e+00" purity="6.9047617912292480e-01" nType="1"/>
                    <Node pos="r" depth="7" NCoef="0" IVar="-1" Cut="0.0000000000000000e+00" cType="1" res="-9.9000000000000000e+01" rms="0.0000000000000000e+00" purity="2.5825825333595276e-01" nType="-1"/>
                  </Node>
                </Node>
              </Node>
              <Node pos="r" depth="4" NCoef="0" IVar="37" Cut="4.7619048506021500e-02" cType="0" res="-9.9000000000000000e+01" rms="0.0000000000000000e+00" purity="1.7009249329566956e-01" nType="0">
                <Node pos="l" depth="5" NCoef="0" IVar="59" Cut="4.7619048506021500e-02" cType="0" res="-9.9000000000000000e+01" rms="0.0000000000000000e+00" purity="2.7285712957382202e-01" nType="0">
                  <Node pos="l" depth="6" NCoef="0" IVar="-1" Cut="0.0000000000000000e+00" cType="1" res="-9.9000000000000000e+01" rms="0.0000000000000000e+00" purity="6.0317462682723999e-01" nType="1"/>
                  <Node pos="r" depth="6" NCoef="0" IVar="-1" Cut="4.7619048506021500e-02" cType="0" res="-9.9000000000000000e+01" rms="0.0000000000000000e+00" purity="2.4018839001655579e-01" nType="-1"/>
                </Node>
                <Node pos="r" depth="5" NCoef="0" IVar="34" Cut="4.7619048506021500e-02" cType="0" res="-9.9000000000000000e+01" rms="0.0000000000000000e+00" purity="1.1235955357551575e-01" nType="0">
                  <Node pos="l" depth="6" NCoef="0" IVar="16" Cut="4.7619048506021500e-02" cType="0" res="-9.9000000000000000e+01" rms="0.0000000000000000e+00" purity="3.3057850599288940e-01" nType="0">
                    <Node pos="l" depth="7" NCoef="0" IVar="-1" Cut="0.0000000000000000e+00" cType="1" res="-9.9000000000000000e+01" rms="0.0000000000000000e+00" purity="5.0943398475646973e-01" nType="1"/>
                    <Node pos="r" depth="7" NCoef="0" IVar="-1" Cut="0.0000000000000000e+00" cType="1" res="-9.9000000000000000e+01" rms="0.0000000000000000e+00" purity="1.9117647409439087e-01" nType="-1"/>
                  </Node>
                  <Node pos="r" depth="6" NCoef="0" IVar="-1" Cut="4.7619048506021500e-02" cType="0" res="-9.9000000000000000e+01" rms="0.0000000000000000e+00" purity="8.8888891041278839e-02" nType="-1"/>
                </Node>
              </Node>
            </Node>
          </Node>
          <Node pos="r" depth="2" NCoef="0" IVar="67" Cut="4.7619048506021500e-02" cType="0" res="-9.9000000000000000e+01" rms="0.0000000000000000e+00" purity="6.1872072517871857e-02" nType="0">
            <Node pos="l" depth="3" NCoef="0" IVar="14" Cut="4.7619048506021500e-02" cType="1" res="-9.9000000000000000e+01" rms="0.0000000000000000e+00" purity="1.9366022944450378e-01" nType="0">
              <Node pos="l" depth="4" NCoef="0" IVar="69" Cut="4.7619048506021500e-02" cType="0" res="-9.9000000000000000e+01" rms="0.0000000000000000e+00" purity="2.3235839605331421e-01" nType="0">
                <Node pos="l" depth="5" NCoef="0" IVar="56" Cut="4.7619048506021500e-02" cType="0" res="-9.9000000000000000e+01" rms="0.0000000000000000e+00" purity="2.8116530179977417e-01" nType="0">
                  <Node pos="l" depth="6" NCoef="0" IVar="31" Cut="4.7619048506021500e-02" cType="0" res="-9.9000000000000000e+01" rms="0.0000000000000000e+00" purity="6.0736197233200073e-01" nType="0">
                    <Node pos="l" depth="7" NCoef="0" IVar="-1" Cut="0.0000000000000000e+00" cType="1" res="-9.9000000000000000e+01" rms="0.0000000000000000e+00" purity="8.8059699535369873e-01" nType="1"/>
                    <Node pos="r" depth="7" NCoef="0" IVar="-1" Cut="0.0000000000000000e+00" cType="1" res="-9.9000000000000000e+01" rms="0.0000000000000000e+00" purity="4.1666665673255920e-01" nType="-1"/>
                  </Node>
                  <Node pos="r" depth="6" NCoef="0" IVar="-1" Cut="4.7619048506021500e-02" cType="1" res="-9.9000000000000000e+01" rms="0.0000000000000000e+00" purity="2.6210111379623413e-01" nType="-1"/>
                </Node>
                <Node pos="r" depth="5" NCoef="0" IVar="-1" Cut="4.7619048506021500e-02" cType="1" res="-9.9000000000000000e+01" rms="0.0000000000000000e+00" purity="1.2610618770122528e-01" nType="-1"/>
              </Node>
              <Node pos="r" depth="4" NCoef="0" IVar="60" Cut="4.7619048506021500e-02" cType="0" res="-9.9000000000000000e+01" rms="0.0000000000000000e+00" purity="9.8341912031173706e-02" nType="0">
                <Node pos="l" depth="5" NCoef="0" IVar="33" Cut="4.7619048506021500e-02" cType="0" res="-9.9000000000000000e+01" rms="0.0000000000000000e+00" purity="3.7762236595153809e-01" nType="0">
                  <Node pos="l" depth="6" NCoef="0" IVar="-1" Cut="0.0000000000000000e+00" cType="1" res="-9.9000000000000000e+01" rms="0.0000000000000000e+00" purity="7.1739131212234497e-01" nType="1"/>
                  <Node pos="r" depth="6" NCoef="0" IVar="-1" Cut="4.7619048506021500e-02" cType="1" res="-9.9000000000000000e+01" rms="0.0000000000000000e+00" purity="2.1649484336376190e-01" nType="-1"/>
                </Node>
                <Node pos="r" depth="5" NCoef="0" IVar="-1" Cut="4.7619048506021500e-02" cType="0" res="-9.9000000000000000e+01" rms="0.0000000000000000e+00" purity="7.3474474251270294e-02" nType="-1"/>
              </Node>
            </Node>
            <Node pos="r" depth="3" NCoef="0" IVar="59" Cut="4.7619048506021500e-02" cType="0" res="-9.9000000000000000e+01" rms="0.0000000000000000e+00" purity="5.3194034844636917e-02" nType="0">
              <Node pos="l" depth="4" NCoef="0" IVar="32" Cut="4.7619048506021500e-02" cType="0" res="-9.9000000000000000e+01" rms="0.0000000000000000e+00" purity="2.0997375249862671e-01" nType="0">
                <Node pos="l" depth="5" NCoef="0" IVar="61" Cut="4.7619048506021500e-02" cType="0" res="-9.9000000000000000e+01" rms="0.0000000000000000e+00" purity="5.3623187541961670e-01" nType="0">
                  <Node pos="l" depth="6" NCoef="0" IVar="-1" Cut="4.7619048506021500e-02" cType="0" res="-9.9000000000000000e+01" rms="0.0000000000000000e+00" purity="6.2426036596298218e-01" nType="1"/>
                  <Node pos="r" depth="6" NCoef="0" IVar="-1" Cut="0.0000000000000000e+00" cType="1" res="-9.9000000000000000e+01" rms="0.0000000000000000e+00" purity="1.4473684132099152e-01" nType="-1"/>
                </Node>
                <Node pos="r" depth="5" NCoef="0" IVar="33" Cut="4.7619048506021500e-02" cType="0" res="-9.9000000000000000e+01" rms="0.0000000000000000e+00" purity="1.1938296258449554e-01" nType="0">
                  <Node pos="l" depth="6" NCoef="0" IVar="60" Cut="4.7619048506021500e-02" cType="0" res="-9.9000000000000000e+01" rms="0.0000000000000000e+00" purity="5.0331127643585205e-01" nType="0">
                    <Node pos="l" depth="7" NCoef="0" IVar="-1" Cut="0.0000000000000000e+00" cType="1" res="-9.9000000000000000e+01" rms="0.0000000000000000e+00" purity="7.8048777580261230e-01" nType="1"/>
                    <Node pos="r" depth="7" NCoef="0" IVar="-1" Cut="0.0000000000000000e+00" cType="1" res="-9.9000000000000000e+01" rms="0.0000000000000000e+00" purity="4.0000000596046448e-01" nType="-1"/>
                  </Node>
                  <Node pos="r" depth="6" NCoef="0" IVar="-1" Cut="4.7619048506021500e-02" cType="0" res="-9.9000000000000000e+01" rms="0.0000000000000000e+00" purity="7.6119400560855865e-02" nType="-1"/>
                </Node>
              </Node>
              <Node pos="r" depth="4" NCoef="0" IVar="65" Cut="4.7619048506021500e-02" cType="0" res="-9.9000000000000000e+01" rms="0.0000000000000000e+00" purity="4.9878440797328949e-02" nType="0">
                <Node pos="l" depth="5" NCoef="0" IVar="63" Cut="4.7619048506021500e-02" cType="0" res="-9.9000000000000000e+01" rms="0.0000000000000000e+00" purity="1.6453674435615540e-01" nType="0">
                  <Node pos="l" depth="6" NCoef="0" IVar="60" Cut="4.7619048506021500e-02" cType="0" res="-9.9000000000000000e+01" rms="0.0000000000000000e+00" purity="2.5135135650634766e-01" nType="0">
                    <Node pos="l" depth="7" NCoef="0" IVar="-1" Cut="0.0000000000000000e+00" cType="1" res="-9.9000000000000000e+01" rms="0.0000000000000000e+00" purity="6.4210528135299683e-01" nType="1"/>
                    <Node pos="r" depth="7" NCoef="0" IVar="-1" Cut="0.0000000000000000e+00" cType="1" res="-9.9000000000000000e+01" rms="0.0000000000000000e+00" purity="2.2454874217510223e-01" nType="-1"/>
                  </Node>
                  <Node pos="r" depth="6" NCoef="0" IVar="-1" Cut="4.7619048506021500e-02" cType="1" res="-9.9000000000000000e+01" rms="0.0000000000000000e+00" purity="3.9062500000000000e-02" nType="-1"/>
                </Node>
                <Node pos="r" depth="5" NCoef="0" IVar="56" Cut="4.7619048506021500e-02" cType="0" res="-9.9000000000000000e+01" rms="0.0000000000000000e+00" purity="4.6600058674812317e-02" nType="0">
                  <Node pos="l" depth="6" NCoef="0" IVar="31" Cut="4.7619048506021500e-02" cType="0" res="-9.9000000000000000e+01" rms="0.0000000000000000e+00" purity="1.6477273404598236e-01" nType="0">
                    <Node pos="l" depth="7" NCoef="0" IVar="-1" Cut="0.0000000000000000e+00" cType="1" res="-9.9000000000000000e+01" rms="0.0000000000000000e+00" purity="6.3253009319305420e-01" nType="1"/>
                    <Node pos="r" depth="7" NCoef="0" IVar="-1" Cut="0.0000000000000000e+00" cType="1" res="-9.9000000000000000e+01" rms="0.0000000000000000e+00" purity="9.1932460665702820e-02" nType="-1"/>
                  </Node>
                  <Node pos="r" depth="6" NCoef="0" IVar="-1" Cut="4.7619048506021500e-02" cType="0" res="-9.9000000000000000e+01" rms="0.0000000000000000e+00" purity="4.4913891702890396e-02" nType="-1"/>
                </Node>
              </Node>
            </Node>
          </Node>
        </Node>
      </Node>
    </BinaryTree>
    <BinaryTree type="DecisionTree" boostWeight="7.4341687702255976e-01" itree="1">
      <Node pos="s" depth="0" NCoef="0" IVar="67" Cut="4.7619048506021500e-02" cType="0" res="-9.9000000000000000e+01" rms="0.0000000000000000e+00" purity="4.6352121233940125e-01" nType="0">
        <Node pos="l" depth="1" NCoef="0" IVar="10" Cut="4.7619048506021500e-02" cType="1" res="-9.9000000000000000e+01" rms="0.0000000000000000e+00" purity="6.6570949554443359e-01" nType="0">
          <Node pos="l" depth="2" NCoef="0" IVar="68" Cut="4.7619048506021500e-02" cType="1" res="-9.9000000000000000e+01" rms="0.0000000000000000e+00" purity="7.0385015010833740e-01" nType="0">
            <Node pos="l" depth="3" NCoef="0" IVar="69" Cut="4.7619048506021500e-02" cType="0" res="-9.9000000000000000e+01" rms="0.0000000000000000e+00" purity="7.5017005205154419e-01" nType="0">
              <Node pos="l" depth="4" NCoef="0" IVar="14" Cut="4.7619048506021500e-02" cType="1" res="-9.9000000000000000e+01" rms="0.0000000000000000e+00" purity="7.9362529516220093e-01" nType="0">
                <Node pos="l" depth="5" NCoef="0" IVar="-1" Cut="4.7619048506021500e-02" cType="0" res="-9.9000000000000000e+01" rms="0.0000000000000000e+00" purity="8.2588779926300049e-01" nType="1"/>
                <Node pos="r" depth="5" NCoef="0" IVar="24" Cut="4.7619048506021500e-02" cType="1" res="-9.9000000000000000e+01" rms="0.0000000000000000e+00" purity="6.4674526453018188e-01" nType="0">
                  <Node pos="l" depth="6" NCoef="0" IVar="12" Cut="4.7619048506021500e-02" cType="1" res="-9.9000000000000000e+01" rms="0.0000000000000000e+00" purity="6.6820907592773438e-01" nType="0">
                    <Node pos="l" depth="7" NCoef="0" IVar="-1" Cut="0.0000000000000000e+00" cType="1" res="-9.9000000000000000e+01" rms="0.0000000000000000e+00" purity="7.1948111057281494e-01" nType="1"/>
                    <Node pos="r" depth="7" NCoef="0" IVar="-1" Cut="0.0000000000000000e+00" cType="1" res="-9.9000000000000000e+01" rms="0.0000000000000000e+00" purity="4.8498341441154480e-01" nType="-1"/>
                  </Node>
                  <Node pos="r" depth="6" NCoef="0" IVar="-1" Cut="4.7619048506021500e-02" cType="1" res="-9.9000000000000000e+01" rms="0.0000000000000000e+00" purity="1.2486746162176132e-01" nType="-1"/>
                </Node>
              </Node>
              <Node pos="r" depth="4" NCoef="0" IVar="14" Cut="4.7619048506021500e-02" cType="1" res="-9.9000000000000000e+01" rms="0.0000000000000000e+00" purity="5.8605539798736572e-01" nType="0">
                <Node pos="l" depth="5" NCoef="0" IVar="17" Cut="4.7619048506021500e-02" cType="1" res="-9.9000000000000000e+01" rms="0.0000000000000000e+00" purity="6.4652782678604126e-01" nType="0">
                  <Node pos="l" depth="6" NCoef="0" IVar="36" Cut="4.7619048506021500e-02" cType="1" res="-9.9000000000000000e+01" rms="0.0000000000000000e+00" purity="6.8583548069000244e-01" nType="0">
                    <Node pos="l" depth="7" NCoef="0" IVar="-1" Cut="0.0000000000000000e+00" cType="1" res="-9.9000000000000000e+01" rms="0.0000000000000000e+00" purity="7.1588414907455444e-01" nType="1"/>
                    <Node pos="r" depth="7" NCoef="0" IVar="-1" Cut="0.0000000000000000e+00" cType="1" res="-9.9000000000000000e+01" rms="0.0000000000000000e+00" purity="4.8061832785606384e-01" nType="-1"/>
                  </Node>
                  <Node pos="r" depth="6" NCoef="0" IVar="8" Cut="4.7619048506021500e-02" cType="1" res="-9.9000000000000000e+01" rms="0.0000000000000000e+00" purity="4.9725759029388428e-01" nType="0">
                    <Node pos="l" depth="7" NCoef="0" IVar="-1" Cut="0.0000000000000000e+00" cType="1" res="-9.9000000000000000e+01" rms="0.0000000000000000e+00" purity="5.3269243240356445e-01" nType="1"/>
                    <Node pos="r" depth="7" NCoef="0" IVar="-1" Cut="0.0000000000000000e+00" cType="1" res="-9.9000000000000000e+01" rms="0.0000000000000000e+00" purity="5.8463018387556076e-02" nType="-1"/>
                  </Node>
                </Node>
                <Node pos="r" depth="5" NCoef="0" IVar="-1" Cut="4.7619048506021500e-02" cType="1" res="-9.9000000000000000e+01" rms="0.0000000000000000e+00" purity="2.9041680693626404e-01" nType="-1"/>
              </Node>
            </Node>
            <Node pos="r" depth="3" NCoef="0" IVar="12" Cut="4.7619048506021500e-02" cType="0" res="-9.9000000000000000e+01" rms="0.0000000000000000e+00" purity="5.2691560983657837e-01" nType="0">
              <Node pos="l" depth="4" NCoef="0" IVar="9" Cut="4.7619048506021500e-02" cType="1" res="-9.9000000000000000e+01" rms="0.0000000000000000e+00" purity="8.0760389566421509e-01" nType="0">
                <Node pos="l" depth="5" NCoef="0" IVar="-1" Cut="4.7619048506021500e-02" cType="0" res="-9.9000000000000000e+01" rms="0.0000000000000000e+00" purity="8.4878671169281006e-01" nType="1"/>
                <Node pos="r" depth="5" NCoef="0" IVar="-1" Cut="0.0000000000000000e+00" cType="1" res="-9.9000000000000000e+01" rms="0.0000000000000000e+00" purity="2.7690601348876953e-01" nType="-1"/>
              </Node>
              <Node pos="r" depth="4" NCoef="0" IVar="8" Cut="4.7619048506021500e-02" cType="0" res="-9.9000000000000000e+01" rms="0.0000000000000000e+00" purity="4.3391075730323792e-01" nType="0">
                <Node pos="l" depth="5" NCoef="0" IVar="16" Cut="4.7619048506021500e-02" cType="1" res="-9.9000000000000000e+01" rms="0.0000000000000000e+00" purity="7.8413045406341553e-01" nType="0">
                  <Node pos="l" depth="6" NCoef="0" IVar="-1" Cut="0.0000000000000000e+00" cType="1" res="-9.9000000000000000e+01" rms="0.0000000000000000e+00" purity="8.7000590562820435e-01" nType="1"/>
                  <Node pos="r" depth="6" NCoef="0" IVar="-1" Cut="0.0000000000000000e+00" cType="1" res="-9.9000000000000000e+01" rms="0.0000000000000000e+00" purity="4.8495393991470337e-01" nType="-1"/>
                </Node>
                <Node pos="r" depth="5" NCoef="0" IVar="69" Cut="4.7619048506021500e-02" cType="1" res="-9.9000000000000000e+01" rms="0.0000000000000000e+00" purity="3.8516458868980408e-01" nType="0">
                  <Node pos="l" depth="6" NCoef="0" IVar="-1" Cut="4.7619048506021500e-02" cType="0" res="-9.9000000000000000e+01" rms="0.0000000000000000e+00" purity="7.3339015245437622e-01" nType="1"/>
                  <Node pos="r" depth="6" NCoef="0" IVar="-1" Cut="4.7619048506021500e-02" cType="1" res="-9.9000000000000000e+01" rms="0.0000000000000000e+00" purity="3.0339941382408142e-01" nType="-1"/>
                </Node>
              </Node>
            </Node>
          </Node>
          <Node pos="r" depth="2" NCoef="0" IVar="24" Cut="4.7619048506021500e-02" cType="1" res="-9.9000000000000000e+01" rms="0.0000000000000000e+00" purity="3.9590901136398315e-01" nType="0">
            <Node pos="l" depth="3" NCoef="0" IVar="28" Cut="4.7619048506021500e-02" cType="0" res="-9.9000000000000000e+01" rms="0.0000000000000000e+00" purity="4.3844380974769592e-01" nType="0">
              <Node pos="l" depth="4" NCoef="0" IVar="-1" Cut="4.7619048506021500e-02" cType="0" res="-9.9000000000000000e+01" rms="0.0000000000000000e+00" purity="7.2845196723937988e-01" nType="1"/>
              <Node pos="r" depth="4" NCoef="0" IVar="2" Cut="4.7619048506021500e-02" cType="1" res="-9.9000000000000000e+01" rms="0.0000000000000000e+00" purity="3.8655975461006165e-01" nType="0">
                <Node pos="l" depth="5" NCoef="0" IVar="0" Cut="4.7619048506021500e-02" cType="1" res="-9.9000000000000000e+01" rms="0.0000000000000000e+00" purity="4.1986992955207825e-01" nType="0">
                  <Node pos="l" depth="6" NCoef="0" IVar="11" Cut="4.7619048506021500e-02" cType="1" res="-9.9000000000000000e+01" rms="0.0000000000000000e+00" purity="4.4758179783821106e-01" nType="0">
                    <Node pos="l" depth="7" NCoef="0" IVar="-1" Cut="0.0000000000000000e+00" cType="1" res="-9.9000000000000000e+01" rms="0.0000000000000000e+00" purity="5.0812023878097534e-01" nType="1"/>
                    <Node pos="r" depth="7" NCoef="0" IVar="-1" Cut="0.0000000000000000e+00" cType="1" res="-9.9000000000000000e+01" rms="0.0000000000000000e+00" purity="2.9155626893043518e-01" nType="-1"/>
                  </Node>
                  <Node pos="r" depth="6" NCoef="0" IVar="-1" Cut="4.7619048506021500e-02" cType="0" res="-9.9000000000000000e+01" rms="0.0000000000000000e+00" purity="8.2023978233337402e-02" nType="-1"/>
                </Node>
                <Node pos="r" depth="5" NCoef="0" IVar="-1" Cut="4.7619048506021500e-02" cType="0" res="-9.9000000000000000e+01" rms="0.0000000000000000e+00" purity="9.3972049653530121e-02" nType="-1"/>
              </Node>
            </Node>
            <Node pos="r" depth="3" NCoef="0" IVar="-1" Cut="4.7619048506021500e-02" cType="1" res="-9.9000000000000000e+01" rms="0.0000000000000000e+00" purity="3.7149511277675629e-02" nType="-1"/>
          </Node>
        </Node>
        <Node pos="r" depth="1" NCoef="0" IVar="68" Cut="4.7619048506021500e-02" cType="0" res="-9.9000000000000000e+01" rms="0.0000000000000000e+00" purity="4.3203285336494446e-01" nType="0">
          <Node pos="l" depth="2" NCoef="0" IVar="14" Cut="4.7619048506021500e-02" cType="1" res="-9.9000000000000000e+01" rms="0.0000000000000000e+00" purity="6.9691699743270874e-01" nType="0">
            <Node pos="l" depth="3" NCoef="0" IVar="63" Cut="4.7619048506021500e-02" cType="1" res="-9.9000000000000000e+01" rms="0.0000000000000000e+00" purity="7.4065089225769043e-01" nType="0">
              <Node pos="l" depth="4" NCoef="0" IVar="32" Cut="4.7619048506021500e-02" cType="1" res="-9.9000000000000000e+01" rms="0.0000000000000000e+00" purity="7.6440680027008057e-01" nType="0">
                <Node pos="l" depth="5" NCoef="0" IVar="-1" Cut="4.7619048506021500e-02" cType="0" res="-9.9000000000000000e+01" rms="0.0000000000000000e+00" purity="7.7375507354736328e-01" nType="1"/>
                <Node pos="r" depth="5" NCoef="0" IVar="-1" Cut="4.7619048506021500e-02" cType="1" res="-9.9000000000000000e+01" rms="0.0000000000000000e+00" purity="3.7310236692428589e-01" nType="-1"/>
              </Node>
              <Node pos="r" depth="4" NCoef="0" IVar="69" Cut="4.7619048506021500e-02" cType="0" res="-9.9000000000000000e+01" rms="0.0000000000000000e+00" purity="5.1194262504577637e-01" nType="0">
                <Node pos="l" depth="5" NCoef="0" IVar="-1" Cut="0.0000000000000000e+00" cType="1" res="-9.9000000000000000e+01" rms="0.0000000000000000e+00" purity="9.3267720937728882e-01" nType="1"/>
                <Node pos="r" depth="5" NCoef="0" IVar="12" Cut="4.7619048506021500e-02" cType="0" res="-9.9000000000000000e+01" rms="0.0000000000000000e+00" purity="3.8617545366287231e-01" nType="0">
                  <Node pos="l" depth="6" NCoef="0" IVar="-1" Cut="0.0000000000000000e+00" cType="1" res="-9.9000000000000000e+01" rms="0.0000000000000000e+00" purity="7.1371620893478394e-01" nType="1"/>
                  <Node pos="r" depth="6" NCoef="0" IVar="65" Cut="4.7619048506021500e-02" cType="1" res="-9.9000000000000000e+01" rms="0.0000000000000000e+00" purity="3.2865643501281738e-01" nType="0">
                    <Node pos="l" depth="7" NCoef="0" IVar="-1" Cut="0.0000000000000000e+00" cType="1" res="-9.9000000000000000e+01" rms="0.0000000000000000e+00" purity="7.1639651060104370e-01" nType="1"/>
                    <Node pos="r" depth="7" NCoef="0" IVar="-1" Cut="0.0000000000000000e+00" cType="1" res="-9.9000000000000000e+01" rms="0.0000000000000000e+00" purity="2.6785266399383545e-01" nType="-1"/>
                  </Node>
                </Node>
              </Node>
            </Node>
            <Node pos="r" depth="3" NCoef="0" IVar="66" Cut="4.7619048506021500e-02" cType="0" res="-9.9000000000000000e+01" rms="0.0000000000000000e+00" purity="5.2933096885681152e-01" nType="0">
              <Node pos="l" depth="4" NCoef="0" IVar="60" Cut="4.7619048506021500e-02" cType="0" res="-9.9000000000000000e+01" rms="0.0000000000000000e+00" purity="5.7680046558380127e-01" nType="0">
                <Node pos="l" depth="5" NCoef="0" IVar="-1" Cut="4.7619048506021500e-02" cType="1" res="-9.9000000000000000e+01" rms="0.0000000000000000e+00" purity="8.2329601049423218e-01" nType="1"/>
                <Node pos="r" depth="5" NCoef="0" IVar="37" Cut="4.7619048506021500e-02" cType="0" res="-9.9000000000000000e+01" rms="0.0000000000000000e+00" purity="5.2855312824249268e-01" nType="0">
                  <Node pos="l" depth="6" NCoef="0" IVar="-1" Cut="4.7619048506021500e-02" cType="0" res="-9.9000000000000000e+01" rms="0.0000000000000000e+00" purity="6.3255649805068970e-01" nType="1"/>
                  <Node pos="r" depth="6" NCoef="0" IVar="15" Cut="4.7619048506021500e-02" cType="1" res="-9.9000000000000000e+01" rms="0.0000000000000000e+00" purity="4.3246325850486755e-01" nType="0">
                    <Node pos="l" depth="7" NCoef="0" IVar="-1" Cut="0.0000000000000000e+00" cType="1" res="-9.9000000000000000e+01" rms="0.0000000000000000e+00" purity="5.1120018959045410e-01" nType="1"/>
                    <Node pos="r" depth="7" NCoef="0" IVar="-1" Cut="0.0000000000000000e+00" cType="1" res="-9.9000000000000000e+01" rms="0.0000000000000000e+00" purity="2.5316292047500610e-01" nType="-1"/>
                  </Node>
                </Node>
              </Node>
              <Node pos="r" depth="4" NCoef="0" IVar="36" Cut="4.7619048506021500e-02" cType="1" res="-9.9000000000000000e+01" rms="0.0000000000000000e+00" purity="2.7153527736663818e-01" nType="0">
                <Node pos="l" depth="5" NCoef="0" IVar="17" Cut="4.7619048506021500e-02" cType="1" res="-9.9000000000000000e+01" rms="0.0000000000000000e+00" purity="3.3354675769805908e-01" nType="0">
                  <Node pos="l" depth="6" NCoef="0" IVar="12" Cut="4.7619048506021500e-02" cType="0" res="-9.9000000000000000e+01" rms="0.0000000000000000e+00" purity="4.2128694057464600e-01" nType="0">
                    <Node pos="l" depth="7" NCoef="0" IVar="-1" Cut="0.0000000000000000e+00" cType="1" res="-9.9000000000000000e+01" rms="0.0000000000000000e+00" purity="5.8264720439910889e-01" nType="1"/>
                    <Node pos="r" depth="7" NCoef="0" IVar="-1" Cut="0.0000000000000000e+00" cType="1" res="-9.9000000000000000e+01" rms="0.0000000000000000e+00" purity="3.6442384123802185e-01" nType="-1"/>
                  </Node>
                  <Node pos="r" depth="6" NCoef="0" IVar="-1" Cut="4.7619048506021500e-02" cType="1" res="-9.9000000000000000e+01" rms="0.0000000000000000e+00" purity="1.9512648880481720e-01" nType="-1"/>
                </Node>
                <Node pos="r" depth="5" NCoef="0" IVar="-1" Cut="0.0000000000000000e+00" cType="1" res="-9.9000000000000000e+01" rms="0.0000000000000000e+00" purity="7.8615462407469749e-03" nType="-1"/>
              </Node>
            </Node>
          </Node>
          <Node pos="r" depth="2" NCoef="0" IVar="55" Cut="4.7619048506021500e-02" cType="0" res="-9.9000000000000000e+01" rms="0.0000000000000000e+00" purity="3.9645150303840637e-01" nType="0">
            <Node pos="l" depth="3" NCoef="0" IVar="30" Cut="4.7619048506021500e-02" cType="0" res="-9.9000000000000000e+01" rms="0.0000000000000000e+00" purity="7.2716367244720459e-01" nType="0">
              <Node pos="l" depth="4" NCoef="0" IVar="-1" Cut="4.7619048506021500e-02" cType="1" res="-9.9000000000000000e+01" rms="0.0000000000000000e+00" purity="9.2732125520706177e-01" nType="1"/>
              <Node pos="r" depth="4" NCoef="0" IVar="28" Cut="4.7619048506021500e-02" cType="0" res="-9.9000000000000000e+01" rms="0.0000000000000000e+00" purity="6.0949158668518066e-01" nType="0">
                <Node pos="l" depth="5" NCoef="0" IVar="-1" Cut="4.7619048506021500e-02" cType="0" res="-9.9000000000000000e+01" rms="0.0000000000000000e+00" purity="8.9705044031143188e-01" nType="1"/>
                <Node pos="r" depth="5" NCoef="0" IVar="31" Cut="4.7619048506021500e-02" cType="0" res="-9.9000000000000000e+01" rms="0.0000000000000000e+00" purity="5.3229922056198120e-01" nType="0">
                  <Node pos="l" depth="6" NCoef="0" IVar="-1" Cut="4.7619048506021500e-02" cType="0" res="-9.9000000000000000e+01" rms="0.0000000000000000e+00" purity="8.4886413812637329e-01" nType="1"/>
                  <Node pos="r" depth="6" NCoef="0" IVar="29" Cut="4.7619048506021500e-02" cType="0" res="-9.9000000000000000e+01" rms="0.0000000000000000e+00" purity="4.2869499325752258e-01" nType="0">
                    <Node pos="l" depth="7" NCoef="0" IVar="-1" Cut="0.0000000000000000e+00" cType="1" res="-9.9000000000000000e+01" rms="0.0000000000000000e+00" purity="8.0369925498962402e-01" nType="1"/>
                    <Node pos="r" depth="7" NCoef="0" IVar="-1" Cut="0.0000000000000000e+00" cType="1" res="-9.9000000000000000e+01" rms="0.0000000000000000e+00" purity="3.8029885292053223e-01" nType="-1"/>
                  </Node>
                </Node>
              </Node>
            </Node>
            <Node pos="r" depth="3" NCoef="0" IVar="52" Cut="4.7619048506021500e-02" cType="0" res="-9.9000000000000000e+01" rms="0.0000000000000000e+00" purity="3.8665571808815002e-01" nType="0">
              <Node pos="l" depth="4" NCoef="0" IVar="29" Cut="4.7619048506021500e-02" cType="0" res="-9.9000000000000000e+01" rms="0.0000000000000000e+00" purity="7.4173897504806519e-01" nType="0">
                <Node pos="l" depth="5" NCoef="0" IVar="-1" Cut="4.7619048506021500e-02" cType="0" res="-9.9000000000000000e+01" rms="0.0000000000000000e+00" purity="9.6311742067337036e-01" nType="1"/>
                <Node pos="r" depth="5" NCoef="0" IVar="27" Cut="4.7619048506021500e-02" cType="0" res="-9.9000000000000000e+01" rms="0.0000000000000000e+00" purity="6.5275156497955322e-01" nType="0">
                  <Node pos="l" depth="6" NCoef="0" IVar="-1" Cut="0.0000000000000000e+00" cType="1" res="-9.9000000000000000e+01" rms="0.0000000000000000e+00" purity="8.9944463968276978e-01" nType="1"/>
                  <Node pos="r" depth="6" NCoef="0" IVar="26" Cut="4.7619048506021500e-02" cType="0" res="-9.9000000000000000e+01" rms="0.0000000000000000e+00" purity="5.3670734167098999e-01" nType="0">
                    <Node pos="l" depth="7" NCoef="0" IVar="-1" Cut="0.0000000000000000e+00" cType="1" res="-9.9000000000000000e+01" rms="0.0000000000000000e+00" purity="8.8383924961090088e-01" nType="1"/>
                    <Node pos="r" depth="7" NCoef="0" IVar="-1" Cut="0.0000000000000000e+00" cType="1" res="-9.9000000000000000e+01" rms="0.0000000000000000e+00" purity="4.3268835544586182e-01" nType="-1"/>
                  </Node>
                </Node>
              </Node>
              <Node pos="r" depth="4" NCoef="0" IVar="42" Cut="4.7619048506021500e-02" cType="0" res="-9.9000000000000000e+01" rms="0.0000000000000000e+00" purity="3.7864914536476135e-01" nType="0">
                <Node pos="l" depth="5" NCoef="0" IVar="-1" Cut="4.7619048506021500e-02" cType="0" res="-9.9000000000000000e+01" rms="0.0000000000000000e+00" purity="7.4850618839263916e-01" nType="1"/>
                <Node pos="r" depth="5" NCoef="0" IVar="64" Cut="4.7619048506021500e-02" cType="0" res="-9.9000000000000000e+01" rms="0.0000000000000000e+00" purity="3.7160214781761169e-01" nType="0">
                  <Node pos="l" depth="6" NCoef="0" IVar="-1" Cut="4.7619048506021500e-02" cType="0" res="-9.9000000000000000e+01" rms="0.0000000000000000e+00" purity="5.8391422033309937e-01" nType="1"/>
                  <Node pos="r" depth="6" NCoef="0" IVar="65" Cut="4.7619048506021500e-02" cType="0" res="-9.9000000000000000e+01" rms="0.0000000000000000e+00" purity="3.5948336124420166e-01" nType="0">
                    <Node pos="l" depth="7" NCoef="0" IVar="-1" Cut="0.0000000000000000e+00" cType="1" res="-9.9000000000000000e+01" rms="0.0000000000000000e+00" purity="5.8457696437835693e-01" nType="1"/>
                    <Node pos="r" depth="7" NCoef="0" IVar="-1" Cut="0.0000000000000000e+00" cType="1" res="-9.9000000000000000e+01" rms="0.0000000000000000e+00" purity="3.4847554564476013e-01" nType="-1"/>
                  </Node>
                </Node>
              </Node>
            </Node>
          </Node>
        </Node>
      </Node>
    </BinaryTree>
    <BinaryTree type="DecisionTree" boostWeight="3.6089730502253720e-01" itree="2">
      <Node pos="s" depth="0" NCoef="0" IVar="16" Cut="4.7619048506021500e-02" cType="1" res="-9.9000000000000000e+01" rms="0.0000000000000000e+00" purity="5.3771293163299561e-01" nType="0">
        <Node pos="l" depth="1" NCoef="0" IVar="47" Cut="4.7619048506021500e-02" cType="0" res="-9.9000000000000000e+01" rms="0.0000000000000000e+00" purity="5.5864250659942627e-01" nType="0">
          <Node pos="l" depth="2" NCoef="0" IVar="0" Cut="4.7619048506021500e-02" cType="1" res="-9.9000000000000000e+01" rms="0.0000000000000000e+00" purity="8.0866855382919312e-01" nType="0">
            <Node pos="l" depth="3" NCoef="0" IVar="49" Cut="4.7619048506021500e-02" cType="0" res="-9.9000000000000000e+01" rms="0.0000000000000000e+00" purity="8.3784574270248413e-01" nType="0">
              <Node pos="l" depth="4" NCoef="0" IVar="-1" Cut="4.7619048506021500e-02" cType="0" res="-9.9000000000000000e+01" rms="0.0000000000000000e+00" purity="9.0750855207443237e-01" nType="1"/>
              <Node pos="r" depth="4" NCoef="0" IVar="36" Cut="4.7619048506021500e-02" cType="1" res="-9.9000000000000000e+01" rms="0.0000000000000000e+00" purity="6.9732058048248291e-01" nType="0">
                <Node pos="l" depth="5" NCoef="0" IVar="45" Cut="4.7619048506021500e-02" cType="0" res="-9.9000000000000000e+01" rms="0.0000000000000000e+00" purity="7.3594009876251221e-01" nType="0">
                  <Node pos="l" depth="6" NCoef="0" IVar="-1" Cut="0.0000000000000000e+00" cType="1" res="-9.9000000000000000e+01" rms="0.0000000000000000e+00" purity="8.5169482231140137e-01" nType="1"/>
                  <Node pos="r" depth="6" NCoef="0" IVar="15" Cut="4.7619048506021500e-02" cType="1" res="-9.9000000000000000e+01" rms="0.0000000000000000e+00" purity="6.4510434865951538e-01" nType="0">
                    <Node pos="l" depth="7" NCoef="0" IVar="-1" Cut="0.0000000000000000e+00" cType="1" res="-9.9000000000000000e+01" rms="0.0000000000000000e+00" purity="6.8746954202651978e-01" nType="1"/>
                    <Node pos="r" depth="7" NCoef="0" IVar="-1" Cut="0.0000000000000000e+00" cType="1" res="-9.9000000000000000e+01" rms="0.0000000000000000e+00" purity="3.7763559818267822e-01" nType="-1"/>
                  </Node>
                </Node>
                <Node pos="r" depth="5" NCoef="0" IVar="-1" Cut="0.0000000000000000e+00" cType="1" res="-9.9000000000000000e+01" rms="0.0000000000000000e+00" purity="3.4388431906700134e-01" nType="-1"/>
              </Node>
            </Node>
            <Node pos="r" depth="3" NCoef="0" IVar="-1" Cut="0.0000000000000000e+00" cType="1" res="-9.9000000000000000e+01" rms="0.0000000000000000e+00" purity="8.2297734916210175e-02" nType="-1"/>
          </Node>
          <Node pos="r" depth="2" NCoef="0" IVar="52" Cut="4.7619048506021500e-02" cType="0" res="-9.9000000000000000e+01" rms="0.0000000000000000e+00" purity="5.5304956436157227e-01" nType="0">
            <Node pos="l" depth="3" NCoef="0" IVar="29" Cut="4.7619048506021500e-02" cType="0" res="-9.9000000000000000e+01" rms="0.0000000000000000e+00" purity="7.9097306728363037e-01" nType="0">
              <Node pos="l" depth="4" NCoef="0" IVar="-1" Cut="4.7619048506021500e-02" cType="0" res="-9.9000000000000000e+01" rms="0.0000000000000000e+00" purity="9.3916583061218262e-01" nType="1"/>
              <Node pos="r" depth="4" NCoef="0" IVar="60" Cut="4.7619048506021500e-02" cType="1" res="-9.9000000000000000e+01" rms="0.0000000000000000e+00" purity="7.3111242055892944e-01" nType="0">
                <Node pos="l" depth="5" NCoef="0" IVar="-1" Cut="4.7619048506021500e-02" cType="0" res="-9.9000000000000000e+01" rms="0.0000000000000000e+00" purity="7.5792557001113892e-01" nType="1"/>
                <Node pos="r" depth="5" NCoef="0" IVar="-1" Cut="0.0000000000000000e+00" cType="1" res="-9.9000000000000000e+01" rms="0.0000000000000000e+00" purity="4.0202817320823669e-01" nType="-1"/>
              </Node>
            </Node>
            <Node pos="r" depth="3" NCoef="0" IVar="60" Cut="4.7619048506021500e-02" cType="0" res="-9.9000000000000000e+01" rms="0.0000000000000000e+00" purity="5.4720371961593628e-01" nType="0">
              <Node pos="l" depth="4" NCoef="0" IVar="65" Cut="4.7619048506021500e-02" cType="1" res="-9.9000000000000000e+01" rms="0.0000000000000000e+00" purity="7.2172909975051880e-01" nType="0">
                <Node pos="l" depth="5" NCoef="0" IVar="33" Cut="4.7619048506021500e-02" cType="0" res="-9.9000000000000000e+01" rms="0.0000000000000000e+00" purity="7.7964717149734497e-01" nType="0">
                  <Node pos="l" depth="6" NCoef="0" IVar="58" Cut="4.7619048506021500e-02" cType="0" res="-9.9000000000000000e+01" rms="0.0000000000000000e+00" purity="8.7241309881210327e-01" nType="0">
                    <Node pos="l" depth="7" NCoef="0" IVar="-1" Cut="0.0000000000000000e+00" cType="1" res="-9.9000000000000000e+01" rms="0.0000000000000000e+00" purity="9.0015727281570435e-01" nType="1"/>
                    <Node pos="r" depth="7" NCoef="0" IVar="-1" Cut="0.0000000000000000e+00" cType="1" res="-9.9000000000000000e+01" rms="0.0000000000000000e+00" purity="4.5891964435577393e-01" nType="-1"/>
                  </Node>
                  <Node pos="r" depth="6" NCoef="0" IVar="-1" Cut="4.7619048506021500e-02" cType="0" res="-9.9000000000000000e+01" rms="0.0000000000000000e+00" purity="7.0874810218811035e-01" nType="1"/>
                </Node>
                <Node pos="r" depth="5" NCoef="0" IVar="64" Cut="4.7619048506021500e-02" cType="0" res="-9.9000000000000000e+01" rms="0.0000000000000000e+00" purity="2.3758217692375183e-01" nType="0">
                  <Node pos="l" depth="6" NCoef="0" IVar="-1" Cut="0.0000000000000000e+00" cType="1" res="-9.9000000000000000e+01" rms="0.0000000000000000e+00" purity="5.3595346212387085e-01" nType="1"/>
                  <Node pos="r" depth="6" NCoef="0" IVar="-1" Cut="4.7619048506021500e-02" cType="1" res="-9.9000000000000000e+01" rms="0.0000000000000000e+00" purity="1.3699574768543243e-01" nType="-1"/>
                </Node>
              </Node>
              <Node pos="r" depth="4" NCoef="0" IVar="46" Cut="4.7619048506021500e-02" cType="0" res="-9.9000000000000000e+01" rms="0.0000000000000000e+00" purity="5.3898662328720093e-01" nType="0">
                <Node pos="l" depth="5" NCoef="0" IVar="-1" Cut="4.7619048506021500e-02" cType="0" res="-9.9000000000000000e+01" rms="0.0000000000000000e+00" purity="7.8581982851028442e-01" nType="1"/>
                <Node pos="r" depth="5" NCoef="0" IVar="40" Cut="4.7619048506021500e-02" cType="0" res="-9.9000000000000000e+01" rms="0.0000000000000000e+00" purity="5.3462678194046021e-01" nType="0">
                  <Node pos="l" depth="6" NCoef="0" IVar="-1" Cut="4.7619048506021500e-02" cType="0" res="-9.9000000000000000e+01" rms="0.0000000000000000e+00" purity="7.7135097980499268e-01" nType="1"/>
                  <Node pos="r" depth="6" NCoef="0" IVar="15" Cut="4.7619048506021500e-02" cType="1" res="-9.9000000000000000e+01" rms="0.0000000000000000e+00" purity="5.3060084581375122e-01" nType="0">
                    <Node pos="l" depth="7" NCoef="0" IVar="-1" Cut="0.0000000000000000e+00" cType="1" res="-9.9000000000000000e+01" rms="0.0000000000000000e+00" purity="5.4239743947982788e-01" nType="1"/>
                    <Node pos="r" depth="7" NCoef="0" IVar="-1" Cut="0.0000000000000000e+00" cType="1" res="-9.9000000000000000e+01" rms="0.0000000000000000e+00" purity="4.5589354634284973e-01" nType="-1"/>
                  </Node>
                </Node>
              </Node>
            </Node>
          </Node>
        </Node>
        <Node pos="r" depth="1" NCoef="0" IVar="14" Cut="4.7619048506021500e-02" cType="1" res="-9.9000000000000000e+01" rms="0.0000000000000000e+00" purity="4.4999402761459351e-01" nType="0">
          <Node pos="l" depth="2" NCoef="0" IVar="63" Cut="4.7619048506021500e-02" cType="0" res="-9.9000000000000000e+01" rms="0.0000000000000000e+00" purity="4.8717233538627625e-01" nType="0">
            <Node pos="l" depth="3" NCoef="0" IVar="18" Cut="4.7619048506021500e-02" cType="1" res="-9.9000000000000000e+01" rms="0.0000000000000000e+00" purity="6.3263881206512451e-01" nType="0">
              <Node pos="l" depth="4" NCoef="0" IVar="34" Cut="4.7619048506021500e-02" cType="0" res="-9.9000000000000000e+01" rms="0.0000000000000000e+00" purity="7.0526546239852905e-01" nType="0">
                <Node pos="l" depth="5" NCoef="0" IVar="8" Cut="4.7619048506021500e-02" cType="1" res="-9.9000000000000000e+01" rms="0.0000000000000000e+00" purity="7.9731851816177368e-01" nType="0">
                  <Node pos="l" depth="6" NCoef="0" IVar="-1" Cut="4.7619048506021500e-02" cType="1" res="-9.9000000000000000e+01" rms="0.0000000000000000e+00" purity="8.3755809068679810e-01" nType="1"/>
                  <Node pos="r" depth="6" NCoef="0" IVar="-1" Cut="0.0000000000000000e+00" cType="1" res="-9.9000000000000000e+01" rms="0.0000000000000000e+00" purity="3.7858596444129944e-01" nType="-1"/>
                </Node>
                <Node pos="r" depth="5" NCoef="0" IVar="36" Cut="4.7619048506021500e-02" cType="0" res="-9.9000000000000000e+01" rms="0.0000000000000000e+00" purity="5.7638078927993774e-01" nType="0">
                  <Node pos="l" depth="6" NCoef="0" IVar="-1" Cut="4.7619048506021500e-02" cType="1" res="-9.9000000000000000e+01" rms="0.0000000000000000e+00" purity="7.4848306179046631e-01" nType="1"/>
                  <Node pos="r" depth="6" NCoef="0" IVar="-1" Cut="4.7619048506021500e-02" cType="1" res="-9.9000000000000000e+01" rms="0.0000000000000000e+00" purity="1.4885576069355011e-01" nType="-1"/>
                </Node>
              </Node>
              <Node pos="r" depth="4" NCoef="0" IVar="19" Cut="4.7619048506021500e-02" cType="1" res="-9.9000000000000000e+01" rms="0.0000000000000000e+00" purity="4.9738770723342896e-01" nType="0">
                <Node pos="l" depth="5" NCoef="0" IVar="67" Cut="4.7619048506021500e-02" cType="0" res="-9.9000000000000000e+01" rms="0.0000000000000000e+00" purity="5.9243643283843994e-01" nType="0">
                  <Node pos="l" depth="6" NCoef="0" IVar="-1" Cut="4.7619048506021500e-02" cType="0" res="-9.9000000000000000e+01" rms="0.0000000000000000e+00" purity="7.6143699884414673e-01" nType="1"/>
                  <Node pos="r" depth="6" NCoef="0" IVar="62" Cut="4.7619048506021500e-02" cType="0" res="-9.9000000000000000e+01" rms="0.0000000000000000e+00" purity="5.0118297338485718e-01" nType="0">
                    <Node pos="l" depth="7" NCoef="0" IVar="-1" Cut="0.0000000000000000e+00" cType="1" res="-9.9000000000000000e+01" rms="0.0000000000000000e+00" purity="7.3317241668701172e-01" nType="1"/>
                    <Node pos="r" depth="7" NCoef="0" IVar="-1" Cut="0.0000000000000000e+00" cType="1" res="-9.9000000000000000e+01" rms="0.0000000000000000e+00" purity="4.4677096605300903e-01" nType="-1"/>
                  </Node>
                </Node>
                <Node pos="r" depth="5" NCoef="0" IVar="15" Cut="4.7619048506021500e-02" cType="1" res="-9.9000000000000000e+01" rms="0.0000000000000000e+00" purity="3.8777801394462585e-01" nType="0">
                  <Node pos="l" depth="6" NCoef="0" IVar="66" Cut="4.7619048506021500e-02" cType="0" res="-9.9000000000000000e+01" rms="0.0000000000000000e+00" purity="5.1298624277114868e-01" nType="0">
                    <Node pos="l" depth="7" NCoef="0" IVar="-1" Cut="0.0000000000000000e+00" cType="1" res="-9.9000000000000000e+01" rms="0.0000000000000000e+00" purity="7.1910232305526733e-01" nType="1"/>
                    <Node pos="r" depth="7" NCoef="0" IVar="-1" Cut="0.0000000000000000e+00" cType="1" res="-9.9000000000000000e+01" rms="0.0000000000000000e+00" purity="4.1807428002357483e-01" nType="-1"/>
                  </Node>
                  <Node pos="r" depth="6" NCoef="0" IVar="-1" Cut="4.7619048506021500e-02" cType="0" res="-9.9000000000000000e+01" rms="0.0000000000000000e+00" purity="1.8934273719787598e-01" nType="-1"/>
                </Node>
              </Node>
            </Node>
            <Node pos="r" depth="3" NCoef="0" IVar="60" Cut="4.7619048506021500e-02" cType="0" res="-9.9000000000000000e+01" rms="0.0000000000000000e+00" purity="4.5188364386558533e-01" nType="0">
              <Node pos="l" depth="4" NCoef="0" IVar="11" Cut="4.7619048506021500e-02" cType="1" res="-9.9000000000000000e+01" rms="0.0000000000000000e+00" purity="6.8764609098434448e-01" nType="0">
                <Node pos="l" depth="5" NCoef="0" IVar="58" Cut="4.7619048506021500e-02" cType="0" res="-9.9000000000000000e+01" rms="0.0000000000000000e+00" purity="7.5553959608078003e-01" nType="0">
                  <Node pos="l" depth="6" NCoef="0" IVar="-1" Cut="4.7619048506021500e-02" cType="0" res="-9.9000000000000000e+01" rms="0.0000000000000000e+00" purity="8.4073227643966675e-01" nType="1"/>
                  <Node pos="r" depth="6" NCoef="0" IVar="62" Cut="4.7619048506021500e-02" cType="0" res="-9.9000000000000000e+01" rms="0.0000000000000000e+00" purity="5.7684385776519775e-01" nType="0">
                    <Node pos="l" depth="7" NCoef="0" IVar="-1" Cut="0.0000000000000000e+00" cType="1" res="-9.9000000000000000e+01" rms="0.0000000000000000e+00" purity="6.5982389450073242e-01" nType="1"/>
                    <Node pos="r" depth="7" NCoef="0" IVar="-1" Cut="0.0000000000000000e+00" cType="1" res="-9.9000000000000000e+01" rms="0.0000000000000000e+00" purity="3.9491620659828186e-01" nType="-1"/>
                  </Node>
                </Node>
                <Node pos="r" depth="5" NCoef="0" IVar="-1" Cut="0.0000000000000000e+00" cType="1" res="-9.9000000000000000e+01" rms="0.0000000000000000e+00" purity="2.8510040044784546e-01" nType="-1"/>
              </Node>
              <Node pos="r" depth="4" NCoef="0" IVar="65" Cut="4.7619048506021500e-02" cType="1" res="-9.9000000000000000e+01" rms="0.0000000000000000e+00" purity="4.3452256917953491e-01" nType="0">
                <Node pos="l" depth="5" NCoef="0" IVar="62" Cut="4.7619048506021500e-02" cType="0" res="-9.9000000000000000e+01" rms="0.0000000000000000e+00" purity="4.4501218199729919e-01" nType="0">
                  <Node pos="l" depth="6" NCoef="0" IVar="12" Cut="4.7619048506021500e-02" cType="1" res="-9.9000000000000000e+01" rms="0.0000000000000000e+00" purity="5.9573090076446533e-01" nType="0">
                    <Node pos="l" depth="7" NCoef="0" IVar="-1" Cut="0.0000000000000000e+00" cType="1" res="-9.9000000000000000e+01" rms="0.0000000000000000e+00" purity="6.6836750507354736e-01" nType="1"/>
                    <Node pos="r" depth="7" NCoef="0" IVar="-1" Cut="0.0000000000000000e+00" cType="1" res="-9.9000000000000000e+01" rms="0.0000000000000000e+00" purity="2.6906615495681763e-01" nType="-1"/>
                  </Node>
                  <Node pos="r" depth="6" NCoef="0" IVar="27" Cut="4.7619048506021500e-02" cType="0" res="-9.9000000000000000e+01" rms="0.0000000000000000e+00" purity="4.2357289791107178e-01" nType="0">
                    <Node pos="l" depth="7" NCoef="0" IVar="-1" Cut="0.0000000000000000e+00" cType="1" res="-9.9000000000000000e+01" rms="0.0000000000000000e+00" purity="7.1581333875656128e-01" nType="1"/>
                    <Node pos="r" depth="7" NCoef="0" IVar="-1" Cut="0.0000000000000000e+00" cType="1" res="-9.9000000000000000e+01" rms="0.0000000000000000e+00" purity="4.1491660475730896e-01" nType="-1"/>
                  </Node>
                </Node>
                <Node pos="r" depth="5" NCoef="0" IVar="-1" Cut="4.7619048506021500e-02" cType="0" res="-9.9000000000000000e+01" rms="0.0000000000000000e+00" purity="1.2477070093154907e-01" nType="-1"/>
              </Node>
            </Node>
          </Node>
          <Node pos="r" depth="2" NCoef="0" IVar="8" Cut="4.7619048506021500e-02" cType="1" res="-9.9000000000000000e+01" rms="0.0000000000000000e+00" purity="3.6197683215141296e-01" nType="0">
            <Node pos="l" depth="3" NCoef="0" IVar="10" Cut="4.7619048506021500e-02" cType="1" res="-9.9000000000000000e+01" rms="0.0000000000000000e+00" purity="3.8734668493270874e-01" nType="0">
              <Node pos="l" depth="4" NCoef="0" IVar="67" Cut="4.7619048506021500e-02" cType="0" res="-9.9000000000000000e+01" rms="0.0000000000000000e+00" purity="4.1265365481376648e-01" nType="0">
                <Node pos="l" depth="5" NCoef="0" IVar="62" Cut="4.7619048506021500e-02" cType="0" res="-9.9000000000000000e+01" rms="0.0000000000000000e+00" purity="5.3167879581451416e-01" nType="0">
                  <Node pos="l" depth="6" NCoef="0" IVar="-1" Cut="4.7619048506021500e-02" cType="1" res="-9.9000000000000000e+01" rms="0.0000000000000000e+00" purity="7.3518723249435425e-01" nType="1"/>
                  <Node pos="r" depth="6" NCoef="0" IVar="-1" Cut="4.7619048506021500e-02" cType="1" res="-9.9000000000000000e+01" rms="0.0000000000000000e+00" purity="4.6922007203102112e-01" nType="-1"/>
                </Node>
                <Node pos="r" depth="5" NCoef="0" IVar="60" Cut="4.7619048506021500e-02" cType="0" res="-9.9000000000000000e+01" rms="0.0000000000000000e+00" purity="3.8306555151939392e-01" nType="0">
                  <Node pos="l" depth="6" NCoef="0" IVar="12" Cut="4.7619048506021500e-02" cType="1" res="-9.9000000000000000e+01" rms="0.0000000000000000e+00" purity="5.9271097183227539e-01" nType="0">
                    <Node pos="l" depth="7" NCoef="0" IVar="-1" Cut="0.0000000000000000e+00" cType="1" res="-9.9000000000000000e+01" rms="0.0000000000000000e+00" purity="7.2011029720306396e-01" nType="1"/>
                    <Node pos="r" depth="7" NCoef="0" IVar="-1" Cut="0.0000000000000000e+00" cType="1" res="-9.9000000000000000e+01" rms="0.0000000000000000e+00" purity="2.7448913455009460e-01" nType="-1"/>
                  </Node>
                  <Node pos="r" depth="6" NCoef="0" IVar="29" Cut="4.7619048506021500e-02" cType="0" res="-9.9000000000000000e+01" rms="0.0000000000000000e+00" purity="3.6465314030647278e-01" nType="0">
                    <Node pos="l" depth="7" NCoef="0" IVar="-1" Cut="0.0000000000000000e+00" cType="1" res="-9.9000000000000000e+01" rms="0.0000000000000000e+00" purity="6.9111037254333496e-01" nType="1"/>
                    <Node pos="r" depth="7" NCoef="0" IVar="-1" Cut="0.0000000000000000e+00" cType="1" res="-9.9000000000000000e+01" rms="0.0000000000000000e+00" purity="3.5457366704940796e-01" nType="-1"/>
                  </Node>
                </Node>
              </Node>
              <Node pos="r" depth="4" NCoef="0" IVar="44" Cut="4.7619048506021500e-02" cType="1" res="-9.9000000000000000e+01" rms="0.0000000000000000e+00" purity="2.6474082469940186e-01" nType="0">
                <Node pos="l" depth="5" NCoef="0" IVar="28" Cut="4.7619048506021500e-02" cType="0" res="-9.9000000000000000e+01" rms="0.0000000000000000e+00" purity="2.8897839784622192e-01" nType="0">
                  <Node pos="l" depth="6" NCoef="0" IVar="-1" Cut="0.0000000000000000e+00" cType="1" res="-9.9000000000000000e+01" rms="0.0000000000000000e+00" purity="6.6160905361175537e-01" nType="1"/>
                  <Node pos="r" depth="6" NCoef="0" IVar="-1" Cut="4.7619048506021500e-02" cType="1" res="-9.9000000000000000e+01" rms="0.0000000000000000e+00" purity="2.4756237864494324e-01" nType="-1"/>
                </Node>
                <Node pos="r" depth="5" NCoef="0" IVar="-1" Cut="0.0000000000000000e+00" cType="1" res="-9.9000000000000000e+01" rms="0.0000000000000000e+00" purity="0.0000000000000000e+00" nType="-1"/>
              </Node>
            </Node>
            <Node pos="r" depth="3" NCoef="0" IVar="4" Cut="4.7619048506021500e-02" cType="1" res="-9.9000000000000000e+01" rms="0.0000000000000000e+00" purity="2.1479527652263641e-01" nType="0">
              <Node pos="l" depth="4" NCoef="0" IVar="26" Cut="4.7619048506021500e-02" cType="0" res="-9.9000000000000000e+01" rms="0.0000000000000000e+00" purity="2.4421095848083496e-01" nType="0">
                <Node pos="l" depth="5" NCoef="0" IVar="-1" Cut="0.0000000000000000e+00" cType="1" res="-9.9000000000000000e+01" rms="0.0000000000000000e+00" purity="6.4540153741836548e-01" nType="1"/>
                <Node pos="r" depth="5" NCoef="0" IVar="-1" Cut="4.7619048506021500e-02" cType="0" res="-9.9000000000000000e+01" rms="0.0000000000000000e+00" purity="2.0546606183052063e-01" nType="-1"/>
              </Node>
              <Node pos="r" depth="4" NCoef="0" IVar="-1" Cut="0.0000000000000000e+00" cType="1" res="-9.9000000000000000e+01" rms="0.0000000000000000e+00" purity="0.0000000000000000e+00" nType="-1"/>
            </Node>
          </Node>
        </Node>
      </Node>
    </BinaryTree>
    <BinaryTree type="DecisionTree" boostWeight="2.5996142557898394e-01" itree="3">
      <Node pos="s" depth="0" NCoef="0" IVar="47" Cut="4.7619048506021500e-02" cType="0" res="-9.9000000000000000e+01" rms="0.0000000000000000e+00" purity="4.9362117052078247e-01" nType="0">
        <Node pos="l" depth="1" NCoef="0" IVar="49" Cut="4.7619048506021500e-02" cType="0" res="-9.9000000000000000e+01" rms="0.0000000000000000e+00" purity="7.4117338657379150e-01" nType="0">
          <Node pos="l" depth="2" NCoef="0" IVar="64" Cut="4.7619048506021500e-02" cType="1" res="-9.9000000000000000e+01" rms="0.0000000000000000e+00" purity="8.2438021898269653e-01" nType="0">
            <Node pos="l" depth="3" NCoef="0" IVar="14" Cut="4.7619048506021500e-02" cType="1" res="-9.9000000000000000e+01" rms="0.0000000000000000e+00" purity="8.5501962900161743e-01" nType="0">
              <Node pos="l" depth="4" NCoef="0" IVar="-1" Cut="4.7619048506021500e-02" cType="0" res="-9.9000000000000000e+01" rms="0.0000000000000000e+00" purity="8.8898938894271851e-01" nType="1"/>
              <Node pos="r" depth="4" NCoef="0" IVar="12" Cut="4.7619048506021500e-02" cType="1" res="-9.9000000000000000e+01" rms="0.0000000000000000e+00" purity="6.7872542142868042e-01" nType="0">
                <Node pos="l" depth="5" NCoef="0" IVar="-1" Cut="4.7619048506021500e-02" cType="1" res="-9.9000000000000000e+01" rms="0.0000000000000000e+00" purity="7.5545376539230347e-01" nType="1"/>
                <Node pos="r" depth="5" NCoef="0" IVar="-1" Cut="0.0000000000000000e+00" cType="1" res="-9.9000000000000000e+01" rms="0.0000000000000000e+00" purity="3.3821457624435425e-01" nType="-1"/>
              </Node>
            </Node>
            <Node pos="r" depth="3" NCoef="0" IVar="-1" Cut="0.0000000000000000e+00" cType="1" res="-9.9000000000000000e+01" rms="0.0000000000000000e+00" purity="5.0829321146011353e-01" nType="1"/>
          </Node>
          <Node pos="r" depth="2" NCoef="0" IVar="34" Cut="4.7619048506021500e-02" cType="1" res="-9.9000000000000000e+01" rms="0.0000000000000000e+00" purity="6.0672980546951294e-01" nType="0">
            <Node pos="l" depth="3" NCoef="0" IVar="63" Cut="4.7619048506021500e-02" cType="1" res="-9.9000000000000000e+01" rms="0.0000000000000000e+00" purity="6.5615117549896240e-01" nType="0">
              <Node pos="l" depth="4" NCoef="0" IVar="-1" Cut="4.7619048506021500e-02" cType="0" res="-9.9000000000000000e+01" rms="0.0000000000000000e+00" purity="6.8945956230163574e-01" nType="1"/>
              <Node pos="r" depth="4" NCoef="0" IVar="-1" Cut="0.0000000000000000e+00" cType="1" res="-9.9000000000000000e+01" rms="0.0000000000000000e+00" purity="2.5163421034812927e-01" nType="-1"/>
            </Node>
            <Node pos="r" depth="3" NCoef="0" IVar="-1" Cut="0.0000000000000000e+00" cType="1" res="-9.9000000000000000e+01" rms="0.0000000000000000e+00" purity="8.2764327526092529e-02" nType="-1"/>
          </Node>
        </Node>
        <Node pos="r" depth="1" NCoef="0" IVar="52" Cut="4.7619048506021500e-02" cType="0" res="-9.9000000000000000e+01" rms="0.0000000000000000e+00" purity="4.8834544420242310e-01" nType="0">
          <Node pos="l" depth="2" NCoef="0" IVar="29" Cut="4.7619048506021500e-02" cType="0" res="-9.9000000000000000e+01" rms="0.0000000000000000e+00" purity="7.1439808607101440e-01" nType="0">
            <Node pos="l" depth="3" NCoef="0" IVar="-1" Cut="4.7619048506021500e-02" cType="0" res="-9.9000000000000000e+01" rms="0.0000000000000000e+00" purity="9.0502202510833740e-01" nType="1"/>
            <Node pos="r" depth="3" NCoef="0" IVar="27" Cut="4.7619048506021500e-02" cType="0" res="-9.9000000000000000e+01" rms="0.0000000000000000e+00" purity="6.4262682199478149e-01" nType="0">
              <Node pos="l" depth="4" NCoef="0" IVar="-1" Cut="4.7619048506021500e-02" cType="0" res="-9.9000000000000000e+01" rms="0.0000000000000000e+00" purity="8.1210333108901978e-01" nType="1"/>
              <Node pos="r" depth="4" NCoef="0" IVar="28" Cut="4.7619048506021500e-02" cType="0" res="-9.9000000000000000e+01" rms="0.0000000000000000e+00" purity="5.8868575096130371e-01" nType="0">
                <Node pos="l" depth="5" NCoef="0" IVar="-1" Cut="4.7619048506021500e-02" cType="0" res="-9.9000000000000000e+01" rms="0.0000000000000000e+00" purity="8.4919703006744385e-01" nType="1"/>
                <Node pos="r" depth="5" NCoef="0" IVar="26" Cut="4.7619048506021500e-02" cType="0" res="-9.9000000000000000e+01" rms="0.0000000000000000e+00" purity="5.2196782827377319e-01" nType="0">
                  <Node pos="l" depth="6" NCoef="0" IVar="8" Cut="4.7619048506021500e-02" cType="0" res="-9.9000000000000000e+01" rms="0.0000000000000000e+00" purity="7.0804154872894287e-01" nType="0">
                    <Node pos="l" depth="7" NCoef="0" IVar="-1" Cut="0.0000000000000000e+00" cType="1" res="-9.9000000000000000e+01" rms="0.0000000000000000e+00" purity="9.4310396909713745e-01" nType="1"/>
                    <Node pos="r" depth="7" NCoef="0" IVar="-1" Cut="0.0000000000000000e+00" cType="1" res="-9.9000000000000000e+01" rms="0.0000000000000000e+00" purity="4.0401643514633179e-01" nType="-1"/>
                  </Node>
                  <Node pos="r" depth="6" NCoef="0" IVar="50" Cut="4.7619048506021500e-02" cType="1" res="-9.9000000000000000e+01" rms="0.0000000000000000e+00" purity="4.7843995690345764e-01" nType="0">
                    <Node pos="l" depth="7" NCoef="0" IVar="-1" Cut="0.0000000000000000e+00" cType="1" res="-9.9000000000000000e+01" rms="0.0000000000000000e+00" purity="5.7144689559936523e-01" nType="1"/>
                    <Node pos="r" depth="7" NCoef="0" IVar="-1" Cut="0.0000000000000000e+00" cType="1" res="-9.9000000000000000e+01" rms="0.0000000000000000e+00" purity="3.1277620792388916e-01" nType="-1"/>
                  </Node>
                </Node>
              </Node>
            </Node>
          </Node>
          <Node pos="r" depth="2" NCoef="0" IVar="60" Cut="4.7619048506021500e-02" cType="0" res="-9.9000000000000000e+01" rms="0.0000000000000000e+00" purity="4.8267099261283875e-01" nType="0">
            <Node pos="l" depth="3" NCoef="0" IVar="65" Cut="4.7619048506021500e-02" cType="1" res="-9.9000000000000000e+01" rms="0.0000000000000000e+00" purity="6.3742083311080933e-01" nType="0">
              <Node pos="l" depth="4" NCoef="0" IVar="33" Cut="4.7619048506021500e-02" cType="0" res="-9.9000000000000000e+01" rms="0.0000000000000000e+00" purity="6.9516795873641968e-01" nType="0">
                <Node pos="l" depth="5" NCoef="0" IVar="10" Cut="4.7619048506021500e-02" cType="1" res="-9.9000000000000000e+01" rms="0.0000000000000000e+00" purity="8.2566577196121216e-01" nType="0">
                  <Node pos="l" depth="6" NCoef="0" IVar="-1" Cut="4.7619048506021500e-02" cType="0" res="-9.9000000000000000e+01" rms="0.0000000000000000e+00" purity="8.5606187582015991e-01" nType="1"/>
                  <Node pos="r" depth="6" NCoef="0" IVar="-1" Cut="0.0000000000000000e+00" cType="1" res="-9.9000000000000000e+01" rms="0.0000000000000000e+00" purity="4.9725297093391418e-01" nType="-1"/>
                </Node>
                <Node pos="r" depth="5" NCoef="0" IVar="-1" Cut="4.7619048506021500e-02" cType="0" res="-9.9000000000000000e+01" rms="0.0000000000000000e+00" purity="6.0891604423522949e-01" nType="1"/>
              </Node>
              <Node pos="r" depth="4" NCoef="0" IVar="10" Cut="4.7619048506021500e-02" cType="1" res="-9.9000000000000000e+01" rms="0.0000000000000000e+00" purity="3.4427213668823242e-01" nType="0">
                <Node pos="l" depth="5" NCoef="0" IVar="59" Cut="4.7619048506021500e-02" cType="0" res="-9.9000000000000000e+01" rms="0.0000000000000000e+00" purity="4.0898287296295166e-01" nType="0">
                  <Node pos="l" depth="6" NCoef="0" IVar="-1" Cut="0.0000000000000000e+00" cType="1" res="-9.9000000000000000e+01" rms="0.0000000000000000e+00" purity="7.0754325389862061e-01" nType="1"/>
                  <Node pos="r" depth="6" NCoef="0" IVar="-1" Cut="4.7619048506021500e-02" cType="0" res="-9.9000000000000000e+01" rms="0.0000000000000000e+00" purity="3.4055429697036743e-01" nType="-1"/>
                </Node>
                <Node pos="r" depth="5" NCoef="0" IVar="-1" Cut="0.0000000000000000e+00" cType="1" res="-9.9000000000000000e+01" rms="0.0000000000000000e+00" purity="1.2090617418289185e-01" nType="-1"/>
              </Node>
            </Node>
            <Node pos="r" depth="3" NCoef="0" IVar="14" Cut="4.7619048506021500e-02" cType="1" res="-9.9000000000000000e+01" rms="0.0000000000000000e+00" purity="4.7486588358879089e-01" nType="0">
              <Node pos="l" depth="4" NCoef="0" IVar="46" Cut="4.7619048506021500e-02" cType="0" res="-9.9000000000000000e+01" rms="0.0000000000000000e+00" purity="4.8580431938171387e-01" nType="0">
                <Node pos="l" depth="5" NCoef="0" IVar="25" Cut="4.7619048506021500e-02" cType="0" res="-9.9000000000000000e+01" rms="0.0000000000000000e+00" purity="7.3066067695617676e-01" nType="0">
                  <Node pos="l" depth="6" NCoef="0" IVar="-1" Cut="0.0000000000000000e+00" cType="1" res="-9.9000000000000000e+01" rms="0.0000000000000000e+00" purity="9.7010421752929688e-01" nType="1"/>
                  <Node pos="r" depth="6" NCoef="0" IVar="27" Cut="4.7619048506021500e-02" cType="0" res="-9.9000000000000000e+01" rms="0.0000000000000000e+00" purity="6.2158018350601196e-01" nType="0">
                    <Node pos="l" depth="7" NCoef="0" IVar="-1" Cut="0.0000000000000000e+00" cType="1" res="-9.9000000000000000e+01" rms="0.0000000000000000e+00" purity="8.9330476522445679e-01" nType="1"/>
                    <Node pos="r" depth="7" NCoef="0" IVar="-1" Cut="0.0000000000000000e+00" cType="1" res="-9.9000000000000000e+01" rms="0.0000000000000000e+00" purity="4.9806436896324158e-01" nType="-1"/>
                  </Node>
                </Node>
                <Node pos="r" depth="5" NCoef="0" IVar="28" Cut="4.7619048506021500e-02" cType="0" res="-9.9000000000000000e+01" rms="0.0000000000000000e+00" purity="4.8172900080680847e-01" nType="0">
                  <Node pos="l" depth="6" NCoef="0" IVar="-1" Cut="4.7619048506021500e-02" cType="0" res="-9.9000000000000000e+01" rms="0.0000000000000000e+00" purity="7.0202040672302246e-01" nType="1"/>
                  <Node pos="r" depth="6" NCoef="0" IVar="40" Cut="4.7619048506021500e-02" cType="0" res="-9.9000000000000000e+01" rms="0.0000000000000000e+00" purity="4.7715952992439270e-01" nType="0">
                    <Node pos="l" depth="7" NCoef="0" IVar="-1" Cut="0.0000000000000000e+00" cType="1" res="-9.9000000000000000e+01" rms="0.0000000000000000e+00" purity="7.1740686893463135e-01" nType="1"/>
                    <Node pos="r" depth="7" NCoef="0" IVar="-1" Cut="0.0000000000000000e+00" cType="1" res="-9.9000000000000000e+01" rms="0.0000000000000000e+00" purity="4.7338366508483887e-01" nType="-1"/>
                  </Node>
                </Node>
              </Node>
              <Node pos="r" depth="4" NCoef="0" IVar="24" Cut="4.7619048506021500e-02" cType="1" res="-9.9000000000000000e+01" rms="0.0000000000000000e+00" purity="4.0997764468193054e-01" nType="0">
                <Node pos="l" depth="5" NCoef="0" IVar="67" Cut="4.7619048506021500e-02" cType="0" res="-9.9000000000000000e+01" rms="0.0000000000000000e+00" purity="4.2019250988960266e-01" nType="0">
                  <Node pos="l" depth="6" NCoef="0" IVar="10" Cut="4.7619048506021500e-02" cType="1" res="-9.9000000000000000e+01" rms="0.0000000000000000e+00" purity="5.1528942584991455e-01" nType="0">
                    <Node pos="l" depth="7" NCoef="0" IVar="-1" Cut="0.0000000000000000e+00" cType="1" res="-9.9000000000000000e+01" rms="0.0000000000000000e+00" purity="5.6696188449859619e-01" nType="1"/>
                    <Node pos="r" depth="7" NCoef="0" IVar="-1" Cut="0.0000000000000000e+00" cType="1" res="-9.9000000000000000e+01" rms="0.0000000000000000e+00" purity="2.9425415396690369e-01" nType="-1"/>
                  </Node>
                  <Node pos="r" depth="6" NCoef="0" IVar="5" Cut="4.7619048506021500e-02" cType="0" res="-9.9000000000000000e+01" rms="0.0000000000000000e+00" purity="3.9955088496208191e-01" nType="0">
                    <Node pos="l" depth="7" NCoef="0" IVar="-1" Cut="0.0000000000000000e+00" cType="1" res="-9.9000000000000000e+01" rms="0.0000000000000000e+00" purity="5.2948671579360962e-01" nType="1"/>
                    <Node pos="r" depth="7" NCoef="0" IVar="-1" Cut="0.0000000000000000e+00" cType="1" res="-9.9000000000000000e+01" rms="0.0000000000000000e+00" purity="3.9240109920501709e-01" nType="-1"/>
                  </Node>
                </Node>
                <Node pos="r" depth="5" NCoef="0" IVar="45" Cut="4.7619048506021500e-02" cType="0" res="-9.9000000000000000e+01" rms="0.0000000000000000e+00" purity="1.8910644948482513e-01" nType="0">
                  <Node pos="l" depth="6" NCoef="0" IVar="-1" Cut="0.0000000000000000e+00" cType="1" res="-9.9000000000000000e+01" rms="0.0000000000000000e+00" purity="6.9013559818267822e-01" nType="1"/>
                  <Node pos="r" depth="6" NCoef="0" IVar="-1" Cut="4.7619048506021500e-02" cType="1" res="-9.9000000000000000e+01" rms="0.0000000000000000e+00" purity="1.2896375358104706e-01" nType="-1"/>
                </Node>
              </Node>
            </Node>
          </Node>
        </Node>
      </Node>
    </BinaryTree>
    <BinaryTree type="DecisionTree" boostWeight="2.7180857785862167e-01" itree="4">
      <Node pos="s" depth="0" NCoef="0" IVar="14" Cut="4.7619048506021500e-02" cType="1" res="-9.9000000000000000e+01" rms="0.0000000000000000e+00" purity="5.4143583774566650e-01" nType="0">
        <Node pos="l" depth="1" NCoef="0" IVar="69" Cut="4.7619048506021500e-02" cType="0" res="-9.9000000000000000e+01" rms="0.0000000000000000e+00" purity="5.5437445640563965e-01" nType="0">
          <Node pos="l" depth="2" NCoef="0" IVar="6" Cut="4.7619048506021500e-02" cType="1" res="-9.9000000000000000e+01" rms="0.0000000000000000e+00" purity="6.4033633470535278e-01" nType="0">
            <Node pos="l" depth="3" NCoef="0" IVar="10" Cut="4.7619048506021500e-02" cType="1" res="-9.9000000000000000e+01" rms="0.0000000000000000e+00" purity="6.5988850593566895e-01" nType="0">
              <Node pos="l" depth="4" NCoef="0" IVar="4" Cut="4.7619048506021500e-02" cType="1" res="-9.9000000000000000e+01" rms="0.0000000000000000e+00" purity="6.8084400892257690e-01" nType="0">
                <Node pos="l" depth="5" NCoef="0" IVar="-1" Cut="4.7619048506021500e-02" cType="0" res="-9.9000000000000000e+01" rms="0.0000000000000000e+00" purity="6.8928819894790649e-01" nType="1"/>
                <Node pos="r" depth="5" NCoef="0" IVar="18" Cut="4.7619048506021500e-02" cType="0" res="-9.9000000000000000e+01" rms="0.0000000000000000e+00" purity="4.1529417037963867e-01" nType="0">
                  <Node pos="l" depth="6" NCoef="0" IVar="-1" Cut="0.0000000000000000e+00" cType="1" res="-9.9000000000000000e+01" rms="0.0000000000000000e+00" purity="5.8957970142364502e-01" nType="1"/>
                  <Node pos="r" depth="6" NCoef="0" IVar="-1" Cut="0.0000000000000000e+00" cType="1" res="-9.9000000000000000e+01" rms="0.0000000000000000e+00" purity="2.9510253667831421e-01" nType="-1"/>
                </Node>
              </Node>
              <Node pos="r" depth="4" NCoef="0" IVar="62" Cut="4.7619048506021500e-02" cType="1" res="-9.9000000000000000e+01" rms="0.0000000000000000e+00" purity="4.5576441287994385e-01" nType="0">
                <Node pos="l" depth="5" NCoef="0" IVar="52" Cut="4.7619048506021500e-02" cType="0" res="-9.9000000000000000e+01" rms="0.0000000000000000e+00" purity="5.2294081449508667e-01" nType="0">
                  <Node pos="l" depth="6" NCoef="0" IVar="-1" Cut="0.0000000000000000e+00" cType="1" res="-9.9000000000000000e+01" rms="0.0000000000000000e+00" purity="8.3240002393722534e-01" nType="1"/>
                  <Node pos="r" depth="6" NCoef="0" IVar="16" Cut="4.7619048506021500e-02" cType="1" res="-9.9000000000000000e+01" rms="0.0000000000000000e+00" purity="4.6488225460052490e-01" nType="0">
                    <Node pos="l" depth="7" NCoef="0" IVar="-1" Cut="0.0000000000000000e+00" cType="1" res="-9.9000000000000000e+01" rms="0.0000000000000000e+00" purity="5.2460712194442749e-01" nType="1"/>
                    <Node pos="r" depth="7" NCoef="0" IVar="-1" Cut="0.0000000000000000e+00" cType="1" res="-9.9000000000000000e+01" rms="0.0000000000000000e+00" purity="2.9734307527542114e-01" nType="-1"/>
                  </Node>
                </Node>
                <Node pos="r" depth="5" NCoef="0" IVar="-1" Cut="4.7619048506021500e-02" cType="0" res="-9.9000000000000000e+01" rms="0.0000000000000000e+00" purity="1.4797182381153107e-01" nType="-1"/>
              </Node>
            </Node>
            <Node pos="r" depth="3" NCoef="0" IVar="13" Cut="4.7619048506021500e-02" cType="1" res="-9.9000000000000000e+01" rms="0.0000000000000000e+00" purity="3.4040230512619019e-01" nType="0">
              <Node pos="l" depth="4" NCoef="0" IVar="66" Cut="4.7619048506021500e-02" cType="1" res="-9.9000000000000000e+01" rms="0.0000000000000000e+00" purity="4.7229504585266113e-01" nType="0">
                <Node pos="l" depth="5" NCoef="0" IVar="12" Cut="4.7619048506021500e-02" cType="1" res="-9.9000000000000000e+01" rms="0.0000000000000000e+00" purity="5.9963995218276978e-01" nType="0">
                  <Node pos="l" depth="6" NCoef="0" IVar="-1" Cut="4.7619048506021500e-02" cType="0" res="-9.9000000000000000e+01" rms="0.0000000000000000e+00" purity="6.8413084745407104e-01" nType="1"/>
                  <Node pos="r" depth="6" NCoef="0" IVar="-1" Cut="0.0000000000000000e+00" cType="1" res="-9.9000000000000000e+01" rms="0.0000000000000000e+00" purity="1.3928228616714478e-01" nType="-1"/>
                </Node>
                <Node pos="r" depth="5" NCoef="0" IVar="-1" Cut="0.0000000000000000e+00" cType="1" res="-9.9000000000000000e+01" rms="0.0000000000000000e+00" purity="2.9848495125770569e-01" nType="-1"/>
              </Node>
              <Node pos="r" depth="4" NCoef="0" IVar="-1" Cut="4.7619048506021500e-02" cType="1" res="-9.9000000000000000e+01" rms="0.0000000000000000e+00" purity="8.2122832536697388e-02" nType="-1"/>
            </Node>
          </Node>
          <Node pos="r" depth="2" NCoef="0" IVar="53" Cut="4.7619048506021500e-02" cType="0" res="-9.9000000000000000e+01" rms="0.0000000000000000e+00" purity="5.4459780454635620e-01" nType="0">
            <Node pos="l" depth="3" NCoef="0" IVar="51" Cut="4.7619048506021500e-02" cType="0" res="-9.9000000000000000e+01" rms="0.0000000000000000e+00" purity="7.4481850862503052e-01" nType="0">
              <Node pos="l" depth="4" NCoef="0" IVar="28" Cut="4.7619048506021500e-02" cType="0" res="-9.9000000000000000e+01" rms="0.0000000000000000e+00" purity="8.6161667108535767e-01" nType="0">
                <Node pos="l" depth="5" NCoef="0" IVar="-1" Cut="4.7619048506021500e-02" cType="0" res="-9.9000000000000000e+01" rms="0.0000000000000000e+00" purity="9.7494298219680786e-01" nType="1"/>
                <Node pos="r" depth="5" NCoef="0" IVar="64" Cut="4.7619048506021500e-02" cType="1" res="-9.9000000000000000e+01" rms="0.0000000000000000e+00" purity="7.9199045896530151e-01" nType="0">
                  <Node pos="l" depth="6" NCoef="0" IVar="-1" Cut="4.7619048506021500e-02" cType="0" res="-9.9000000000000000e+01" rms="0.0000000000000000e+00" purity="8.4790825843811035e-01" nType="1"/>
                  <Node pos="r" depth="6" NCoef="0" IVar="-1" Cut="0.0000000000000000e+00" cType="1" res="-9.9000000000000000e+01" rms="0.0000000000000000e+00" purity="3.5793927311897278e-01" nType="-1"/>
                </Node>
              </Node>
              <Node pos="r" depth="4" NCoef="0" IVar="59" Cut="4.7619048506021500e-02" cType="1" res="-9.9000000000000000e+01" rms="0.0000000000000000e+00" purity="4.7663763165473938e-01" nType="0">
                <Node pos="l" depth="5" NCoef="0" IVar="68" Cut="4.7619048506021500e-02" cType="0" res="-9.9000000000000000e+01" rms="0.0000000000000000e+00" purity="5.0376558303833008e-01" nType="0">
                  <Node pos="l" depth="6" NCoef="0" IVar="-1" Cut="0.0000000000000000e+00" cType="1" res="-9.9000000000000000e+01" rms="0.0000000000000000e+00" purity="7.0237642526626587e-01" nType="1"/>
                  <Node pos="r" depth="6" NCoef="0" IVar="-1" Cut="4.7619048506021500e-02" cType="1" res="-9.9000000000000000e+01" rms="0.0000000000000000e+00" purity="4.5084118843078613e-01" nType="-1"/>
                </Node>
                <Node pos="r" depth="5" NCoef="0" IVar="-1" Cut="0.0000000000000000e+00" cType="1" res="-9.9000000000000000e+01" rms="0.0000000000000000e+00" purity="1.1148537695407867e-01" nType="-1"/>
              </Node>
            </Node>
            <Node pos="r" depth="3" NCoef="0" IVar="45" Cut="4.7619048506021500e-02" cType="0" res="-9.9000000000000000e+01" rms="0.0000000000000000e+00" purity="5.3879845142364502e-01" nType="0">
              <Node pos="l" depth="4" NCoef="0" IVar="43" Cut="4.7619048506021500e-02" cType="0" res="-9.9000000000000000e+01" rms="0.0000000000000000e+00" purity="7.7129232883453369e-01" nType="0">
                <Node pos="l" depth="5" NCoef="0" IVar="-1" Cut="4.7619048506021500e-02" cType="0" res="-9.9000000000000000e+01" rms="0.0000000000000000e+00" purity="9.1618710756301880e-01" nType="1"/>
                <Node pos="r" depth="5" NCoef="0" IVar="24" Cut="4.7619048506021500e-02" cType="0" res="-9.9000000000000000e+01" rms="0.0000000000000000e+00" purity="5.7709860801696777e-01" nType="0">
                  <Node pos="l" depth="6" NCoef="0" IVar="-1" Cut="0.0000000000000000e+00" cType="1" res="-9.9000000000000000e+01" rms="0.0000000000000000e+00" purity="9.2009937763214111e-01" nType="1"/>
                  <Node pos="r" depth="6" NCoef="0" IVar="68" Cut="4.7619048506021500e-02" cType="1" res="-9.9000000000000000e+01" rms="0.0000000000000000e+00" purity="5.0311481952667236e-01" nType="0">
                    <Node pos="l" depth="7" NCoef="0" IVar="-1" Cut="0.0000000000000000e+00" cType="1" res="-9.9000000000000000e+01" rms="0.0000000000000000e+00" purity="5.4474294185638428e-01" nType="1"/>
                    <Node pos="r" depth="7" NCoef="0" IVar="-1" Cut="0.0000000000000000e+00" cType="1" res="-9.9000000000000000e+01" rms="0.0000000000000000e+00" purity="2.4595631659030914e-01" nType="-1"/>
                  </Node>
                </Node>
              </Node>
              <Node pos="r" depth="4" NCoef="0" IVar="27" Cut="4.7619048506021500e-02" cType="0" res="-9.9000000000000000e+01" rms="0.0000000000000000e+00" purity="5.3414577245712280e-01" nType="0">
                <Node pos="l" depth="5" NCoef="0" IVar="-1" Cut="4.7619048506021500e-02" cType="0" res="-9.9000000000000000e+01" rms="0.0000000000000000e+00" purity="7.5503593683242798e-01" nType="1"/>
                <Node pos="r" depth="5" NCoef="0" IVar="56" Cut="4.7619048506021500e-02" cType="0" res="-9.9000000000000000e+01" rms="0.0000000000000000e+00" purity="5.3030961751937866e-01" nType="0">
                  <Node pos="l" depth="6" NCoef="0" IVar="4" Cut="4.7619048506021500e-02" cType="1" res="-9.9000000000000000e+01" rms="0.0000000000000000e+00" purity="6.9090908765792847e-01" nType="0">
                    <Node pos="l" depth="7" NCoef="0" IVar="-1" Cut="0.0000000000000000e+00" cType="1" res="-9.9000000000000000e+01" rms="0.0000000000000000e+00" purity="7.1335119009017944e-01" nType="1"/>
                    <Node pos="r" depth="7" NCoef="0" IVar="-1" Cut="0.0000000000000000e+00" cType="1" res="-9.9000000000000000e+01" rms="0.0000000000000000e+00" purity="1.0018430650234222e-01" nType="-1"/>
