<?xml version="1.0"?>
<MethodSetup Method="BDT::BDT">
  <GeneralInfo>
    <Info name="TMVA Release" value="4.1.3 [262403]"/>
    <Info name="ROOT Release" value="5.34/03 [336387]"/>
    <Info name="Creator" value="dmorton"/>
    <Info name="Date" value="Sat Jul  9 03:59:52 2016"/>
    <Info name="Host" value="Linux e906-gat2.fnal.gov 2.6.18-238.12.1.el5 #1 SMP Tue May 31 13:12:32 EDT 2011 x86_64 x86_64 x86_64 GNU/Linux"/>
    <Info name="Dir" value="/seaquest/users/dmorton/TMVA-v4.2.0/test"/>
    <Info name="Training events" value="82002"/>
    <Info name="TrainingTime" value="1.07956181e+02"/>
    <Info name="AnalysisType" value="Classification"/>
  </GeneralInfo>
  <Options>
    <Option name="V" modified="No">False</Option>
    <Option name="VerbosityLevel" modified="No">Default</Option>
    <Option name="VarTransform" modified="No">None</Option>
    <Option name="H" modified="No">False</Option>
    <Option name="CreateMVAPdfs" modified="No">False</Option>
    <Option name="IgnoreNegWeightsInTraining" modified="No">False</Option>
    <Option name="NTrees" modified="Yes">125</Option>
    <Option name="RenormByClass" modified="No">False</Option>
    <Option name="BoostType" modified="No">AdaBoost</Option>
    <Option name="AdaBoostR2Loss" modified="No">quadratic</Option>
    <Option name="UseBaggedGrad" modified="No">False</Option>
    <Option name="GradBaggingFraction" modified="No">6.000000e-01</Option>
    <Option name="Shrinkage" modified="No">1.000000e+00</Option>
    <Option name="AdaBoostBeta" modified="No">1.000000e+00</Option>
    <Option name="UseRandomisedTrees" modified="No">False</Option>
    <Option name="UseNvars" modified="No">9</Option>
    <Option name="UsePoissonNvars" modified="No">True</Option>
    <Option name="UseNTrainEvents" modified="No">82002</Option>
    <Option name="UseWeightedTrees" modified="No">True</Option>
    <Option name="UseYesNoLeaf" modified="No">True</Option>
    <Option name="NodePurityLimit" modified="No">5.000000e-01</Option>
    <Option name="SeparationType" modified="Yes">giniindexwithlaplace</Option>
    <Option name="nEventsMin" modified="No">40</Option>
    <Option name="nCuts" modified="No">20</Option>
    <Option name="UseFisherCuts" modified="No">False</Option>
    <Option name="MinLinCorrForFisher" modified="No">8.000000e-01</Option>
    <Option name="UseExclusiveVars" modified="No">False</Option>
    <Option name="PruneStrength" modified="No">0.000000e+00</Option>
    <Option name="PruneMethod" modified="No">nopruning</Option>
    <Option name="PruneBeforeBoost" modified="No">False</Option>
    <Option name="PruningValFraction" modified="No">5.000000e-01</Option>
    <Option name="NNodesMax" modified="No">100000</Option>
    <Option name="MaxDepth" modified="Yes">7</Option>
    <Option name="DoBoostMonitor" modified="No">False</Option>
    <Option name="NegWeightTreatment" modified="No">inverseboostnegweights</Option>
  </Options>
  <Variables NVar="72">
    <Variable VarIndex="0" Expression="h1r11" Label="h1r11" Title="h1r11" Unit="" Internal="h1r11" Type="/" Min="0.00000000e+00" Max="1.00000000e+00"/>
    <Variable VarIndex="1" Expression="h1l11" Label="h1l11" Title="h1l11" Unit="" Internal="h1l11" Type="/" Min="0.00000000e+00" Max="1.00000000e+00"/>
    <Variable VarIndex="2" Expression="h1r12" Label="h1r12" Title="h1r12" Unit="" Internal="h1r12" Type="/" Min="0.00000000e+00" Max="1.00000000e+00"/>
    <Variable VarIndex="3" Expression="h1l12" Label="h1l12" Title="h1l12" Unit="" Internal="h1l12" Type="/" Min="0.00000000e+00" Max="1.00000000e+00"/>
    <Variable VarIndex="4" Expression="h1r13" Label="h1r13" Title="h1r13" Unit="" Internal="h1r13" Type="/" Min="0.00000000e+00" Max="1.00000000e+00"/>
    <Variable VarIndex="5" Expression="h1l13" Label="h1l13" Title="h1l13" Unit="" Internal="h1l13" Type="/" Min="0.00000000e+00" Max="1.00000000e+00"/>
    <Variable VarIndex="6" Expression="h1r14" Label="h1r14" Title="h1r14" Unit="" Internal="h1r14" Type="/" Min="0.00000000e+00" Max="1.00000000e+00"/>
    <Variable VarIndex="7" Expression="h1l14" Label="h1l14" Title="h1l14" Unit="" Internal="h1l14" Type="/" Min="0.00000000e+00" Max="1.00000000e+00"/>
    <Variable VarIndex="8" Expression="h1r15" Label="h1r15" Title="h1r15" Unit="" Internal="h1r15" Type="/" Min="0.00000000e+00" Max="1.00000000e+00"/>
    <Variable VarIndex="9" Expression="h1l15" Label="h1l15" Title="h1l15" Unit="" Internal="h1l15" Type="/" Min="0.00000000e+00" Max="1.00000000e+00"/>
    <Variable VarIndex="10" Expression="h1r16" Label="h1r16" Title="h1r16" Unit="" Internal="h1r16" Type="/" Min="0.00000000e+00" Max="1.00000000e+00"/>
    <Variable VarIndex="11" Expression="h1l16" Label="h1l16" Title="h1l16" Unit="" Internal="h1l16" Type="/" Min="0.00000000e+00" Max="1.00000000e+00"/>
    <Variable VarIndex="12" Expression="h1r17" Label="h1r17" Title="h1r17" Unit="" Internal="h1r17" Type="/" Min="0.00000000e+00" Max="1.00000000e+00"/>
    <Variable VarIndex="13" Expression="h1l17" Label="h1l17" Title="h1l17" Unit="" Internal="h1l17" Type="/" Min="0.00000000e+00" Max="1.00000000e+00"/>
    <Variable VarIndex="14" Expression="h1r18" Label="h1r18" Title="h1r18" Unit="" Internal="h1r18" Type="/" Min="0.00000000e+00" Max="1.00000000e+00"/>
    <Variable VarIndex="15" Expression="h1l18" Label="h1l18" Title="h1l18" Unit="" Internal="h1l18" Type="/" Min="0.00000000e+00" Max="1.00000000e+00"/>
    <Variable VarIndex="16" Expression="h1r19" Label="h1r19" Title="h1r19" Unit="" Internal="h1r19" Type="/" Min="0.00000000e+00" Max="1.00000000e+00"/>
    <Variable VarIndex="17" Expression="h1l19" Label="h1l19" Title="h1l19" Unit="" Internal="h1l19" Type="/" Min="0.00000000e+00" Max="1.00000000e+00"/>
    <Variable VarIndex="18" Expression="h1r20" Label="h1r20" Title="h1r20" Unit="" Internal="h1r20" Type="/" Min="0.00000000e+00" Max="1.00000000e+00"/>
    <Variable VarIndex="19" Expression="h1l20" Label="h1l20" Title="h1l20" Unit="" Internal="h1l20" Type="/" Min="0.00000000e+00" Max="1.00000000e+00"/>
    <Variable VarIndex="20" Expression="h2r10" Label="h2r10" Title="h2r10" Unit="" Internal="h2r10" Type="/" Min="0.00000000e+00" Max="1.00000000e+00"/>
    <Variable VarIndex="21" Expression="h2l10" Label="h2l10" Title="h2l10" Unit="" Internal="h2l10" Type="/" Min="0.00000000e+00" Max="1.00000000e+00"/>
    <Variable VarIndex="22" Expression="h2r11" Label="h2r11" Title="h2r11" Unit="" Internal="h2r11" Type="/" Min="0.00000000e+00" Max="1.00000000e+00"/>
    <Variable VarIndex="23" Expression="h2l11" Label="h2l11" Title="h2l11" Unit="" Internal="h2l11" Type="/" Min="0.00000000e+00" Max="1.00000000e+00"/>
    <Variable VarIndex="24" Expression="h2r12" Label="h2r12" Title="h2r12" Unit="" Internal="h2r12" Type="/" Min="0.00000000e+00" Max="1.00000000e+00"/>
    <Variable VarIndex="25" Expression="h2l12" Label="h2l12" Title="h2l12" Unit="" Internal="h2l12" Type="/" Min="0.00000000e+00" Max="1.00000000e+00"/>
    <Variable VarIndex="26" Expression="h2r13" Label="h2r13" Title="h2r13" Unit="" Internal="h2r13" Type="/" Min="0.00000000e+00" Max="1.00000000e+00"/>
    <Variable VarIndex="27" Expression="h2l13" Label="h2l13" Title="h2l13" Unit="" Internal="h2l13" Type="/" Min="0.00000000e+00" Max="1.00000000e+00"/>
    <Variable VarIndex="28" Expression="h2r14" Label="h2r14" Title="h2r14" Unit="" Internal="h2r14" Type="/" Min="0.00000000e+00" Max="1.00000000e+00"/>
    <Variable VarIndex="29" Expression="h2l14" Label="h2l14" Title="h2l14" Unit="" Internal="h2l14" Type="/" Min="0.00000000e+00" Max="1.00000000e+00"/>
    <Variable VarIndex="30" Expression="h2r15" Label="h2r15" Title="h2r15" Unit="" Internal="h2r15" Type="/" Min="0.00000000e+00" Max="1.00000000e+00"/>
    <Variable VarIndex="31" Expression="h2l15" Label="h2l15" Title="h2l15" Unit="" Internal="h2l15" Type="/" Min="0.00000000e+00" Max="1.00000000e+00"/>
    <Variable VarIndex="32" Expression="h2r16" Label="h2r16" Title="h2r16" Unit="" Internal="h2r16" Type="/" Min="0.00000000e+00" Max="1.00000000e+00"/>
    <Variable VarIndex="33" Expression="h2l16" Label="h2l16" Title="h2l16" Unit="" Internal="h2l16" Type="/" Min="0.00000000e+00" Max="1.00000000e+00"/>
    <Variable VarIndex="34" Expression="h2r17" Label="h2r17" Title="h2r17" Unit="" Internal="h2r17" Type="/" Min="0.00000000e+00" Max="1.00000000e+00"/>
    <Variable VarIndex="35" Expression="h2l17" Label="h2l17" Title="h2l17" Unit="" Internal="h2l17" Type="/" Min="0.00000000e+00" Max="1.00000000e+00"/>
    <Variable VarIndex="36" Expression="h2r18" Label="h2r18" Title="h2r18" Unit="" Internal="h2r18" Type="/" Min="0.00000000e+00" Max="1.00000000e+00"/>
    <Variable VarIndex="37" Expression="h2l18" Label="h2l18" Title="h2l18" Unit="" Internal="h2l18" Type="/" Min="0.00000000e+00" Max="1.00000000e+00"/>
    <Variable VarIndex="38" Expression="h2r19" Label="h2r19" Title="h2r19" Unit="" Internal="h2r19" Type="/" Min="0.00000000e+00" Max="1.00000000e+00"/>
    <Variable VarIndex="39" Expression="h2l19" Label="h2l19" Title="h2l19" Unit="" Internal="h2l19" Type="/" Min="0.00000000e+00" Max="1.00000000e+00"/>
    <Variable VarIndex="40" Expression="h4Y1L9" Label="h4Y1L9" Title="h4Y1L9" Unit="" Internal="h4Y1L9" Type="/" Min="0.00000000e+00" Max="1.00000000e+00"/>
    <Variable VarIndex="41" Expression="h4Y1R9" Label="h4Y1R9" Title="h4Y1R9" Unit="" Internal="h4Y1R9" Type="/" Min="0.00000000e+00" Max="1.00000000e+00"/>
    <Variable VarIndex="42" Expression="h4Y2L9" Label="h4Y2L9" Title="h4Y2L9" Unit="" Internal="h4Y2L9" Type="/" Min="0.00000000e+00" Max="1.00000000e+00"/>
    <Variable VarIndex="43" Expression="h4Y2R9" Label="h4Y2R9" Title="h4Y2R9" Unit="" Internal="h4Y2R9" Type="/" Min="0.00000000e+00" Max="1.00000000e+00"/>
    <Variable VarIndex="44" Expression="h4Y1L10" Label="h4Y1L10" Title="h4Y1L10" Unit="" Internal="h4Y1L10" Type="/" Min="0.00000000e+00" Max="1.00000000e+00"/>
    <Variable VarIndex="45" Expression="h4Y1R10" Label="h4Y1R10" Title="h4Y1R10" Unit="" Internal="h4Y1R10" Type="/" Min="0.00000000e+00" Max="1.00000000e+00"/>
    <Variable VarIndex="46" Expression="h4Y2L10" Label="h4Y2L10" Title="h4Y2L10" Unit="" Internal="h4Y2L10" Type="/" Min="0.00000000e+00" Max="1.00000000e+00"/>
    <Variable VarIndex="47" Expression="h4Y2R10" Label="h4Y2R10" Title="h4Y2R10" Unit="" Internal="h4Y2R10" Type="/" Min="0.00000000e+00" Max="1.00000000e+00"/>
    <Variable VarIndex="48" Expression="h4Y1L11" Label="h4Y1L11" Title="h4Y1L11" Unit="" Internal="h4Y1L11" Type="/" Min="0.00000000e+00" Max="1.00000000e+00"/>
    <Variable VarIndex="49" Expression="h4Y1R11" Label="h4Y1R11" Title="h4Y1R11" Unit="" Internal="h4Y1R11" Type="/" Min="0.00000000e+00" Max="1.00000000e+00"/>
    <Variable VarIndex="50" Expression="h4Y2L11" Label="h4Y2L11" Title="h4Y2L11" Unit="" Internal="h4Y2L11" Type="/" Min="0.00000000e+00" Max="1.00000000e+00"/>
    <Variable VarIndex="51" Expression="h4Y2R11" Label="h4Y2R11" Title="h4Y2R11" Unit="" Internal="h4Y2R11" Type="/" Min="0.00000000e+00" Max="1.00000000e+00"/>
    <Variable VarIndex="52" Expression="h4Y1L12" Label="h4Y1L12" Title="h4Y1L12" Unit="" Internal="h4Y1L12" Type="/" Min="0.00000000e+00" Max="1.00000000e+00"/>
    <Variable VarIndex="53" Expression="h4Y1R12" Label="h4Y1R12" Title="h4Y1R12" Unit="" Internal="h4Y1R12" Type="/" Min="0.00000000e+00" Max="1.00000000e+00"/>
    <Variable VarIndex="54" Expression="h4Y2L12" Label="h4Y2L12" Title="h4Y2L12" Unit="" Internal="h4Y2L12" Type="/" Min="0.00000000e+00" Max="1.00000000e+00"/>
    <Variable VarIndex="55" Expression="h4Y2R12" Label="h4Y2R12" Title="h4Y2R12" Unit="" Internal="h4Y2R12" Type="/" Min="0.00000000e+00" Max="1.00000000e+00"/>
    <Variable VarIndex="56" Expression="h4Y1L13" Label="h4Y1L13" Title="h4Y1L13" Unit="" Internal="h4Y1L13" Type="/" Min="0.00000000e+00" Max="1.00000000e+00"/>
    <Variable VarIndex="57" Expression="h4Y1R13" Label="h4Y1R13" Title="h4Y1R13" Unit="" Internal="h4Y1R13" Type="/" Min="0.00000000e+00" Max="1.00000000e+00"/>
    <Variable VarIndex="58" Expression="h4Y2L13" Label="h4Y2L13" Title="h4Y2L13" Unit="" Internal="h4Y2L13" Type="/" Min="0.00000000e+00" Max="1.00000000e+00"/>
    <Variable VarIndex="59" Expression="h4Y2R13" Label="h4Y2R13" Title="h4Y2R13" Unit="" Internal="h4Y2R13" Type="/" Min="0.00000000e+00" Max="1.00000000e+00"/>
    <Variable VarIndex="60" Expression="h4Y1L14" Label="h4Y1L14" Title="h4Y1L14" Unit="" Internal="h4Y1L14" Type="/" Min="0.00000000e+00" Max="1.00000000e+00"/>
    <Variable VarIndex="61" Expression="h4Y1R14" Label="h4Y1R14" Title="h4Y1R14" Unit="" Internal="h4Y1R14" Type="/" Min="0.00000000e+00" Max="1.00000000e+00"/>
    <Variable VarIndex="62" Expression="h4Y2L14" Label="h4Y2L14" Title="h4Y2L14" Unit="" Internal="h4Y2L14" Type="/" Min="0.00000000e+00" Max="1.00000000e+00"/>
    <Variable VarIndex="63" Expression="h4Y2R14" Label="h4Y2R14" Title="h4Y2R14" Unit="" Internal="h4Y2R14" Type="/" Min="0.00000000e+00" Max="1.00000000e+00"/>
    <Variable VarIndex="64" Expression="h4Y1L15" Label="h4Y1L15" Title="h4Y1L15" Unit="" Internal="h4Y1L15" Type="/" Min="0.00000000e+00" Max="1.00000000e+00"/>
    <Variable VarIndex="65" Expression="h4Y1R15" Label="h4Y1R15" Title="h4Y1R15" Unit="" Internal="h4Y1R15" Type="/" Min="0.00000000e+00" Max="1.00000000e+00"/>
    <Variable VarIndex="66" Expression="h4Y2L15" Label="h4Y2L15" Title="h4Y2L15" Unit="" Internal="h4Y2L15" Type="/" Min="0.00000000e+00" Max="1.00000000e+00"/>
    <Variable VarIndex="67" Expression="h4Y2R15" Label="h4Y2R15" Title="h4Y2R15" Unit="" Internal="h4Y2R15" Type="/" Min="0.00000000e+00" Max="1.00000000e+00"/>
    <Variable VarIndex="68" Expression="h4Y1L16" Label="h4Y1L16" Title="h4Y1L16" Unit="" Internal="h4Y1L16" Type="/" Min="0.00000000e+00" Max="1.00000000e+00"/>
    <Variable VarIndex="69" Expression="h4Y1R16" Label="h4Y1R16" Title="h4Y1R16" Unit="" Internal="h4Y1R16" Type="/" Min="0.00000000e+00" Max="1.00000000e+00"/>
    <Variable VarIndex="70" Expression="h4Y2L16" Label="h4Y2L16" Title="h4Y2L16" Unit="" Internal="h4Y2L16" Type="/" Min="0.00000000e+00" Max="1.00000000e+00"/>
    <Variable VarIndex="71" Expression="h4Y2R16" Label="h4Y2R16" Title="h4Y2R16" Unit="" Internal="h4Y2R16" Type="/" Min="0.00000000e+00" Max="1.00000000e+00"/>
  </Variables>
  <Spectators NSpec="0"/>
  <Classes NClass="2">
    <Class Name="Signal" Index="0"/>
    <Class Name="Background" Index="1"/>
  </Classes>
  <Transformations NTransformations="0"/>
  <MVAPdfs/>
  <Weights NTrees="125" AnalysisType="0">
    <BinaryTree type="DecisionTree" boostWeight="1.2269597553227294e+00" itree="0">
      <Node pos="s" depth="0" NCoef="0" IVar="17" Cut="4.7619048506021500e-02" cType="0" res="-9.9000000000000000e+01" rms="0.0000000000000000e+00" purity="3.9025878906250000e-01" nType="0">
        <Node pos="l" depth="1" NCoef="0" IVar="4" Cut="4.7619048506021500e-02" cType="1" res="-9.9000000000000000e+01" rms="0.0000000000000000e+00" purity="8.1354480981826782e-01" nType="0">
          <Node pos="l" depth="2" NCoef="0" IVar="1" Cut="4.7619048506021500e-02" cType="1" res="-9.9000000000000000e+01" rms="0.0000000000000000e+00" purity="8.6752027273178101e-01" nType="0">
            <Node pos="l" depth="3" NCoef="0" IVar="-1" Cut="4.7619048506021500e-02" cType="1" res="-9.9000000000000000e+01" rms="0.0000000000000000e+00" purity="9.0602999925613403e-01" nType="1"/>
            <Node pos="r" depth="3" NCoef="0" IVar="3" Cut="4.7619048506021500e-02" cType="1" res="-9.9000000000000000e+01" rms="0.0000000000000000e+00" purity="6.4285713434219360e-01" nType="0">
              <Node pos="l" depth="4" NCoef="0" IVar="0" Cut="4.7619048506021500e-02" cType="1" res="-9.9000000000000000e+01" rms="0.0000000000000000e+00" purity="7.7461141347885132e-01" nType="0">
                <Node pos="l" depth="5" NCoef="0" IVar="-1" Cut="4.7619048506021500e-02" cType="1" res="-9.9000000000000000e+01" rms="0.0000000000000000e+00" purity="8.4827584028244019e-01" nType="1"/>
                <Node pos="r" depth="5" NCoef="0" IVar="41" Cut="4.7619048506021500e-02" cType="0" res="-9.9000000000000000e+01" rms="0.0000000000000000e+00" purity="5.5208331346511841e-01" nType="0">
                  <Node pos="l" depth="6" NCoef="0" IVar="-1" Cut="0.0000000000000000e+00" cType="1" res="-9.9000000000000000e+01" rms="0.0000000000000000e+00" purity="6.7500001192092896e-01" nType="1"/>
                  <Node pos="r" depth="6" NCoef="0" IVar="-1" Cut="0.0000000000000000e+00" cType="1" res="-9.9000000000000000e+01" rms="0.0000000000000000e+00" purity="4.6428570151329041e-01" nType="-1"/>
                </Node>
              </Node>
              <Node pos="r" depth="4" NCoef="0" IVar="13" Cut="4.7619048506021500e-02" cType="0" res="-9.9000000000000000e+01" rms="0.0000000000000000e+00" purity="3.5057470202445984e-01" nType="0">
                <Node pos="l" depth="5" NCoef="0" IVar="-1" Cut="0.0000000000000000e+00" cType="1" res="-9.9000000000000000e+01" rms="0.0000000000000000e+00" purity="6.3043481111526489e-01" nType="1"/>
                <Node pos="r" depth="5" NCoef="0" IVar="-1" Cut="4.7619048506021500e-02" cType="1" res="-9.9000000000000000e+01" rms="0.0000000000000000e+00" purity="2.5000000000000000e-01" nType="-1"/>
              </Node>
            </Node>
          </Node>
          <Node pos="r" depth="2" NCoef="0" IVar="6" Cut="4.7619048506021500e-02" cType="1" res="-9.9000000000000000e+01" rms="0.0000000000000000e+00" purity="5.6734210252761841e-01" nType="0">
            <Node pos="l" depth="3" NCoef="0" IVar="0" Cut="4.7619048506021500e-02" cType="1" res="-9.9000000000000000e+01" rms="0.0000000000000000e+00" purity="6.9043475389480591e-01" nType="0">
              <Node pos="l" depth="4" NCoef="0" IVar="-1" Cut="4.7619048506021500e-02" cType="1" res="-9.9000000000000000e+01" rms="0.0000000000000000e+00" purity="7.8348213434219360e-01" nType="1"/>
              <Node pos="r" depth="4" NCoef="0" IVar="43" Cut="4.7619048506021500e-02" cType="0" res="-9.9000000000000000e+01" rms="0.0000000000000000e+00" purity="3.6220473051071167e-01" nType="0">
                <Node pos="l" depth="5" NCoef="0" IVar="-1" Cut="0.0000000000000000e+00" cType="1" res="-9.9000000000000000e+01" rms="0.0000000000000000e+00" purity="6.0465115308761597e-01" nType="1"/>
                <Node pos="r" depth="5" NCoef="0" IVar="-1" Cut="4.7619048506021500e-02" cType="1" res="-9.9000000000000000e+01" rms="0.0000000000000000e+00" purity="2.3809523880481720e-01" nType="-1"/>
              </Node>
            </Node>
            <Node pos="r" depth="3" NCoef="0" IVar="16" Cut="4.7619048506021500e-02" cType="0" res="-9.9000000000000000e+01" rms="0.0000000000000000e+00" purity="2.9924243688583374e-01" nType="0">
              <Node pos="l" depth="4" NCoef="0" IVar="-1" Cut="0.0000000000000000e+00" cType="1" res="-9.9000000000000000e+01" rms="0.0000000000000000e+00" purity="5.9210526943206787e-01" nType="1"/>
              <Node pos="r" depth="4" NCoef="0" IVar="-1" Cut="4.7619048506021500e-02" cType="0" res="-9.9000000000000000e+01" rms="0.0000000000000000e+00" purity="1.8085105717182159e-01" nType="-1"/>
            </Node>
          </Node>
        </Node>
        <Node pos="r" depth="1" NCoef="0" IVar="0" Cut="4.7619048506021500e-02" cType="1" res="-9.9000000000000000e+01" rms="0.0000000000000000e+00" purity="3.6472019553184509e-01" nType="0">
          <Node pos="l" depth="2" NCoef="0" IVar="54" Cut="4.7619048506021500e-02" cType="0" res="-9.9000000000000000e+01" rms="0.0000000000000000e+00" purity="4.1778114438056946e-01" nType="0">
            <Node pos="l" depth="3" NCoef="0" IVar="7" Cut="4.7619048506021500e-02" cType="1" res="-9.9000000000000000e+01" rms="0.0000000000000000e+00" purity="8.8622754812240601e-01" nType="0">
              <Node pos="l" depth="4" NCoef="0" IVar="-1" Cut="4.7619048506021500e-02" cType="0" res="-9.9000000000000000e+01" rms="0.0000000000000000e+00" purity="9.1488564014434814e-01" nType="1"/>
              <Node pos="r" depth="4" NCoef="0" IVar="1" Cut="4.7619048506021500e-02" cType="1" res="-9.9000000000000000e+01" rms="0.0000000000000000e+00" purity="4.4186046719551086e-01" nType="0">
                <Node pos="l" depth="5" NCoef="0" IVar="41" Cut="4.7619048506021500e-02" cType="1" res="-9.9000000000000000e+01" rms="0.0000000000000000e+00" purity="5.6363636255264282e-01" nType="0">
                  <Node pos="l" depth="6" NCoef="0" IVar="-1" Cut="0.0000000000000000e+00" cType="1" res="-9.9000000000000000e+01" rms="0.0000000000000000e+00" purity="6.5151512622833252e-01" nType="1"/>
                  <Node pos="r" depth="6" NCoef="0" IVar="-1" Cut="0.0000000000000000e+00" cType="1" res="-9.9000000000000000e+01" rms="0.0000000000000000e+00" purity="4.3181818723678589e-01" nType="-1"/>
                </Node>
                <Node pos="r" depth="5" NCoef="0" IVar="-1" Cut="0.0000000000000000e+00" cType="1" res="-9.9000000000000000e+01" rms="0.0000000000000000e+00" purity="2.2580644488334656e-01" nType="-1"/>
              </Node>
            </Node>
            <Node pos="r" depth="3" NCoef="0" IVar="48" Cut="4.7619048506021500e-02" cType="0" res="-9.9000000000000000e+01" rms="0.0000000000000000e+00" purity="3.9480277895927429e-01" nType="0">
              <Node pos="l" depth="4" NCoef="0" IVar="50" Cut="4.7619048506021500e-02" cType="0" res="-9.9000000000000000e+01" rms="0.0000000000000000e+00" purity="8.2294517755508423e-01" nType="0">
                <Node pos="l" depth="5" NCoef="0" IVar="7" Cut="4.7619048506021500e-02" cType="1" res="-9.9000000000000000e+01" rms="0.0000000000000000e+00" purity="9.0139722824096680e-01" nType="0">
                  <Node pos="l" depth="6" NCoef="0" IVar="-1" Cut="4.7619048506021500e-02" cType="0" res="-9.9000000000000000e+01" rms="0.0000000000000000e+00" purity="9.3422186374664307e-01" nType="1"/>
                  <Node pos="r" depth="6" NCoef="0" IVar="5" Cut="4.7619048506021500e-02" cType="1" res="-9.9000000000000000e+01" rms="0.0000000000000000e+00" purity="4.7486034035682678e-01" nType="0">
                    <Node pos="l" depth="7" NCoef="0" IVar="-1" Cut="0.0000000000000000e+00" cType="1" res="-9.9000000000000000e+01" rms="0.0000000000000000e+00" purity="6.5178573131561279e-01" nType="1"/>
                    <Node pos="r" depth="7" NCoef="0" IVar="-1" Cut="0.0000000000000000e+00" cType="1" res="-9.9000000000000000e+01" rms="0.0000000000000000e+00" purity="1.7910447716712952e-01" nType="-1"/>
                  </Node>
                </Node>
                <Node pos="r" depth="5" NCoef="0" IVar="51" Cut="4.7619048506021500e-02" cType="0" res="-9.9000000000000000e+01" rms="0.0000000000000000e+00" purity="3.4939759969711304e-01" nType="0">
                  <Node pos="l" depth="6" NCoef="0" IVar="-1" Cut="0.0000000000000000e+00" cType="1" res="-9.9000000000000000e+01" rms="0.0000000000000000e+00" purity="7.1186441183090210e-01" nType="1"/>
                  <Node pos="r" depth="6" NCoef="0" IVar="42" Cut="4.7619048506021500e-02" cType="0" res="-9.9000000000000000e+01" rms="0.0000000000000000e+00" purity="2.8932583332061768e-01" nType="0">
                    <Node pos="l" depth="7" NCoef="0" IVar="-1" Cut="0.0000000000000000e+00" cType="1" res="-9.9000000000000000e+01" rms="0.0000000000000000e+00" purity="5.0704222917556763e-01" nType="1"/>
                    <Node pos="r" depth="7" NCoef="0" IVar="-1" Cut="0.0000000000000000e+00" cType="1" res="-9.9000000000000000e+01" rms="0.0000000000000000e+00" purity="2.3508772253990173e-01" nType="-1"/>
                  </Node>
                </Node>
              </Node>
              <Node pos="r" depth="4" NCoef="0" IVar="46" Cut="4.7619048506021500e-02" cType="0" res="-9.9000000000000000e+01" rms="0.0000000000000000e+00" purity="3.7205451726913452e-01" nType="0">
                <Node pos="l" depth="5" NCoef="0" IVar="44" Cut="4.7619048506021500e-02" cType="0" res="-9.9000000000000000e+01" rms="0.0000000000000000e+00" purity="7.8238499164581299e-01" nType="0">
                  <Node pos="l" depth="6" NCoef="0" IVar="7" Cut="4.7619048506021500e-02" cType="1" res="-9.9000000000000000e+01" rms="0.0000000000000000e+00" purity="8.5372048616409302e-01" nType="0">
                    <Node pos="l" depth="7" NCoef="0" IVar="-1" Cut="0.0000000000000000e+00" cType="1" res="-9.9000000000000000e+01" rms="0.0000000000000000e+00" purity="8.8871288299560547e-01" nType="1"/>
                    <Node pos="r" depth="7" NCoef="0" IVar="-1" Cut="0.0000000000000000e+00" cType="1" res="-9.9000000000000000e+01" rms="0.0000000000000000e+00" purity="4.6956521272659302e-01" nType="-1"/>
                  </Node>
                  <Node pos="r" depth="6" NCoef="0" IVar="-1" Cut="4.7619048506021500e-02" cType="1" res="-9.9000000000000000e+01" rms="0.0000000000000000e+00" purity="4.2440801858901978e-01" nType="-1"/>
                </Node>
                <Node pos="r" depth="5" NCoef="0" IVar="51" Cut="4.7619048506021500e-02" cType="0" res="-9.9000000000000000e+01" rms="0.0000000000000000e+00" purity="3.4580761194229126e-01" nType="0">
                  <Node pos="l" depth="6" NCoef="0" IVar="-1" Cut="4.7619048506021500e-02" cType="0" res="-9.9000000000000000e+01" rms="0.0000000000000000e+00" purity="8.2613724470138550e-01" nType="1"/>
                  <Node pos="r" depth="6" NCoef="0" IVar="56" Cut="4.7619048506021500e-02" cType="0" res="-9.9000000000000000e+01" rms="0.0000000000000000e+00" purity="3.2041013240814209e-01" nType="0">
                    <Node pos="l" depth="7" NCoef="0" IVar="-1" Cut="0.0000000000000000e+00" cType="1" res="-9.9000000000000000e+01" rms="0.0000000000000000e+00" purity="8.8338339328765869e-01" nType="1"/>
                    <Node pos="r" depth="7" NCoef="0" IVar="-1" Cut="0.0000000000000000e+00" cType="1" res="-9.9000000000000000e+01" rms="0.0000000000000000e+00" purity="2.9650878906250000e-01" nType="-1"/>
                  </Node>
                </Node>
              </Node>
            </Node>
          </Node>
          <Node pos="r" depth="2" NCoef="0" IVar="1" Cut="4.7619048506021500e-02" cType="1" res="-9.9000000000000000e+01" rms="0.0000000000000000e+00" purity="1.7087845504283905e-01" nType="0">
            <Node pos="l" depth="3" NCoef="0" IVar="49" Cut="4.7619048506021500e-02" cType="0" res="-9.9000000000000000e+01" rms="0.0000000000000000e+00" purity="2.3288913071155548e-01" nType="0">
              <Node pos="l" depth="4" NCoef="0" IVar="51" Cut="4.7619048506021500e-02" cType="0" res="-9.9000000000000000e+01" rms="0.0000000000000000e+00" purity="6.1464089155197144e-01" nType="0">
                <Node pos="l" depth="5" NCoef="0" IVar="6" Cut="4.7619048506021500e-02" cType="1" res="-9.9000000000000000e+01" rms="0.0000000000000000e+00" purity="7.7458035945892334e-01" nType="0">
                  <Node pos="l" depth="6" NCoef="0" IVar="-1" Cut="4.7619048506021500e-02" cType="1" res="-9.9000000000000000e+01" rms="0.0000000000000000e+00" purity="8.4139782190322876e-01" nType="1"/>
                  <Node pos="r" depth="6" NCoef="0" IVar="-1" Cut="0.0000000000000000e+00" cType="1" res="-9.9000000000000000e+01" rms="0.0000000000000000e+00" purity="2.2222222387790680e-01" nType="-1"/>
                </Node>
                <Node pos="r" depth="5" NCoef="0" IVar="55" Cut="4.7619048506021500e-02" cType="0" res="-9.9000000000000000e+01" rms="0.0000000000000000e+00" purity="3.9739415049552917e-01" nType="0">
                  <Node pos="l" depth="6" NCoef="0" IVar="28" Cut="4.7619048506021500e-02" cType="0" res="-9.9000000000000000e+01" rms="0.0000000000000000e+00" purity="7.1962618827819824e-01" nType="0">
                    <Node pos="l" depth="7" NCoef="0" IVar="-1" Cut="0.0000000000000000e+00" cType="1" res="-9.9000000000000000e+01" rms="0.0000000000000000e+00" purity="9.3220341205596924e-01" nType="1"/>
                    <Node pos="r" depth="7" NCoef="0" IVar="-1" Cut="0.0000000000000000e+00" cType="1" res="-9.9000000000000000e+01" rms="0.0000000000000000e+00" purity="4.5833334326744080e-01" nType="-1"/>
                  </Node>
                  <Node pos="r" depth="6" NCoef="0" IVar="-1" Cut="4.7619048506021500e-02" cType="0" res="-9.9000000000000000e+01" rms="0.0000000000000000e+00" purity="2.2499999403953552e-01" nType="-1"/>
                </Node>
              </Node>
              <Node pos="r" depth="4" NCoef="0" IVar="53" Cut="4.7619048506021500e-02" cType="0" res="-9.9000000000000000e+01" rms="0.0000000000000000e+00" purity="2.0607353746891022e-01" nType="0">
                <Node pos="l" depth="5" NCoef="0" IVar="6" Cut="4.7619048506021500e-02" cType="1" res="-9.9000000000000000e+01" rms="0.0000000000000000e+00" purity="6.6893422603607178e-01" nType="0">
                  <Node pos="l" depth="6" NCoef="0" IVar="55" Cut="4.7619048506021500e-02" cType="0" res="-9.9000000000000000e+01" rms="0.0000000000000000e+00" purity="7.4736839532852173e-01" nType="0">
                    <Node pos="l" depth="7" NCoef="0" IVar="-1" Cut="0.0000000000000000e+00" cType="1" res="-9.9000000000000000e+01" rms="0.0000000000000000e+00" purity="8.6311787366867065e-01" nType="1"/>
                    <Node pos="r" depth="7" NCoef="0" IVar="-1" Cut="0.0000000000000000e+00" cType="1" res="-9.9000000000000000e+01" rms="0.0000000000000000e+00" purity="4.8717948794364929e-01" nType="-1"/>
                  </Node>
                  <Node pos="r" depth="6" NCoef="0" IVar="-1" Cut="0.0000000000000000e+00" cType="1" res="-9.9000000000000000e+01" rms="0.0000000000000000e+00" purity="1.8032786250114441e-01" nType="-1"/>
                </Node>
                <Node pos="r" depth="5" NCoef="0" IVar="57" Cut="4.7619048506021500e-02" cType="0" res="-9.9000000000000000e+01" rms="0.0000000000000000e+00" purity="1.8538415431976318e-01" nType="0">
                  <Node pos="l" depth="6" NCoef="0" IVar="-1" Cut="4.7619048506021500e-02" cType="0" res="-9.9000000000000000e+01" rms="0.0000000000000000e+00" purity="7.0180720090866089e-01" nType="1"/>
                  <Node pos="r" depth="6" NCoef="0" IVar="61" Cut="4.7619048506021500e-02" cType="0" res="-9.9000000000000000e+01" rms="0.0000000000000000e+00" purity="1.6740088164806366e-01" nType="0">
                    <Node pos="l" depth="7" NCoef="0" IVar="-1" Cut="0.0000000000000000e+00" cType="1" res="-9.9000000000000000e+01" rms="0.0000000000000000e+00" purity="6.6216218471527100e-01" nType="1"/>
                    <Node pos="r" depth="7" NCoef="0" IVar="-1" Cut="0.0000000000000000e+00" cType="1" res="-9.9000000000000000e+01" rms="0.0000000000000000e+00" purity="1.4742471277713776e-01" nType="-1"/>
                  </Node>
                </Node>
              </Node>
            </Node>
            <Node pos="r" depth="3" NCoef="0" IVar="35" Cut="4.7619048506021500e-02" cType="0" res="-9.9000000000000000e+01" rms="0.0000000000000000e+00" purity="4.8488102853298187e-02" nType="0">
              <Node pos="l" depth="4" NCoef="0" IVar="-1" Cut="4.7619048506021500e-02" cType="1" res="-9.9000000000000000e+01" rms="0.0000000000000000e+00" purity="2.6530611515045166e-01" nType="-1"/>
              <Node pos="r" depth="4" NCoef="0" IVar="51" Cut="4.7619048506021500e-02" cType="0" res="-9.9000000000000000e+01" rms="0.0000000000000000e+00" purity="4.4618465006351471e-02" nType="0">
                <Node pos="l" depth="5" NCoef="0" IVar="3" Cut="4.7619048506021500e-02" cType="1" res="-9.9000000000000000e+01" rms="0.0000000000000000e+00" purity="1.6083915531635284e-01" nType="0">
                  <Node pos="l" depth="6" NCoef="0" IVar="26" Cut="4.7619048506021500e-02" cType="0" res="-9.9000000000000000e+01" rms="0.0000000000000000e+00" purity="3.1818181276321411e-01" nType="0">
                    <Node pos="l" depth="7" NCoef="0" IVar="-1" Cut="0.0000000000000000e+00" cType="1" res="-9.9000000000000000e+01" rms="0.0000000000000000e+00" purity="5.2941179275512695e-01" nType="1"/>
                    <Node pos="r" depth="7" NCoef="0" IVar="-1" Cut="0.0000000000000000e+00" cType="1" res="-9.9000000000000000e+01" rms="0.0000000000000000e+00" purity="1.8518517911434174e-01" nType="-1"/>
                  </Node>
                  <Node pos="r" depth="6" NCoef="0" IVar="-1" Cut="4.7619048506021500e-02" cType="1" res="-9.9000000000000000e+01" rms="0.0000000000000000e+00" purity="2.5974025949835777e-02" nType="-1"/>
                </Node>
                <Node pos="r" depth="5" NCoef="0" IVar="-1" Cut="4.7619048506021500e-02" cType="0" res="-9.9000000000000000e+01" rms="0.0000000000000000e+00" purity="3.8232468068599701e-02" nType="-1"/>
              </Node>
            </Node>
          </Node>
        </Node>
      </Node>
    </BinaryTree>
    <BinaryTree type="DecisionTree" boostWeight="9.0023538762193778e-01" itree="1">
      <Node pos="s" depth="0" NCoef="0" IVar="0" Cut="4.7619048506021500e-02" cType="1" res="-9.9000000000000000e+01" rms="0.0000000000000000e+00" purity="5.6141608953475952e-01" nType="0">
        <Node pos="l" depth="1" NCoef="0" IVar="53" Cut="4.7619048506021500e-02" cType="0" res="-9.9000000000000000e+01" rms="0.0000000000000000e+00" purity="6.1144590377807617e-01" nType="0">
          <Node pos="l" depth="2" NCoef="0" IVar="44" Cut="4.7619048506021500e-02" cType="1" res="-9.9000000000000000e+01" rms="0.0000000000000000e+00" purity="8.8650965690612793e-01" nType="0">
            <Node pos="l" depth="3" NCoef="0" IVar="1" Cut="4.7619048506021500e-02" cType="1" res="-9.9000000000000000e+01" rms="0.0000000000000000e+00" purity="9.1577517986297607e-01" nType="0">
              <Node pos="l" depth="4" NCoef="0" IVar="-1" Cut="4.7619048506021500e-02" cType="0" res="-9.9000000000000000e+01" rms="0.0000000000000000e+00" purity="9.4145703315734863e-01" nType="1"/>
              <Node pos="r" depth="4" NCoef="0" IVar="6" Cut="4.7619048506021500e-02" cType="1" res="-9.9000000000000000e+01" rms="0.0000000000000000e+00" purity="5.9111666679382324e-01" nType="0">
                <Node pos="l" depth="5" NCoef="0" IVar="28" Cut="4.7619048506021500e-02" cType="0" res="-9.9000000000000000e+01" rms="0.0000000000000000e+00" purity="7.3866051435470581e-01" nType="0">
                  <Node pos="l" depth="6" NCoef="0" IVar="-1" Cut="0.0000000000000000e+00" cType="1" res="-9.9000000000000000e+01" rms="0.0000000000000000e+00" purity="9.5363718271255493e-01" nType="1"/>
                  <Node pos="r" depth="6" NCoef="0" IVar="30" Cut="4.7619048506021500e-02" cType="0" res="-9.9000000000000000e+01" rms="0.0000000000000000e+00" purity="6.0575050115585327e-01" nType="0">
                    <Node pos="l" depth="7" NCoef="0" IVar="-1" Cut="0.0000000000000000e+00" cType="1" res="-9.9000000000000000e+01" rms="0.0000000000000000e+00" purity="9.2319118976593018e-01" nType="1"/>
                    <Node pos="r" depth="7" NCoef="0" IVar="-1" Cut="0.0000000000000000e+00" cType="1" res="-9.9000000000000000e+01" rms="0.0000000000000000e+00" purity="3.7251624464988708e-01" nType="-1"/>
                  </Node>
                </Node>
                <Node pos="r" depth="5" NCoef="0" IVar="-1" Cut="0.0000000000000000e+00" cType="1" res="-9.9000000000000000e+01" rms="0.0000000000000000e+00" purity="1.3811944425106049e-01" nType="-1"/>
              </Node>
            </Node>
            <Node pos="r" depth="3" NCoef="0" IVar="8" Cut="4.7619048506021500e-02" cType="1" res="-9.9000000000000000e+01" rms="0.0000000000000000e+00" purity="4.1475802659988403e-01" nType="0">
              <Node pos="l" depth="4" NCoef="0" IVar="42" Cut="4.7619048506021500e-02" cType="1" res="-9.9000000000000000e+01" rms="0.0000000000000000e+00" purity="5.4551333189010620e-01" nType="0">
                <Node pos="l" depth="5" NCoef="0" IVar="-1" Cut="4.7619048506021500e-02" cType="0" res="-9.9000000000000000e+01" rms="0.0000000000000000e+00" purity="7.4956512451171875e-01" nType="1"/>
                <Node pos="r" depth="5" NCoef="0" IVar="-1" Cut="0.0000000000000000e+00" cType="1" res="-9.9000000000000000e+01" rms="0.0000000000000000e+00" purity="2.7442544698715210e-01" nType="-1"/>
              </Node>
              <Node pos="r" depth="4" NCoef="0" IVar="-1" Cut="4.7619048506021500e-02" cType="1" res="-9.9000000000000000e+01" rms="0.0000000000000000e+00" purity="2.0536188781261444e-01" nType="-1"/>
            </Node>
          </Node>
          <Node pos="r" depth="2" NCoef="0" IVar="60" Cut="4.7619048506021500e-02" cType="0" res="-9.9000000000000000e+01" rms="0.0000000000000000e+00" purity="5.8835577964782715e-01" nType="0">
            <Node pos="l" depth="3" NCoef="0" IVar="7" Cut="4.7619048506021500e-02" cType="1" res="-9.9000000000000000e+01" rms="0.0000000000000000e+00" purity="9.0299773216247559e-01" nType="0">
              <Node pos="l" depth="4" NCoef="0" IVar="-1" Cut="4.7619048506021500e-02" cType="1" res="-9.9000000000000000e+01" rms="0.0000000000000000e+00" purity="9.2403191328048706e-01" nType="1"/>
              <Node pos="r" depth="4" NCoef="0" IVar="4" Cut="4.7619048506021500e-02" cType="1" res="-9.9000000000000000e+01" rms="0.0000000000000000e+00" purity="4.3873527646064758e-01" nType="0">
                <Node pos="l" depth="5" NCoef="0" IVar="-1" Cut="4.7619048506021500e-02" cType="1" res="-9.9000000000000000e+01" rms="0.0000000000000000e+00" purity="5.9770607948303223e-01" nType="1"/>
                <Node pos="r" depth="5" NCoef="0" IVar="-1" Cut="0.0000000000000000e+00" cType="1" res="-9.9000000000000000e+01" rms="0.0000000000000000e+00" purity="1.5480971336364746e-01" nType="-1"/>
              </Node>
            </Node>
            <Node pos="r" depth="3" NCoef="0" IVar="57" Cut="4.7619048506021500e-02" cType="0" res="-9.9000000000000000e+01" rms="0.0000000000000000e+00" purity="5.6609660387039185e-01" nType="0">
              <Node pos="l" depth="4" NCoef="0" IVar="51" Cut="4.7619048506021500e-02" cType="1" res="-9.9000000000000000e+01" rms="0.0000000000000000e+00" purity="9.0356028079986572e-01" nType="0">
                <Node pos="l" depth="5" NCoef="0" IVar="1" Cut="4.7619048506021500e-02" cType="1" res="-9.9000000000000000e+01" rms="0.0000000000000000e+00" purity="9.2674666643142700e-01" nType="0">
                  <Node pos="l" depth="6" NCoef="0" IVar="-1" Cut="4.7619048506021500e-02" cType="1" res="-9.9000000000000000e+01" rms="0.0000000000000000e+00" purity="9.5013403892517090e-01" nType="1"/>
                  <Node pos="r" depth="6" NCoef="0" IVar="6" Cut="4.7619048506021500e-02" cType="1" res="-9.9000000000000000e+01" rms="0.0000000000000000e+00" purity="6.3196390867233276e-01" nType="0">
                    <Node pos="l" depth="7" NCoef="0" IVar="-1" Cut="0.0000000000000000e+00" cType="1" res="-9.9000000000000000e+01" rms="0.0000000000000000e+00" purity="7.2900229692459106e-01" nType="1"/>
                    <Node pos="r" depth="7" NCoef="0" IVar="-1" Cut="0.0000000000000000e+00" cType="1" res="-9.9000000000000000e+01" rms="0.0000000000000000e+00" purity="1.9534116983413696e-01" nType="-1"/>
                  </Node>
                </Node>
                <Node pos="r" depth="5" NCoef="0" IVar="-1" Cut="4.7619048506021500e-02" cType="1" res="-9.9000000000000000e+01" rms="0.0000000000000000e+00" purity="3.4266036748886108e-01" nType="-1"/>
              </Node>
              <Node pos="r" depth="4" NCoef="0" IVar="45" Cut="4.7619048506021500e-02" cType="0" res="-9.9000000000000000e+01" rms="0.0000000000000000e+00" purity="5.4220288991928101e-01" nType="0">
                <Node pos="l" depth="5" NCoef="0" IVar="1" Cut="4.7619048506021500e-02" cType="1" res="-9.9000000000000000e+01" rms="0.0000000000000000e+00" purity="8.4009981155395508e-01" nType="0">
                  <Node pos="l" depth="6" NCoef="0" IVar="-1" Cut="4.7619048506021500e-02" cType="0" res="-9.9000000000000000e+01" rms="0.0000000000000000e+00" purity="8.8369107246398926e-01" nType="1"/>
                  <Node pos="r" depth="6" NCoef="0" IVar="51" Cut="4.7619048506021500e-02" cType="1" res="-9.9000000000000000e+01" rms="0.0000000000000000e+00" purity="4.6776476502418518e-01" nType="0">
                    <Node pos="l" depth="7" NCoef="0" IVar="-1" Cut="0.0000000000000000e+00" cType="1" res="-9.9000000000000000e+01" rms="0.0000000000000000e+00" purity="5.6150144338607788e-01" nType="1"/>
                    <Node pos="r" depth="7" NCoef="0" IVar="-1" Cut="0.0000000000000000e+00" cType="1" res="-9.9000000000000000e+01" rms="0.0000000000000000e+00" purity="1.7334641516208649e-01" nType="-1"/>
                  </Node>
                </Node>
                <Node pos="r" depth="5" NCoef="0" IVar="42" Cut="4.7619048506021500e-02" cType="0" res="-9.9000000000000000e+01" rms="0.0000000000000000e+00" purity="5.0790274143218994e-01" nType="0">
                  <Node pos="l" depth="6" NCoef="0" IVar="-1" Cut="4.7619048506021500e-02" cType="1" res="-9.9000000000000000e+01" rms="0.0000000000000000e+00" purity="8.3977359533309937e-01" nType="1"/>
                  <Node pos="r" depth="6" NCoef="0" IVar="64" Cut="4.7619048506021500e-02" cType="0" res="-9.9000000000000000e+01" rms="0.0000000000000000e+00" purity="4.6886968612670898e-01" nType="0">
                    <Node pos="l" depth="7" NCoef="0" IVar="-1" Cut="0.0000000000000000e+00" cType="1" res="-9.9000000000000000e+01" rms="0.0000000000000000e+00" purity="9.2984849214553833e-01" nType="1"/>
                    <Node pos="r" depth="7" NCoef="0" IVar="-1" Cut="0.0000000000000000e+00" cType="1" res="-9.9000000000000000e+01" rms="0.0000000000000000e+00" purity="4.3619725108146667e-01" nType="-1"/>
                  </Node>
                </Node>
              </Node>
            </Node>
          </Node>
        </Node>
        <Node pos="r" depth="1" NCoef="0" IVar="1" Cut="4.7619048506021500e-02" cType="1" res="-9.9000000000000000e+01" rms="0.0000000000000000e+00" purity="3.3629071712493896e-01" nType="0">
          <Node pos="l" depth="2" NCoef="0" IVar="2" Cut="4.7619048506021500e-02" cType="1" res="-9.9000000000000000e+01" rms="0.0000000000000000e+00" purity="4.0933838486671448e-01" nType="0">
            <Node pos="l" depth="3" NCoef="0" IVar="45" Cut="4.7619048506021500e-02" cType="0" res="-9.9000000000000000e+01" rms="0.0000000000000000e+00" purity="4.7857528924942017e-01" nType="0">
              <Node pos="l" depth="4" NCoef="0" IVar="6" Cut="4.7619048506021500e-02" cType="1" res="-9.9000000000000000e+01" rms="0.0000000000000000e+00" purity="7.8970432281494141e-01" nType="0">
                <Node pos="l" depth="5" NCoef="0" IVar="41" Cut="4.7619048506021500e-02" cType="1" res="-9.9000000000000000e+01" rms="0.0000000000000000e+00" purity="8.4506016969680786e-01" nType="0">
                  <Node pos="l" depth="6" NCoef="0" IVar="-1" Cut="4.7619048506021500e-02" cType="0" res="-9.9000000000000000e+01" rms="0.0000000000000000e+00" purity="8.9712864160537720e-01" nType="1"/>
                  <Node pos="r" depth="6" NCoef="0" IVar="3" Cut="4.7619048506021500e-02" cType="1" res="-9.9000000000000000e+01" rms="0.0000000000000000e+00" purity="6.4635384082794189e-01" nType="0">
                    <Node pos="l" depth="7" NCoef="0" IVar="-1" Cut="0.0000000000000000e+00" cType="1" res="-9.9000000000000000e+01" rms="0.0000000000000000e+00" purity="7.3217058181762695e-01" nType="1"/>
                    <Node pos="r" depth="7" NCoef="0" IVar="-1" Cut="0.0000000000000000e+00" cType="1" res="-9.9000000000000000e+01" rms="0.0000000000000000e+00" purity="4.5035588741302490e-01" nType="-1"/>
                  </Node>
                </Node>
                <Node pos="r" depth="5" NCoef="0" IVar="-1" Cut="4.7619048506021500e-02" cType="1" res="-9.9000000000000000e+01" rms="0.0000000000000000e+00" purity="3.0801376700401306e-01" nType="-1"/>
              </Node>
              <Node pos="r" depth="4" NCoef="0" IVar="65" Cut="4.7619048506021500e-02" cType="0" res="-9.9000000000000000e+01" rms="0.0000000000000000e+00" purity="4.3640053272247314e-01" nType="0">
                <Node pos="l" depth="5" NCoef="0" IVar="67" Cut="4.7619048506021500e-02" cType="0" res="-9.9000000000000000e+01" rms="0.0000000000000000e+00" purity="8.7474840879440308e-01" nType="0">
                  <Node pos="l" depth="6" NCoef="0" IVar="-1" Cut="4.7619048506021500e-02" cType="0" res="-9.9000000000000000e+01" rms="0.0000000000000000e+00" purity="9.4636076688766479e-01" nType="1"/>
                  <Node pos="r" depth="6" NCoef="0" IVar="71" Cut="4.7619048506021500e-02" cType="0" res="-9.9000000000000000e+01" rms="0.0000000000000000e+00" purity="7.2008138895034790e-01" nType="0">
                    <Node pos="l" depth="7" NCoef="0" IVar="-1" Cut="0.0000000000000000e+00" cType="1" res="-9.9000000000000000e+01" rms="0.0000000000000000e+00" purity="9.5564419031143188e-01" nType="1"/>
                    <Node pos="r" depth="7" NCoef="0" IVar="-1" Cut="0.0000000000000000e+00" cType="1" res="-9.9000000000000000e+01" rms="0.0000000000000000e+00" purity="3.3618128299713135e-01" nType="-1"/>
                  </Node>
                </Node>
                <Node pos="r" depth="5" NCoef="0" IVar="13" Cut="4.7619048506021500e-02" cType="0" res="-9.9000000000000000e+01" rms="0.0000000000000000e+00" purity="3.9762309193611145e-01" nType="0">
                  <Node pos="l" depth="6" NCoef="0" IVar="4" Cut="4.7619048506021500e-02" cType="1" res="-9.9000000000000000e+01" rms="0.0000000000000000e+00" purity="7.8576201200485229e-01" nType="0">
                    <Node pos="l" depth="7" NCoef="0" IVar="-1" Cut="0.0000000000000000e+00" cType="1" res="-9.9000000000000000e+01" rms="0.0000000000000000e+00" purity="8.5195255279541016e-01" nType="1"/>
                    <Node pos="r" depth="7" NCoef="0" IVar="-1" Cut="0.0000000000000000e+00" cType="1" res="-9.9000000000000000e+01" rms="0.0000000000000000e+00" purity="4.0522149205207825e-01" nType="-1"/>
                  </Node>
                  <Node pos="r" depth="6" NCoef="0" IVar="15" Cut="4.7619048506021500e-02" cType="0" res="-9.9000000000000000e+01" rms="0.0000000000000000e+00" purity="3.6093541979789734e-01" nType="0">
                    <Node pos="l" depth="7" NCoef="0" IVar="-1" Cut="0.0000000000000000e+00" cType="1" res="-9.9000000000000000e+01" rms="0.0000000000000000e+00" purity="7.8146338462829590e-01" nType="1"/>
                    <Node pos="r" depth="7" NCoef="0" IVar="-1" Cut="0.0000000000000000e+00" cType="1" res="-9.9000000000000000e+01" rms="0.0000000000000000e+00" purity="3.3559188246726990e-01" nType="-1"/>
                  </Node>
                </Node>
              </Node>
            </Node>
            <Node pos="r" depth="3" NCoef="0" IVar="13" Cut="4.7619048506021500e-02" cType="0" res="-9.9000000000000000e+01" rms="0.0000000000000000e+00" purity="2.2462441027164459e-01" nType="0">
              <Node pos="l" depth="4" NCoef="0" IVar="4" Cut="4.7619048506021500e-02" cType="1" res="-9.9000000000000000e+01" rms="0.0000000000000000e+00" purity="5.7423859834671021e-01" nType="0">
                <Node pos="l" depth="5" NCoef="0" IVar="5" Cut="4.7619048506021500e-02" cType="1" res="-9.9000000000000000e+01" rms="0.0000000000000000e+00" purity="7.1566790342330933e-01" nType="0">
                  <Node pos="l" depth="6" NCoef="0" IVar="-1" Cut="0.0000000000000000e+00" cType="1" res="-9.9000000000000000e+01" rms="0.0000000000000000e+00" purity="8.3613497018814087e-01" nType="1"/>
                  <Node pos="r" depth="6" NCoef="0" IVar="-1" Cut="0.0000000000000000e+00" cType="1" res="-9.9000000000000000e+01" rms="0.0000000000000000e+00" purity="4.2120194435119629e-01" nType="-1"/>
                </Node>
                <Node pos="r" depth="5" NCoef="0" IVar="-1" Cut="0.0000000000000000e+00" cType="1" res="-9.9000000000000000e+01" rms="0.0000000000000000e+00" purity="1.7569728195667267e-01" nType="-1"/>
              </Node>
              <Node pos="r" depth="4" NCoef="0" IVar="46" Cut="4.7619048506021500e-02" cType="0" res="-9.9000000000000000e+01" rms="0.0000000000000000e+00" purity="1.9660647213459015e-01" nType="0">
                <Node pos="l" depth="5" NCoef="0" IVar="4" Cut="4.7619048506021500e-02" cType="1" res="-9.9000000000000000e+01" rms="0.0000000000000000e+00" purity="5.7768487930297852e-01" nType="0">
                  <Node pos="l" depth="6" NCoef="0" IVar="25" Cut="4.7619048506021500e-02" cType="0" res="-9.9000000000000000e+01" rms="0.0000000000000000e+00" purity="7.1599894762039185e-01" nType="0">
                    <Node pos="l" depth="7" NCoef="0" IVar="-1" Cut="0.0000000000000000e+00" cType="1" res="-9.9000000000000000e+01" rms="0.0000000000000000e+00" purity="8.9163023233413696e-01" nType="1"/>
                    <Node pos="r" depth="7" NCoef="0" IVar="-1" Cut="0.0000000000000000e+00" cType="1" res="-9.9000000000000000e+01" rms="0.0000000000000000e+00" purity="3.5711270570755005e-01" nType="-1"/>
                  </Node>
                  <Node pos="r" depth="6" NCoef="0" IVar="-1" Cut="0.0000000000000000e+00" cType="1" res="-9.9000000000000000e+01" rms="0.0000000000000000e+00" purity="1.5875482559204102e-01" nType="-1"/>
                </Node>
                <Node pos="r" depth="5" NCoef="0" IVar="56" Cut="4.7619048506021500e-02" cType="0" res="-9.9000000000000000e+01" rms="0.0000000000000000e+00" purity="1.6675920784473419e-01" nType="0">
                  <Node pos="l" depth="6" NCoef="0" IVar="-1" Cut="0.0000000000000000e+00" cType="1" res="-9.9000000000000000e+01" rms="0.0000000000000000e+00" purity="7.0611792802810669e-01" nType="1"/>
                  <Node pos="r" depth="6" NCoef="0" IVar="65" Cut="4.7619048506021500e-02" cType="0" res="-9.9000000000000000e+01" rms="0.0000000000000000e+00" purity="1.4585535228252411e-01" nType="0">
                    <Node pos="l" depth="7" NCoef="0" IVar="-1" Cut="0.0000000000000000e+00" cType="1" res="-9.9000000000000000e+01" rms="0.0000000000000000e+00" purity="5.5131000280380249e-01" nType="1"/>
                    <Node pos="r" depth="7" NCoef="0" IVar="-1" Cut="0.0000000000000000e+00" cType="1" res="-9.9000000000000000e+01" rms="0.0000000000000000e+00" purity="1.2728385627269745e-01" nType="-1"/>
                  </Node>
                </Node>
              </Node>
            </Node>
          </Node>
          <Node pos="r" depth="2" NCoef="0" IVar="17" Cut="4.7619048506021500e-02" cType="0" res="-9.9000000000000000e+01" rms="0.0000000000000000e+00" purity="1.5776464343070984e-01" nType="0">
            <Node pos="l" depth="3" NCoef="0" IVar="14" Cut="4.7619048506021500e-02" cType="0" res="-9.9000000000000000e+01" rms="0.0000000000000000e+00" purity="4.2800360918045044e-01" nType="0">
              <Node pos="l" depth="4" NCoef="0" IVar="-1" Cut="0.0000000000000000e+00" cType="1" res="-9.9000000000000000e+01" rms="0.0000000000000000e+00" purity="8.2619518041610718e-01" nType="1"/>
              <Node pos="r" depth="4" NCoef="0" IVar="4" Cut="4.7619048506021500e-02" cType="1" res="-9.9000000000000000e+01" rms="0.0000000000000000e+00" purity="3.2668772339820862e-01" nType="0">
                <Node pos="l" depth="5" NCoef="0" IVar="3" Cut="4.7619048506021500e-02" cType="1" res="-9.9000000000000000e+01" rms="0.0000000000000000e+00" purity="4.1298767924308777e-01" nType="0">
                  <Node pos="l" depth="6" NCoef="0" IVar="-1" Cut="0.0000000000000000e+00" cType="1" res="-9.9000000000000000e+01" rms="0.0000000000000000e+00" purity="5.2342945337295532e-01" nType="1"/>
                  <Node pos="r" depth="6" NCoef="0" IVar="-1" Cut="0.0000000000000000e+00" cType="1" res="-9.9000000000000000e+01" rms="0.0000000000000000e+00" purity="1.9603542983531952e-01" nType="-1"/>
                </Node>
                <Node pos="r" depth="5" NCoef="0" IVar="2" Cut="4.7619048506021500e-02" cType="1" res="-9.9000000000000000e+01" rms="0.0000000000000000e+00" purity="1.9546458125114441e-01" nType="-1"/>
              </Node>
            </Node>
            <Node pos="r" depth="3" NCoef="0" IVar="6" Cut="4.7619048506021500e-02" cType="1" res="-9.9000000000000000e+01" rms="0.0000000000000000e+00" purity="1.3780774176120758e-01" nType="0">
              <Node pos="l" depth="4" NCoef="0" IVar="35" Cut="4.7619048506021500e-02" cType="0" res="-9.9000000000000000e+01" rms="0.0000000000000000e+00" purity="1.8192580342292786e-01" nType="0">
                <Node pos="l" depth="5" NCoef="0" IVar="-1" Cut="0.0000000000000000e+00" cType="1" res="-9.9000000000000000e+01" rms="0.0000000000000000e+00" purity="6.6090816259384155e-01" nType="1"/>
                <Node pos="r" depth="5" NCoef="0" IVar="28" Cut="4.7619048506021500e-02" cType="0" res="-9.9000000000000000e+01" rms="0.0000000000000000e+00" purity="1.6815119981765747e-01" nType="0">
                  <Node pos="l" depth="6" NCoef="0" IVar="2" Cut="4.7619048506021500e-02" cType="1" res="-9.9000000000000000e+01" rms="0.0000000000000000e+00" purity="5.5379414558410645e-01" nType="0">
                    <Node pos="l" depth="7" NCoef="0" IVar="-1" Cut="0.0000000000000000e+00" cType="1" res="-9.9000000000000000e+01" rms="0.0000000000000000e+00" purity="6.8403905630111694e-01" nType="1"/>
                    <Node pos="r" depth="7" NCoef="0" IVar="-1" Cut="0.0000000000000000e+00" cType="1" res="-9.9000000000000000e+01" rms="0.0000000000000000e+00" purity="2.4086444079875946e-01" nType="-1"/>
                  </Node>
                  <Node pos="r" depth="6" NCoef="0" IVar="-1" Cut="4.7619048506021500e-02" cType="0" res="-9.9000000000000000e+01" rms="0.0000000000000000e+00" purity="1.5008533000946045e-01" nType="-1"/>
                </Node>
              </Node>
              <Node pos="r" depth="4" NCoef="0" IVar="-1" Cut="4.7619048506021500e-02" cType="0" res="-9.9000000000000000e+01" rms="0.0000000000000000e+00" purity="2.9464894905686378e-02" nType="-1"/>
            </Node>
          </Node>
        </Node>
      </Node>
    </BinaryTree>
    <BinaryTree type="DecisionTree" boostWeight="9.2758371965108033e-01" itree="2">
      <Node pos="s" depth="0" NCoef="0" IVar="1" Cut="4.7619048506021500e-02" cType="1" res="-9.9000000000000000e+01" rms="0.0000000000000000e+00" purity="6.5221530199050903e-01" nType="0">
        <Node pos="l" depth="1" NCoef="0" IVar="0" Cut="4.7619048506021500e-02" cType="1" res="-9.9000000000000000e+01" rms="0.0000000000000000e+00" purity="6.9194370508193970e-01" nType="0">
          <Node pos="l" depth="2" NCoef="0" IVar="61" Cut="4.7619048506021500e-02" cType="0" res="-9.9000000000000000e+01" rms="0.0000000000000000e+00" purity="7.1979504823684692e-01" nType="0">
            <Node pos="l" depth="3" NCoef="0" IVar="42" Cut="4.7619048506021500e-02" cType="1" res="-9.9000000000000000e+01" rms="0.0000000000000000e+00" purity="9.2637526988983154e-01" nType="0">
              <Node pos="l" depth="4" NCoef="0" IVar="-1" Cut="4.7619048506021500e-02" cType="1" res="-9.9000000000000000e+01" rms="0.0000000000000000e+00" purity="9.5019704103469849e-01" nType="1"/>
              <Node pos="r" depth="4" NCoef="0" IVar="41" Cut="4.7619048506021500e-02" cType="1" res="-9.9000000000000000e+01" rms="0.0000000000000000e+00" purity="4.2014285922050476e-01" nType="0">
                <Node pos="l" depth="5" NCoef="0" IVar="23" Cut="4.7619048506021500e-02" cType="1" res="-9.9000000000000000e+01" rms="0.0000000000000000e+00" purity="5.7995909452438354e-01" nType="0">
                  <Node pos="l" depth="6" NCoef="0" IVar="-1" Cut="0.0000000000000000e+00" cType="1" res="-9.9000000000000000e+01" rms="0.0000000000000000e+00" purity="6.7153239250183105e-01" nType="1"/>
                  <Node pos="r" depth="6" NCoef="0" IVar="-1" Cut="0.0000000000000000e+00" cType="1" res="-9.9000000000000000e+01" rms="0.0000000000000000e+00" purity="4.4384396076202393e-01" nType="-1"/>
                </Node>
                <Node pos="r" depth="5" NCoef="0" IVar="-1" Cut="0.0000000000000000e+00" cType="1" res="-9.9000000000000000e+01" rms="0.0000000000000000e+00" purity="1.8672882020473480e-01" nType="-1"/>
              </Node>
            </Node>
            <Node pos="r" depth="3" NCoef="0" IVar="65" Cut="4.7619048506021500e-02" cType="0" res="-9.9000000000000000e+01" rms="0.0000000000000000e+00" purity="6.9712007045745850e-01" nType="0">
              <Node pos="l" depth="4" NCoef="0" IVar="42" Cut="4.7619048506021500e-02" cType="1" res="-9.9000000000000000e+01" rms="0.0000000000000000e+00" purity="9.0335452556610107e-01" nType="0">
                <Node pos="l" depth="5" NCoef="0" IVar="45" Cut="4.7619048506021500e-02" cType="1" res="-9.9000000000000000e+01" rms="0.0000000000000000e+00" purity="9.3887746334075928e-01" nType="0">
                  <Node pos="l" depth="6" NCoef="0" IVar="-1" Cut="4.7619048506021500e-02" cType="0" res="-9.9000000000000000e+01" rms="0.0000000000000000e+00" purity="9.4847035408020020e-01" nType="1"/>
                  <Node pos="r" depth="6" NCoef="0" IVar="-1" Cut="0.0000000000000000e+00" cType="1" res="-9.9000000000000000e+01" rms="0.0000000000000000e+00" purity="4.8986619710922241e-01" nType="-1"/>
                </Node>
                <Node pos="r" depth="5" NCoef="0" IVar="-1" Cut="4.7619048506021500e-02" cType="1" res="-9.9000000000000000e+01" rms="0.0000000000000000e+00" purity="3.0877166986465454e-01" nType="-1"/>
              </Node>
              <Node pos="r" depth="4" NCoef="0" IVar="43" Cut="4.7619048506021500e-02" cType="0" res="-9.9000000000000000e+01" rms="0.0000000000000000e+00" purity="6.7805051803588867e-01" nType="0">
                <Node pos="l" depth="5" NCoef="0" IVar="42" Cut="4.7619048506021500e-02" cType="1" res="-9.9000000000000000e+01" rms="0.0000000000000000e+00" purity="8.5797333717346191e-01" nType="0">
                  <Node pos="l" depth="6" NCoef="0" IVar="-1" Cut="4.7619048506021500e-02" cType="1" res="-9.9000000000000000e+01" rms="0.0000000000000000e+00" purity="8.9437967538833618e-01" nType="1"/>
                  <Node pos="r" depth="6" NCoef="0" IVar="24" Cut="4.7619048506021500e-02" cType="1" res="-9.9000000000000000e+01" rms="0.0000000000000000e+00" purity="4.3367919325828552e-01" nType="0">
                    <Node pos="l" depth="7" NCoef="0" IVar="-1" Cut="0.0000000000000000e+00" cType="1" res="-9.9000000000000000e+01" rms="0.0000000000000000e+00" purity="5.4415696859359741e-01" nType="1"/>
                    <Node pos="r" depth="7" NCoef="0" IVar="-1" Cut="0.0000000000000000e+00" cType="1" res="-9.9000000000000000e+01" rms="0.0000000000000000e+00" purity="1.6424132883548737e-01" nType="-1"/>
                  </Node>
                </Node>
                <Node pos="r" depth="5" NCoef="0" IVar="-1" Cut="4.7619048506021500e-02" cType="0" res="-9.9000000000000000e+01" rms="0.0000000000000000e+00" purity="6.4906126260757446e-01" nType="1"/>
              </Node>
            </Node>
          </Node>
          <Node pos="r" depth="2" NCoef="0" IVar="2" Cut="4.7619048506021500e-02" cType="1" res="-9.9000000000000000e+01" rms="0.0000000000000000e+00" purity="5.2902185916900635e-01" nType="0">
            <Node pos="l" depth="3" NCoef="0" IVar="6" Cut="4.7619048506021500e-02" cType="1" res="-9.9000000000000000e+01" rms="0.0000000000000000e+00" purity="5.9538239240646362e-01" nType="0">
              <Node pos="l" depth="4" NCoef="0" IVar="4" Cut="4.7619048506021500e-02" cType="1" res="-9.9000000000000000e+01" rms="0.0000000000000000e+00" purity="6.2554824352264404e-01" nType="0">
                <Node pos="l" depth="5" NCoef="0" IVar="9" Cut="4.7619048506021500e-02" cType="0" res="-9.9000000000000000e+01" rms="0.0000000000000000e+00" purity="6.4903682470321655e-01" nType="0">
                  <Node pos="l" depth="6" NCoef="0" IVar="3" Cut="4.7619048506021500e-02" cType="1" res="-9.9000000000000000e+01" rms="0.0000000000000000e+00" purity="8.5340034961700439e-01" nType="0">
                    <Node pos="l" depth="7" NCoef="0" IVar="-1" Cut="0.0000000000000000e+00" cType="1" res="-9.9000000000000000e+01" rms="0.0000000000000000e+00" purity="8.9376926422119141e-01" nType="1"/>
                    <Node pos="r" depth="7" NCoef="0" IVar="-1" Cut="0.0000000000000000e+00" cType="1" res="-9.9000000000000000e+01" rms="0.0000000000000000e+00" purity="4.3883714079856873e-01" nType="-1"/>
                  </Node>
                  <Node pos="r" depth="6" NCoef="0" IVar="-1" Cut="4.7619048506021500e-02" cType="0" res="-9.9000000000000000e+01" rms="0.0000000000000000e+00" purity="6.1888575553894043e-01" nType="1"/>
                </Node>
                <Node pos="r" depth="5" NCoef="0" IVar="46" Cut="4.7619048506021500e-02" cType="0" res="-9.9000000000000000e+01" rms="0.0000000000000000e+00" purity="3.7627565860748291e-01" nType="0">
                  <Node pos="l" depth="6" NCoef="0" IVar="-1" Cut="0.0000000000000000e+00" cType="1" res="-9.9000000000000000e+01" rms="0.0000000000000000e+00" purity="7.7390682697296143e-01" nType="1"/>
                  <Node pos="r" depth="6" NCoef="0" IVar="13" Cut="4.7619048506021500e-02" cType="0" res="-9.9000000000000000e+01" rms="0.0000000000000000e+00" purity="3.1659209728240967e-01" nType="0">
                    <Node pos="l" depth="7" NCoef="0" IVar="-1" Cut="0.0000000000000000e+00" cType="1" res="-9.9000000000000000e+01" rms="0.0000000000000000e+00" purity="6.4919573068618774e-01" nType="1"/>
                    <Node pos="r" depth="7" NCoef="0" IVar="-1" Cut="0.0000000000000000e+00" cType="1" res="-9.9000000000000000e+01" rms="0.0000000000000000e+00" purity="2.7124056220054626e-01" nType="-1"/>
                  </Node>
                </Node>
              </Node>
              <Node pos="r" depth="4" NCoef="0" IVar="16" Cut="4.7619048506021500e-02" cType="0" res="-9.9000000000000000e+01" rms="0.0000000000000000e+00" purity="3.1017211079597473e-01" nType="0">
                <Node pos="l" depth="5" NCoef="0" IVar="4" Cut="4.7619048506021500e-02" cType="1" res="-9.9000000000000000e+01" rms="0.0000000000000000e+00" purity="5.8515995740890503e-01" nType="0">
                  <Node pos="l" depth="6" NCoef="0" IVar="-1" Cut="0.0000000000000000e+00" cType="1" res="-9.9000000000000000e+01" rms="0.0000000000000000e+00" purity="7.0338338613510132e-01" nType="1"/>
                  <Node pos="r" depth="6" NCoef="0" IVar="-1" Cut="0.0000000000000000e+00" cType="1" res="-9.9000000000000000e+01" rms="0.0000000000000000e+00" purity="4.6708711981773376e-01" nType="-1"/>
                </Node>
                <Node pos="r" depth="5" NCoef="0" IVar="49" Cut="4.7619048506021500e-02" cType="0" res="-9.9000000000000000e+01" rms="0.0000000000000000e+00" purity="2.5561970472335815e-01" nType="0">
                  <Node pos="l" depth="6" NCoef="0" IVar="-1" Cut="0.0000000000000000e+00" cType="1" res="-9.9000000000000000e+01" rms="0.0000000000000000e+00" purity="5.8427315950393677e-01" nType="1"/>
                  <Node pos="r" depth="6" NCoef="0" IVar="-1" Cut="4.7619048506021500e-02" cType="1" res="-9.9000000000000000e+01" rms="0.0000000000000000e+00" purity="2.1548351645469666e-01" nType="-1"/>
                </Node>
              </Node>
            </Node>
            <Node pos="r" depth="3" NCoef="0" IVar="4" Cut="4.7619048506021500e-02" cType="1" res="-9.9000000000000000e+01" rms="0.0000000000000000e+00" purity="3.2520759105682373e-01" nType="0">
              <Node pos="l" depth="4" NCoef="0" IVar="48" Cut="4.7619048506021500e-02" cType="0" res="-9.9000000000000000e+01" rms="0.0000000000000000e+00" purity="3.8688156008720398e-01" nType="0">
                <Node pos="l" depth="5" NCoef="0" IVar="-1" Cut="0.0000000000000000e+00" cType="1" res="-9.9000000000000000e+01" rms="0.0000000000000000e+00" purity="7.6896756887435913e-01" nType="1"/>
                <Node pos="r" depth="5" NCoef="0" IVar="31" Cut="4.7619048506021500e-02" cType="0" res="-9.9000000000000000e+01" rms="0.0000000000000000e+00" purity="3.5954371094703674e-01" nType="0">
                  <Node pos="l" depth="6" NCoef="0" IVar="-1" Cut="0.0000000000000000e+00" cType="1" res="-9.9000000000000000e+01" rms="0.0000000000000000e+00" purity="8.0638462305068970e-01" nType="1"/>
                  <Node pos="r" depth="6" NCoef="0" IVar="15" Cut="4.7619048506021500e-02" cType="0" res="-9.9000000000000000e+01" rms="0.0000000000000000e+00" purity="3.3632695674896240e-01" nType="0">
                    <Node pos="l" depth="7" NCoef="0" IVar="-1" Cut="0.0000000000000000e+00" cType="1" res="-9.9000000000000000e+01" rms="0.0000000000000000e+00" purity="7.4095672369003296e-01" nType="1"/>
                    <Node pos="r" depth="7" NCoef="0" IVar="-1" Cut="0.0000000000000000e+00" cType="1" res="-9.9000000000000000e+01" rms="0.0000000000000000e+00" purity="3.1524845957756042e-01" nType="-1"/>
                  </Node>
                </Node>
              </Node>
              <Node pos="r" depth="4" NCoef="0" IVar="14" Cut="4.7619048506021500e-02" cType="0" res="-9.9000000000000000e+01" rms="0.0000000000000000e+00" purity="1.5075142681598663e-01" nType="0">
                <Node pos="l" depth="5" NCoef="0" IVar="-1" Cut="0.0000000000000000e+00" cType="1" res="-9.9000000000000000e+01" rms="0.0000000000000000e+00" purity="6.0170364379882812e-01" nType="1"/>
                <Node pos="r" depth="5" NCoef="0" IVar="49" Cut="4.7619048506021500e-02" cType="0" res="-9.9000000000000000e+01" rms="0.0000000000000000e+00" purity="1.0712730884552002e-01" nType="0">
                  <Node pos="l" depth="6" NCoef="0" IVar="-1" Cut="0.0000000000000000e+00" cType="1" res="-9.9000000000000000e+01" rms="0.0000000000000000e+00" purity="5.1577824354171753e-01" nType="1"/>
                  <Node pos="r" depth="6" NCoef="0" IVar="-1" Cut="4.7619048506021500e-02" cType="0" res="-9.9000000000000000e+01" rms="0.0000000000000000e+00" purity="6.6199801862239838e-02" nType="-1"/>
                </Node>
              </Node>
            </Node>
          </Node>
        </Node>
        <Node pos="r" depth="1" NCoef="0" IVar="3" Cut="4.7619048506021500e-02" cType="1" res="-9.9000000000000000e+01" rms="0.0000000000000000e+00" purity="4.3391269445419312e-01" nType="0">
          <Node pos="l" depth="2" NCoef="0" IVar="5" Cut="4.7619048506021500e-02" cType="1" res="-9.9000000000000000e+01" rms="0.0000000000000000e+00" purity="5.2392351627349854e-01" nType="0">
            <Node pos="l" depth="3" NCoef="0" IVar="0" Cut="4.7619048506021500e-02" cType="1" res="-9.9000000000000000e+01" rms="0.0000000000000000e+00" purity="5.6962180137634277e-01" nType="0">
              <Node pos="l" depth="4" NCoef="0" IVar="39" Cut="4.7619048506021500e-02" cType="0" res="-9.9000000000000000e+01" rms="0.0000000000000000e+00" purity="6.2693101167678833e-01" nType="0">
                <Node pos="l" depth="5" NCoef="0" IVar="-1" Cut="0.0000000000000000e+00" cType="1" res="-9.9000000000000000e+01" rms="0.0000000000000000e+00" purity="1.0000000000000000e+00" nType="1"/>
                <Node pos="r" depth="5" NCoef="0" IVar="52" Cut="4.7619048506021500e-02" cType="0" res="-9.9000000000000000e+01" rms="0.0000000000000000e+00" purity="6.0448688268661499e-01" nType="0">
                  <Node pos="l" depth="6" NCoef="0" IVar="42" Cut="4.7619048506021500e-02" cType="1" res="-9.9000000000000000e+01" rms="0.0000000000000000e+00" purity="8.8107210397720337e-01" nType="0">
                    <Node pos="l" depth="7" NCoef="0" IVar="-1" Cut="0.0000000000000000e+00" cType="1" res="-9.9000000000000000e+01" rms="0.0000000000000000e+00" purity="9.2943036556243896e-01" nType="1"/>
                    <Node pos="r" depth="7" NCoef="0" IVar="-1" Cut="0.0000000000000000e+00" cType="1" res="-9.9000000000000000e+01" rms="0.0000000000000000e+00" purity="3.8303682208061218e-01" nType="-1"/>
                  </Node>
                  <Node pos="r" depth="6" NCoef="0" IVar="-1" Cut="4.7619048506021500e-02" cType="0" res="-9.9000000000000000e+01" rms="0.0000000000000000e+00" purity="5.7046097517013550e-01" nType="1"/>
                </Node>
              </Node>
              <Node pos="r" depth="4" NCoef="0" IVar="46" Cut="4.7619048506021500e-02" cType="0" res="-9.9000000000000000e+01" rms="0.0000000000000000e+00" purity="3.7786936759948730e-01" nType="0">
                <Node pos="l" depth="5" NCoef="0" IVar="44" Cut="4.7619048506021500e-02" cType="0" res="-9.9000000000000000e+01" rms="0.0000000000000000e+00" purity="7.3108518123626709e-01" nType="0">
                  <Node pos="l" depth="6" NCoef="0" IVar="-1" Cut="0.0000000000000000e+00" cType="1" res="-9.9000000000000000e+01" rms="0.0000000000000000e+00" purity="8.3513081073760986e-01" nType="1"/>
                  <Node pos="r" depth="6" NCoef="0" IVar="-1" Cut="0.0000000000000000e+00" cType="1" res="-9.9000000000000000e+01" rms="0.0000000000000000e+00" purity="3.0669263005256653e-01" nType="-1"/>
                </Node>
                <Node pos="r" depth="5" NCoef="0" IVar="6" Cut="4.7619048506021500e-02" cType="1" res="-9.9000000000000000e+01" rms="0.0000000000000000e+00" purity="3.4031736850738525e-01" nType="0">
                  <Node pos="l" depth="6" NCoef="0" IVar="41" Cut="4.7619048506021500e-02" cType="0" res="-9.9000000000000000e+01" rms="0.0000000000000000e+00" purity="3.8470962643623352e-01" nType="0">
                    <Node pos="l" depth="7" NCoef="0" IVar="-1" Cut="0.0000000000000000e+00" cType="1" res="-9.9000000000000000e+01" rms="0.0000000000000000e+00" purity="5.7599258422851562e-01" nType="1"/>
                    <Node pos="r" depth="7" NCoef="0" IVar="-1" Cut="0.0000000000000000e+00" cType="1" res="-9.9000000000000000e+01" rms="0.0000000000000000e+00" purity="3.2956239581108093e-01" nType="-1"/>
                  </Node>
                  <Node pos="r" depth="6" NCoef="0" IVar="-1" Cut="4.7619048506021500e-02" cType="0" res="-9.9000000000000000e+01" rms="0.0000000000000000e+00" purity="1.1146147549152374e-01" nType="-1"/>
                </Node>
              </Node>
            </Node>
            <Node pos="r" depth="3" NCoef="0" IVar="13" Cut="4.7619048506021500e-02" cType="0" res="-9.9000000000000000e+01" rms="0.0000000000000000e+00" purity="2.2234623134136200e-01" nType="0">
              <Node pos="l" depth="4" NCoef="0" IVar="15" Cut="4.7619048506021500e-02" cType="0" res="-9.9000000000000000e+01" rms="0.0000000000000000e+00" purity="4.6035844087600708e-01" nType="0">
                <Node pos="l" depth="5" NCoef="0" IVar="-1" Cut="0.0000000000000000e+00" cType="1" res="-9.9000000000000000e+01" rms="0.0000000000000000e+00" purity="6.9830173254013062e-01" nType="1"/>
                <Node pos="r" depth="5" NCoef="0" IVar="-1" Cut="4.7619048506021500e-02" cType="1" res="-9.9000000000000000e+01" rms="0.0000000000000000e+00" purity="3.5643002390861511e-01" nType="-1"/>
              </Node>
              <Node pos="r" depth="4" NCoef="0" IVar="14" Cut="4.7619048506021500e-02" cType="0" res="-9.9000000000000000e+01" rms="0.0000000000000000e+00" purity="1.7258214950561523e-01" nType="0">
                <Node pos="l" depth="5" NCoef="0" IVar="12" Cut="4.7619048506021500e-02" cType="1" res="-9.9000000000000000e+01" rms="0.0000000000000000e+00" purity="4.7643122076988220e-01" nType="0">
                  <Node pos="l" depth="6" NCoef="0" IVar="-1" Cut="0.0000000000000000e+00" cType="1" res="-9.9000000000000000e+01" rms="0.0000000000000000e+00" purity="6.1070907115936279e-01" nType="1"/>
                  <Node pos="r" depth="6" NCoef="0" IVar="-1" Cut="0.0000000000000000e+00" cType="1" res="-9.9000000000000000e+01" rms="0.0000000000000000e+00" purity="3.6095330119132996e-01" nType="-1"/>
                </Node>
                <Node pos="r" depth="5" NCoef="0" IVar="-1" Cut="4.7619048506021500e-02" cType="1" res="-9.9000000000000000e+01" rms="0.0000000000000000e+00" purity="1.4215721189975739e-01" nType="-1"/>
              </Node>
            </Node>
          </Node>
          <Node pos="r" depth="2" NCoef="0" IVar="5" Cut="4.7619048506021500e-02" cType="1" res="-9.9000000000000000e+01" rms="0.0000000000000000e+00" purity="2.3277741670608521e-01" nType="0">
            <Node pos="l" depth="3" NCoef="0" IVar="7" Cut="4.7619048506021500e-02" cType="1" res="-9.9000000000000000e+01" rms="0.0000000000000000e+00" purity="2.9595345258712769e-01" nType="0">
              <Node pos="l" depth="4" NCoef="0" IVar="70" Cut="4.7619048506021500e-02" cType="0" res="-9.9000000000000000e+01" rms="0.0000000000000000e+00" purity="3.4308770298957825e-01" nType="0">
                <Node pos="l" depth="5" NCoef="0" IVar="-1" Cut="0.0000000000000000e+00" cType="1" res="-9.9000000000000000e+01" rms="0.0000000000000000e+00" purity="7.5902098417282104e-01" nType="1"/>
                <Node pos="r" depth="5" NCoef="0" IVar="34" Cut="4.7619048506021500e-02" cType="0" res="-9.9000000000000000e+01" rms="0.0000000000000000e+00" purity="3.1760129332542419e-01" nType="0">
                  <Node pos="l" depth="6" NCoef="0" IVar="-1" Cut="0.0000000000000000e+00" cType="1" res="-9.9000000000000000e+01" rms="0.0000000000000000e+00" purity="7.0003461837768555e-01" nType="1"/>
                  <Node pos="r" depth="6" NCoef="0" IVar="-1" Cut="4.7619048506021500e-02" cType="1" res="-9.9000000000000000e+01" rms="0.0000000000000000e+00" purity="2.9916390776634216e-01" nType="-1"/>
                </Node>
              </Node>
              <Node pos="r" depth="4" NCoef="0" IVar="-1" Cut="4.7619048506021500e-02" cType="0" res="-9.9000000000000000e+01" rms="0.0000000000000000e+00" purity="4.7881953418254852e-02" nType="-1"/>
            </Node>
            <Node pos="r" depth="3" NCoef="0" IVar="-1" Cut="4.7619048506021500e-02" cType="0" res="-9.9000000000000000e+01" rms="0.0000000000000000e+00" purity="1.1561761796474457e-01" nType="-1"/>
          </Node>
        </Node>
      </Node>
    </BinaryTree>
    <BinaryTree type="DecisionTree" boostWeight="9.4743230406801993e-01" itree="3">
      <Node pos="s" depth="0" NCoef="0" IVar="61" Cut="4.7619048506021500e-02" cType="0" res="-9.9000000000000000e+01" rms="0.0000000000000000e+00" purity="4.8573106527328491e-01" nType="0">
        <Node pos="l" depth="1" NCoef="0" IVar="34" Cut="4.7619048506021500e-02" cType="0" res="-9.9000000000000000e+01" rms="0.0000000000000000e+00" purity="7.9164779186248779e-01" nType="0">
          <Node pos="l" depth="2" NCoef="0" IVar="46" Cut="4.7619048506021500e-02" cType="1" res="-9.9000000000000000e+01" rms="0.0000000000000000e+00" purity="9.5457196235656738e-01" nType="0">
            <Node pos="l" depth="3" NCoef="0" IVar="-1" Cut="4.7619048506021500e-02" cType="1" res="-9.9000000000000000e+01" rms="0.0000000000000000e+00" purity="9.7720605134963989e-01" nType="1"/>
            <Node pos="r" depth="3" NCoef="0" IVar="-1" Cut="0.0000000000000000e+00" cType="1" res="-9.9000000000000000e+01" rms="0.0000000000000000e+00" purity="4.8863399028778076e-01" nType="-1"/>
          </Node>
          <Node pos="r" depth="2" NCoef="0" IVar="63" Cut="4.7619048506021500e-02" cType="0" res="-9.9000000000000000e+01" rms="0.0000000000000000e+00" purity="6.5435272455215454e-01" nType="0">
            <Node pos="l" depth="3" NCoef="0" IVar="4" Cut="4.7619048506021500e-02" cType="1" res="-9.9000000000000000e+01" rms="0.0000000000000000e+00" purity="8.2067614793777466e-01" nType="0">
              <Node pos="l" depth="4" NCoef="0" IVar="23" Cut="4.7619048506021500e-02" cType="1" res="-9.9000000000000000e+01" rms="0.0000000000000000e+00" purity="8.8401663303375244e-01" nType="0">
                <Node pos="l" depth="5" NCoef="0" IVar="-1" Cut="4.7619048506021500e-02" cType="1" res="-9.9000000000000000e+01" rms="0.0000000000000000e+00" purity="9.1855430603027344e-01" nType="1"/>
                <Node pos="r" depth="5" NCoef="0" IVar="-1" Cut="0.0000000000000000e+00" cType="1" res="-9.9000000000000000e+01" rms="0.0000000000000000e+00" purity="3.5661688446998596e-01" nType="-1"/>
              </Node>
              <Node pos="r" depth="4" NCoef="0" IVar="5" Cut="4.7619048506021500e-02" cType="1" res="-9.9000000000000000e+01" rms="0.0000000000000000e+00" purity="4.0873709321022034e-01" nType="0">
                <Node pos="l" depth="5" NCoef="0" IVar="-1" Cut="0.0000000000000000e+00" cType="1" res="-9.9000000000000000e+01" rms="0.0000000000000000e+00" purity="5.3621238470077515e-01" nType="1"/>
                <Node pos="r" depth="5" NCoef="0" IVar="-1" Cut="0.0000000000000000e+00" cType="1" res="-9.9000000000000000e+01" rms="0.0000000000000000e+00" purity="2.0076017081737518e-01" nType="-1"/>
              </Node>
            </Node>
            <Node pos="r" depth="3" NCoef="0" IVar="35" Cut="4.7619048506021500e-02" cType="0" res="-9.9000000000000000e+01" rms="0.0000000000000000e+00" purity="4.7284579277038574e-01" nType="0">
              <Node pos="l" depth="4" NCoef="0" IVar="9" Cut="4.7619048506021500e-02" cType="1" res="-9.9000000000000000e+01" rms="0.0000000000000000e+00" purity="9.1153126955032349e-01" nType="1"/>
              <Node pos="r" depth="4" NCoef="0" IVar="0" Cut="4.7619048506021500e-02" cType="1" res="-9.9000000000000000e+01" rms="0.0000000000000000e+00" purity="4.1500967741012573e-01" nType="0">
                <Node pos="l" depth="5" NCoef="0" IVar="4" Cut="4.7619048506021500e-02" cType="1" res="-9.9000000000000000e+01" rms="0.0000000000000000e+00" purity="4.9307119846343994e-01" nType="0">
                  <Node pos="l" depth="6" NCoef="0" IVar="67" Cut="4.7619048506021500e-02" cType="0" res="-9.9000000000000000e+01" rms="0.0000000000000000e+00" purity="5.6930559873580933e-01" nType="0">
                    <Node pos="l" depth="7" NCoef="0" IVar="-1" Cut="0.0000000000000000e+00" cType="1" res="-9.9000000000000000e+01" rms="0.0000000000000000e+00" purity="7.8221696615219116e-01" nType="1"/>
                    <Node pos="r" depth="7" NCoef="0" IVar="-1" Cut="0.0000000000000000e+00" cType="1" res="-9.9000000000000000e+01" rms="0.0000000000000000e+00" purity="4.6566674113273621e-01" nType="-1"/>
                  </Node>
                  <Node pos="r" depth="6" NCoef="0" IVar="-1" Cut="4.7619048506021500e-02" cType="1" res="-9.9000000000000000e+01" rms="0.0000000000000000e+00" purity="2.3393805325031281e-01" nType="-1"/>
                </Node>
                <Node pos="r" depth="5" NCoef="0" IVar="-1" Cut="4.7619048506021500e-02" cType="0" res="-9.9000000000000000e+01" rms="0.0000000000000000e+00" purity="1.7653138935565948e-01" nType="-1"/>
              </Node>
            </Node>
          </Node>
        </Node>
        <Node pos="r" depth="1" NCoef="0" IVar="39" Cut="4.7619048506021500e-02" cType="0" res="-9.9000000000000000e+01" rms="0.0000000000000000e+00" purity="4.6322202682495117e-01" nType="0">
          <Node pos="l" depth="2" NCoef="0" IVar="-1" Cut="0.0000000000000000e+00" cType="1" res="-9.9000000000000000e+01" rms="0.0000000000000000e+00" purity="1.0000000000000000e+00" nType="1"/>
          <Node pos="r" depth="2" NCoef="0" IVar="65" Cut="4.7619048506021500e-02" cType="0" res="-9.9000000000000000e+01" rms="0.0000000000000000e+00" purity="4.4929876923561096e-01" nType="0">
            <Node pos="l" depth="3" NCoef="0" IVar="36" Cut="4.7619048506021500e-02" cType="0" res="-9.9000000000000000e+01" rms="0.0000000000000000e+00" purity="7.8511315584182739e-01" nType="0">
              <Node pos="l" depth="4" NCoef="0" IVar="51" Cut="4.7619048506021500e-02" cType="1" res="-9.9000000000000000e+01" rms="0.0000000000000000e+00" purity="9.6357947587966919e-01" nType="0">
                <Node pos="l" depth="5" NCoef="0" IVar="-1" Cut="4.7619048506021500e-02" cType="1" res="-9.9000000000000000e+01" rms="0.0000000000000000e+00" purity="9.8070412874221802e-01" nType="1"/>
                <Node pos="r" depth="5" NCoef="0" IVar="-1" Cut="0.0000000000000000e+00" cType="1" res="-9.9000000000000000e+01" rms="0.0000000000000000e+00" purity="3.8946238160133362e-01" nType="-1"/>
              </Node>
              <Node pos="r" depth="4" NCoef="0" IVar="37" Cut="4.7619048506021500e-02" cType="0" res="-9.9000000000000000e+01" rms="0.0000000000000000e+00" purity="6.1763566732406616e-01" nType="0">
                <Node pos="l" depth="5" NCoef="0" IVar="-1" Cut="4.7619048506021500e-02" cType="1" res="-9.9000000000000000e+01" rms="0.0000000000000000e+00" purity="9.3992221355438232e-01" nType="1"/>
                <Node pos="r" depth="5" NCoef="0" IVar="38" Cut="4.7619048506021500e-02" cType="0" res="-9.9000000000000000e+01" rms="0.0000000000000000e+00" purity="5.1475542783737183e-01" nType="0">
                  <Node pos="l" depth="6" NCoef="0" IVar="40" Cut="4.7619048506021500e-02" cType="1" res="-9.9000000000000000e+01" rms="0.0000000000000000e+00" purity="8.7814170122146606e-01" nType="0">
                    <Node pos="l" depth="7" NCoef="0" IVar="-1" Cut="0.0000000000000000e+00" cType="1" res="-9.9000000000000000e+01" rms="0.0000000000000000e+00" purity="9.3931716680526733e-01" nType="1"/>
                    <Node pos="r" depth="7" NCoef="0" IVar="-1" Cut="0.0000000000000000e+00" cType="1" res="-9.9000000000000000e+01" rms="0.0000000000000000e+00" purity="4.4610577821731567e-01" nType="-1"/>
                  </Node>
                  <Node pos="r" depth="6" NCoef="0" IVar="15" Cut="4.7619048506021500e-02" cType="0" res="-9.9000000000000000e+01" rms="0.0000000000000000e+00" purity="3.6699536442756653e-01" nType="0">
                    <Node pos="l" depth="7" NCoef="0" IVar="-1" Cut="0.0000000000000000e+00" cType="1" res="-9.9000000000000000e+01" rms="0.0000000000000000e+00" purity="6.6774725914001465e-01" nType="1"/>
                    <Node pos="r" depth="7" NCoef="0" IVar="-1" Cut="0.0000000000000000e+00" cType="1" res="-9.9000000000000000e+01" rms="0.0000000000000000e+00" purity="3.1360325217247009e-01" nType="-1"/>
                  </Node>
                </Node>
              </Node>
            </Node>
            <Node pos="r" depth="3" NCoef="0" IVar="14" Cut="4.7619048506021500e-02" cType="0" res="-9.9000000000000000e+01" rms="0.0000000000000000e+00" purity="4.2784205079078674e-01" nType="0">
              <Node pos="l" depth="4" NCoef="0" IVar="6" Cut="4.7619048506021500e-02" cType="1" res="-9.9000000000000000e+01" rms="0.0000000000000000e+00" purity="7.6702117919921875e-01" nType="0">
                <Node pos="l" depth="5" NCoef="0" IVar="18" Cut="4.7619048506021500e-02" cType="1" res="-9.9000000000000000e+01" rms="0.0000000000000000e+00" purity="8.2113617658615112e-01" nType="0">
                  <Node pos="l" depth="6" NCoef="0" IVar="-1" Cut="4.7619048506021500e-02" cType="1" res="-9.9000000000000000e+01" rms="0.0000000000000000e+00" purity="8.3828157186508179e-01" nType="1"/>
                  <Node pos="r" depth="6" NCoef="0" IVar="-1" Cut="0.0000000000000000e+00" cType="1" res="-9.9000000000000000e+01" rms="0.0000000000000000e+00" purity="1.8789570033550262e-01" nType="-1"/>
                </Node>
                <Node pos="r" depth="5" NCoef="0" IVar="5" Cut="4.7619048506021500e-02" cType="1" res="-9.9000000000000000e+01" rms="0.0000000000000000e+00" purity="4.3243685364723206e-01" nType="0">
                  <Node pos="l" depth="6" NCoef="0" IVar="15" Cut="4.7619048506021500e-02" cType="0" res="-9.9000000000000000e+01" rms="0.0000000000000000e+00" purity="5.8067542314529419e-01" nType="0">
                    <Node pos="l" depth="7" NCoef="0" IVar="-1" Cut="0.0000000000000000e+00" cType="1" res="-9.9000000000000000e+01" rms="0.0000000000000000e+00" purity="8.6987775564193726e-01" nType="1"/>
                    <Node pos="r" depth="7" NCoef="0" IVar="-1" Cut="0.0000000000000000e+00" cType="1" res="-9.9000000000000000e+01" rms="0.0000000000000000e+00" purity="4.9486932158470154e-01" nType="-1"/>
                  </Node>
                  <Node pos="r" depth="6" NCoef="0" IVar="-1" Cut="4.7619048506021500e-02" cType="0" res="-9.9000000000000000e+01" rms="0.0000000000000000e+00" purity="2.3476852476596832e-01" nType="-1"/>
                </Node>
              </Node>
              <Node pos="r" depth="4" NCoef="0" IVar="43" Cut="4.7619048506021500e-02" cType="0" res="-9.9000000000000000e+01" rms="0.0000000000000000e+00" purity="4.0862688422203064e-01" nType="0">
                <Node pos="l" depth="5" NCoef="0" IVar="6" Cut="4.7619048506021500e-02" cType="1" res="-9.9000000000000000e+01" rms="0.0000000000000000e+00" purity="6.3300794363021851e-01" nType="0">
                  <Node pos="l" depth="6" NCoef="0" IVar="45" Cut="4.7619048506021500e-02" cType="1" res="-9.9000000000000000e+01" rms="0.0000000000000000e+00" purity="6.9915866851806641e-01" nType="0">
                    <Node pos="l" depth="7" NCoef="0" IVar="-1" Cut="0.0000000000000000e+00" cType="1" res="-9.9000000000000000e+01" rms="0.0000000000000000e+00" purity="7.4483335018157959e-01" nType="1"/>
                    <Node pos="r" depth="7" NCoef="0" IVar="-1" Cut="0.0000000000000000e+00" cType="1" res="-9.9000000000000000e+01" rms="0.0000000000000000e+00" purity="3.8913357257843018e-01" nType="-1"/>
                  </Node>
                  <Node pos="r" depth="6" NCoef="0" IVar="-1" Cut="4.7619048506021500e-02" cType="1" res="-9.9000000000000000e+01" rms="0.0000000000000000e+00" purity="3.1669074296951294e-01" nType="-1"/>
                </Node>
                <Node pos="r" depth="5" NCoef="0" IVar="55" Cut="4.7619048506021500e-02" cType="0" res="-9.9000000000000000e+01" rms="0.0000000000000000e+00" purity="3.7956529855728149e-01" nType="0">
                  <Node pos="l" depth="6" NCoef="0" IVar="-1" Cut="4.7619048506021500e-02" cType="0" res="-9.9000000000000000e+01" rms="0.0000000000000000e+00" purity="7.7782899141311646e-01" nType="1"/>
                  <Node pos="r" depth="6" NCoef="0" IVar="52" Cut="4.7619048506021500e-02" cType="0" res="-9.9000000000000000e+01" rms="0.0000000000000000e+00" purity="3.5654300451278687e-01" nType="0">
                    <Node pos="l" depth="7" NCoef="0" IVar="-1" Cut="0.0000000000000000e+00" cType="1" res="-9.9000000000000000e+01" rms="0.0000000000000000e+00" purity="7.7976536750793457e-01" nType="1"/>
                    <Node pos="r" depth="7" NCoef="0" IVar="-1" Cut="0.0000000000000000e+00" cType="1" res="-9.9000000000000000e+01" rms="0.0000000000000000e+00" purity="3.3238840103149414e-01" nType="-1"/>
                  </Node>
                </Node>
              </Node>
            </Node>
          </Node>
        </Node>
      </Node>
    </BinaryTree>
    <BinaryTree type="DecisionTree" boostWeight="6.2003292225518059e-01" itree="4">
      <Node pos="s" depth="0" NCoef="0" IVar="35" Cut="4.7619048506021500e-02" cType="0" res="-9.9000000000000000e+01" rms="0.0000000000000000e+00" purity="5.9320336580276489e-01" nType="0">
        <Node pos="l" depth="1" NCoef="0" IVar="41" Cut="4.7619048506021500e-02" cType="1" res="-9.9000000000000000e+01" rms="0.0000000000000000e+00" purity="8.7714737653732300e-01" nType="0">
          <Node pos="l" depth="2" NCoef="0" IVar="44" Cut="4.7619048506021500e-02" cType="1" res="-9.9000000000000000e+01" rms="0.0000000000000000e+00" purity="9.3495696783065796e-01" nType="0">
            <Node pos="l" depth="3" NCoef="0" IVar="60" Cut="4.7619048506021500e-02" cType="0" res="-9.9000000000000000e+01" rms="0.0000000000000000e+00" purity="9.5208251476287842e-01" nType="0">
              <Node pos="l" depth="4" NCoef="0" IVar="-1" Cut="4.7619048506021500e-02" cType="0" res="-9.9000000000000000e+01" rms="0.0000000000000000e+00" purity="9.9585819244384766e-01" nType="1"/>
              <Node pos="r" depth="4" NCoef="0" IVar="61" Cut="4.7619048506021500e-02" cType="0" res="-9.9000000000000000e+01" rms="0.0000000000000000e+00" purity="8.4859251976013184e-01" nType="0">
                <Node pos="l" depth="5" NCoef="0" IVar="-1" Cut="4.7619048506021500e-02" cType="0" res="-9.9000000000000000e+01" rms="0.0000000000000000e+00" purity="9.6603655815124512e-01" nType="1"/>
                <Node pos="r" depth="5" NCoef="0" IVar="64" Cut="4.7619048506021500e-02" cType="0" res="-9.9000000000000000e+01" rms="0.0000000000000000e+00" purity="7.1944963932037354e-01" nType="0">
                  <Node pos="l" depth="6" NCoef="0" IVar="-1" Cut="0.0000000000000000e+00" cType="1" res="-9.9000000000000000e+01" rms="0.0000000000000000e+00" purity="9.9367445707321167e-01" nType="1"/>
                  <Node pos="r" depth="6" NCoef="0" IVar="1" Cut="4.7619048506021500e-02" cType="1" res="-9.9000000000000000e+01" rms="0.0000000000000000e+00" purity="5.0698506832122803e-01" nType="0">
                    <Node pos="l" depth="7" NCoef="0" IVar="-1" Cut="0.0000000000000000e+00" cType="1" res="-9.9000000000000000e+01" rms="0.0000000000000000e+00" purity="5.6962358951568604e-01" nType="1"/>
                    <Node pos="r" depth="7" NCoef="0" IVar="-1" Cut="0.0000000000000000e+00" cType="1" res="-9.9000000000000000e+01" rms="0.0000000000000000e+00" purity="2.5459933280944824e-01" nType="-1"/>
                  </Node>
                </Node>
              </Node>
            </Node>
            <Node pos="r" depth="3" NCoef="0" IVar="-1" Cut="0.0000000000000000e+00" cType="1" res="-9.9000000000000000e+01" rms="0.0000000000000000e+00" purity="4.8919895291328430e-01" nType="-1"/>
          </Node>
          <Node pos="r" depth="2" NCoef="0" IVar="12" Cut="4.7619048506021500e-02" cType="1" res="-9.9000000000000000e+01" rms="0.0000000000000000e+00" purity="3.9261999726295471e-01" nType="0">
            <Node pos="l" depth="3" NCoef="0" IVar="60" Cut="4.7619048506021500e-02" cType="0" res="-9.9000000000000000e+01" rms="0.0000000000000000e+00" purity="5.8187806606292725e-01" nType="0">
              <Node pos="l" depth="4" NCoef="0" IVar="-1" Cut="0.0000000000000000e+00" cType="1" res="-9.9000000000000000e+01" rms="0.0000000000000000e+00" purity="9.3637478351593018e-01" nType="1"/>
              <Node pos="r" depth="4" NCoef="0" IVar="22" Cut="4.7619048506021500e-02" cType="0" res="-9.9000000000000000e+01" rms="0.0000000000000000e+00" purity="4.0200495719909668e-01" nType="0">
                <Node pos="l" depth="5" NCoef="0" IVar="-1" Cut="0.0000000000000000e+00" cType="1" res="-9.9000000000000000e+01" rms="0.0000000000000000e+00" purity="5.2959078550338745e-01" nType="1"/>
                <Node pos="r" depth="5" NCoef="0" IVar="-1" Cut="0.0000000000000000e+00" cType="1" res="-9.9000000000000000e+01" rms="0.0000000000000000e+00" purity="3.0475100874900818e-01" nType="-1"/>
              </Node>
            </Node>
            <Node pos="r" depth="3" NCoef="0" IVar="-1" Cut="4.7619048506021500e-02" cType="0" res="-9.9000000000000000e+01" rms="0.0000000000000000e+00" purity="2.0633311569690704e-01" nType="-1"/>
          </Node>
        </Node>
        <Node pos="r" depth="1" NCoef="0" IVar="33" Cut="4.7619048506021500e-02" cType="0" res="-9.9000000000000000e+01" rms="0.0000000000000000e+00" purity="5.8142888545989990e-01" nType="0">
          <Node pos="l" depth="2" NCoef="0" IVar="41" Cut="4.7619048506021500e-02" cType="1" res="-9.9000000000000000e+01" rms="0.0000000000000000e+00" purity="8.6523097753524780e-01" nType="0">
            <Node pos="l" depth="3" NCoef="0" IVar="52" Cut="4.7619048506021500e-02" cType="1" res="-9.9000000000000000e+01" rms="0.0000000000000000e+00" purity="9.1081285476684570e-01" nType="0">
              <Node pos="l" depth="4" NCoef="0" IVar="-1" Cut="4.7619048506021500e-02" cType="1" res="-9.9000000000000000e+01" rms="0.0000000000000000e+00" purity="9.2853331565856934e-01" nType="1"/>
              <Node pos="r" depth="4" NCoef="0" IVar="-1" Cut="0.0000000000000000e+00" cType="1" res="-9.9000000000000000e+01" rms="0.0000000000000000e+00" purity="4.1243964433670044e-01" nType="-1"/>
            </Node>
            <Node pos="r" depth="3" NCoef="0" IVar="9" Cut="4.7619048506021500e-02" cType="1" res="-9.9000000000000000e+01" rms="0.0000000000000000e+00" purity="5.0509500503540039e-01" nType="0">
              <Node pos="l" depth="4" NCoef="0" IVar="23" Cut="4.7619048506021500e-02" cType="1" res="-9.9000000000000000e+01" rms="0.0000000000000000e+00" purity="6.2372022867202759e-01" nType="0">
                <Node pos="l" depth="5" NCoef="0" IVar="-1" Cut="4.7619048506021500e-02" cType="0" res="-9.9000000000000000e+01" rms="0.0000000000000000e+00" purity="7.3260259628295898e-01" nType="1"/>
                <Node pos="r" depth="5" NCoef="0" IVar="-1" Cut="0.0000000000000000e+00" cType="1" res="-9.9000000000000000e+01" rms="0.0000000000000000e+00" purity="3.9803659915924072e-01" nType="-1"/>
              </Node>
              <Node pos="r" depth="4" NCoef="0" IVar="40" Cut="4.7619048506021500e-02" cType="0" res="-9.9000000000000000e+01" rms="0.0000000000000000e+00" purity="3.2833778858184814e-01" nType="0">
                <Node pos="l" depth="5" NCoef="0" IVar="-1" Cut="0.0000000000000000e+00" cType="1" res="-9.9000000000000000e+01" rms="0.0000000000000000e+00" purity="5.0619995594024658e-01" nType="1"/>
                <Node pos="r" depth="5" NCoef="0" IVar="-1" Cut="0.0000000000000000e+00" cType="1" res="-9.9000000000000000e+01" rms="0.0000000000000000e+00" purity="1.9947636127471924e-01" nType="-1"/>
              </Node>
            </Node>
          </Node>
          <Node pos="r" depth="2" NCoef="0" IVar="27" Cut="4.7619048506021500e-02" cType="0" res="-9.9000000000000000e+01" rms="0.0000000000000000e+00" purity="5.6942075490951538e-01" nType="0">
            <Node pos="l" depth="3" NCoef="0" IVar="50" Cut="4.7619048506021500e-02" cType="0" res="-9.9000000000000000e+01" rms="0.0000000000000000e+00" purity="8.0887234210968018e-01" nType="0">
              <Node pos="l" depth="4" NCoef="0" IVar="26" Cut="4.7619048506021500e-02" cType="1" res="-9.9000000000000000e+01" rms="0.0000000000000000e+00" purity="9.2059719562530518e-01" nType="0">
                <Node pos="l" depth="5" NCoef="0" IVar="43" Cut="4.7619048506021500e-02" cType="1" res="-9.9000000000000000e+01" rms="0.0000000000000000e+00" purity="9.5254504680633545e-01" nType="0">
                  <Node pos="l" depth="6" NCoef="0" IVar="-1" Cut="4.7619048506021500e-02" cType="1" res="-9.9000000000000000e+01" rms="0.0000000000000000e+00" purity="9.6842122077941895e-01" nType="1"/>
                  <Node pos="r" depth="6" NCoef="0" IVar="4" Cut="4.7619048506021500e-02" cType="1" res="-9.9000000000000000e+01" rms="0.0000000000000000e+00" purity="6.3481163978576660e-01" nType="0">
                    <Node pos="l" depth="7" NCoef="0" IVar="-1" Cut="0.0000000000000000e+00" cType="1" res="-9.9000000000000000e+01" rms="0.0000000000000000e+00" purity="7.5762134790420532e-01" nType="1"/>
                    <Node pos="r" depth="7" NCoef="0" IVar="-1" Cut="0.0000000000000000e+00" cType="1" res="-9.9000000000000000e+01" rms="0.0000000000000000e+00" purity="3.2788264751434326e-01" nType="-1"/>
                  </Node>
                </Node>
                <Node pos="r" depth="5" NCoef="0" IVar="-1" Cut="4.7619048506021500e-02" cType="1" res="-9.9000000000000000e+01" rms="0.0000000000000000e+00" purity="3.7376448512077332e-01" nType="-1"/>
              </Node>
              <Node pos="r" depth="4" NCoef="0" IVar="51" Cut="4.7619048506021500e-02" cType="0" res="-9.9000000000000000e+01" rms="0.0000000000000000e+00" purity="5.8734643459320068e-01" nType="0">
                <Node pos="l" depth="5" NCoef="0" IVar="41" Cut="4.7619048506021500e-02" cType="1" res="-9.9000000000000000e+01" rms="0.0000000000000000e+00" purity="7.9195392131805420e-01" nType="0">
                  <Node pos="l" depth="6" NCoef="0" IVar="-1" Cut="4.7619048506021500e-02" cType="1" res="-9.9000000000000000e+01" rms="0.0000000000000000e+00" purity="8.8210839033126831e-01" nType="1"/>
                  <Node pos="r" depth="6" NCoef="0" IVar="-1" Cut="0.0000000000000000e+00" cType="1" res="-9.9000000000000000e+01" rms="0.0000000000000000e+00" purity="3.2041046023368835e-01" nType="-1"/>
                </Node>
                <Node pos="r" depth="5" NCoef="0" IVar="12" Cut="4.7619048506021500e-02" cType="1" res="-9.9000000000000000e+01" rms="0.0000000000000000e+00" purity="4.1706460714340210e-01" nType="0">
                  <Node pos="l" depth="6" NCoef="0" IVar="3" Cut="4.7619048506021500e-02" cType="1" res="-9.9000000000000000e+01" rms="0.0000000000000000e+00" purity="4.8806405067443848e-01" nType="0">
                    <Node pos="l" depth="7" NCoef="0" IVar="-1" Cut="0.0000000000000000e+00" cType="1" res="-9.9000000000000000e+01" rms="0.0000000000000000e+00" purity="5.6324344873428345e-01" nType="1"/>
                    <Node pos="r" depth="7" NCoef="0" IVar="-1" Cut="0.0000000000000000e+00" cType="1" res="-9.9000000000000000e+01" rms="0.0000000000000000e+00" purity="3.4115695953369141e-01" nType="-1"/>
                  </Node>
                  <Node pos="r" depth="6" NCoef="0" IVar="-1" Cut="4.7619048506021500e-02" cType="0" res="-9.9000000000000000e+01" rms="0.0000000000000000e+00" purity="2.5477364659309387e-01" nType="-1"/>
                </Node>
              </Node>
            </Node>
            <Node pos="r" depth="3" NCoef="0" IVar="46" Cut="4.7619048506021500e-02" cType="0" res="-9.9000000000000000e+01" rms="0.0000000000000000e+00" purity="5.5346876382827759e-01" nType="0">
              <Node pos="l" depth="4" NCoef="0" IVar="41" Cut="4.7619048506021500e-02" cType="1" res="-9.9000000000000000e+01" rms="0.0000000000000000e+00" purity="7.7350646257400513e-01" nType="0">
                <Node pos="l" depth="5" NCoef="0" IVar="25" Cut="4.7619048506021500e-02" cType="0" res="-9.9000000000000000e+01" rms="0.0000000000000000e+00" purity="8.1954473257064819e-01" nType="0">
                  <Node pos="l" depth="6" NCoef="0" IVar="43" Cut="4.7619048506021500e-02" cType="1" res="-9.9000000000000000e+01" rms="0.0000000000000000e+00" purity="9.2033571004867554e-01" nType="0">
                    <Node pos="l" depth="7" NCoef="0" IVar="-1" Cut="0.0000000000000000e+00" cType="1" res="-9.9000000000000000e+01" rms="0.0000000000000000e+00" purity="9.3199139833450317e-01" nType="1"/>
                    <Node pos="r" depth="7" NCoef="0" IVar="-1" Cut="0.0000000000000000e+00" cType="1" res="-9.9000000000000000e+01" rms="0.0000000000000000e+00" purity="4.7987103462219238e-01" nType="-1"/>
                  </Node>
                  <Node pos="r" depth="6" NCoef="0" IVar="-1" Cut="4.7619048506021500e-02" cType="0" res="-9.9000000000000000e+01" rms="0.0000000000000000e+00" purity="6.9183498620986938e-01" nType="1"/>
                </Node>
                <Node pos="r" depth="5" NCoef="0" IVar="16" Cut="4.7619048506021500e-02" cType="0" res="-9.9000000000000000e+01" rms="0.0000000000000000e+00" purity="4.6837210655212402e-01" nType="0">
                  <Node pos="l" depth="6" NCoef="0" IVar="7" Cut="4.7619048506021500e-02" cType="1" res="-9.9000000000000000e+01" rms="0.0000000000000000e+00" purity="6.5945011377334595e-01" nType="0">
                    <Node pos="l" depth="7" NCoef="0" IVar="-1" Cut="0.0000000000000000e+00" cType="1" res="-9.9000000000000000e+01" rms="0.0000000000000000e+00" purity="8.0007982254028320e-01" nType="1"/>
                    <Node pos="r" depth="7" NCoef="0" IVar="-1" Cut="0.0000000000000000e+00" cType="1" res="-9.9000000000000000e+01" rms="0.0000000000000000e+00" purity="4.6572071313858032e-01" nType="-1"/>
                  </Node>
                  <Node pos="r" depth="6" NCoef="0" IVar="-1" Cut="4.7619048506021500e-02" cType="1" res="-9.9000000000000000e+01" rms="0.0000000000000000e+00" purity="3.8608363270759583e-01" nType="-1"/>
                </Node>
              </Node>
              <Node pos="r" depth="4" NCoef="0" IVar="71" Cut="4.7619048506021500e-02" cType="0" res="-9.9000000000000000e+01" rms="0.0000000000000000e+00" purity="5.3056979179382324e-01" nType="0">
                <Node pos="l" depth="5" NCoef="0" IVar="-1" Cut="4.7619048506021500e-02" cType="0" res="-9.9000000000000000e+01" rms="0.0000000000000000e+00" purity="8.6460816860198975e-01" nType="1"/>
